tree
version=v3
num_class=1
num_tree_per_iteration=1
label_index=0
max_feature_idx=24
objective=regression
feature_names=date_block_num item_id shop_id target_lag_1 target_item_lag_1 target_shop_lag_1 target_lag_2 target_item_lag_2 target_shop_lag_2 target_lag_3 target_item_lag_3 target_shop_lag_3 target_lag_4 target_item_lag_4 target_shop_lag_4 target_lag_5 target_item_lag_5 target_shop_lag_5 target_lag_12 target_item_lag_12 target_shop_lag_12 item_category_id type_code subtype_code city_code
feature_infos=[12:33] [1:22169] [2:59] [0:20] [0:20] [0:20] [0:20] [0:20] [0:20] [0:20] [0:20] [0:20] [0:20] [0:20] [0:20] [0:20] [0:20] [0:20] [0:20] [0:20] [0:20] [2:83] [1:19] [0:64] [0:30]
tree_sizes=4175 4141 4156 4180 4234 4197 4198 4201 4154 4224 4249 4166 4275 4235 4254 4157 4229 4187 4097 4221 4140 4216 4095 4131 4112 4086 4172 4215 4203 4175 4170 4282 4160 4086 4252 4172 4118 4143 4134 4161 4196 4157 4151 4159 4160 4216 4139 4158 4244 4195 4176 4208 4274 4108 4252 4247 4112 4245 4223 4149 4225 4207 4200 4155 4191 4136 4126 4208 4198 4144 4210 4146 4218 4121 4078 4189 4132 4235 4098 4165 4155 4154 4227 4086 4080 4072 4044 4070 4107 4146 4086 4063 4220 4053 4249 4148 4174 4224 4085 4158

Tree=0
num_leaves=44
num_cat=0
split_feature=3 3 3 4 9 3 6 6 9 9 3 3 3 6 21 8 20 5 21 21 21 15 3 16 0 21 0 6 15 3 6 3 23 9 7 2 0 8 17 23 20 6 3
split_gain=1.95235e+06 496040 371317 98155.2 90921.9 77564 48062.9 32180.5 27933.1 25085.2 21919.7 20586.7 20403.9 17058.8 18075.4 39232.8 34775 22615.3 21033.4 73411.5 31479.8 14800.6 11965 10509.3 10217.1 11060.3 10091.4 9033.55 7092.32 6954.11 6744.54 6563.69 6007.04 5699.01 5428.19 5194.73 5185.35 5041.66 6168.19 8152.13 7885.15 4998.8 4961.51
threshold=4.5000000000000009 14.500000000000002 1.5000000000000002 19.500000000000004 11.500000000000002 8.5000000000000018 2.5000000000000004 1.5000000000000002 4.5000000000000009 4.5000000000000009 19.500000000000004 2.5000000000000004 19.500000000000004 1.0000000180025095e-35 30.500000000000004 1.0000000180025095e-35 1.0000000180025095e-35 1.0000000180025095e-35 19.500000000000004 20.500000000000004 27.500000000000004 3.5000000000000004 1.0000000180025095e-35 1.0000000180025095e-35 14.500000000000002 29.500000000000004 23.500000000000004 19.500000000000004 1.5000000000000002 1.0000000180025095e-35 6.5000000000000009 11.500000000000002 59.500000000000007 4.5000000000000009 1.0000000180025095e-35 32.000000000000007 22.500000000000004 1.0000000180025095e-35 1.0000000180025095e-35 5.5000000000000009 1.0000000180025095e-35 1.5000000000000002 6.5000000000000009
decision_type=2 2 2 2 2 2 2 2 2 2 2 2 2 2 2 2 2 2 2 2 2 2 2 2 2 2 2 2 2 2 2 2 2 2 2 2 2 2 2 2 2 2 2
left_child=2 5 3 13 12 9 11 22 -7 42 -6 -4 33 14 15 16 17 18 -1 36 -21 -8 -5 24 -22 26 35 -12 -9 37 -11 -10 41 -3 -13 -26 -20 38 39 40 -16 -15 -2
right_child=1 4 6 7 10 8 21 28 31 30 27 34 -14 32 29 -17 -18 -19 19 20 23 -23 -24 -25 25 -27 -28 -29 -30 -31 -32 -33 -34 -35 -36 -37 -38 -39 -40 -41 -42 -43 -44
leaf_value=0.3162992112429307 0.54756780055611454 0.95273174099945734 0.35382810948688292 0.29394120691737519 1.442633082719037 0.76625740392683017 0.44977438842496908 0.3466749513959283 0.96218645562366234 0.6679984564895789 1.6323002051461772 0.49242609223040384 1.3438572070809067 0.28545768642014868 0.29735910373694335 0.27069561372927664 0.26526833268369387 0.29216969426847911 0.79789251191221533 0.30987775889344715 0.3645844673107087 0.56365003820679616 0.32451912752630024 0.26580688755474835 1.0181289632027877 0.48832222302512612 0.51815151818894123 2.071430533316295 0.40511963168706677 0.28607354680655306 0.80836806781831494 1.1728829530798452 0.46840493709293768 1.2682711788475456 0.41110268309747677 0.70708061545032208 0.63396862157149414 0.26515694318200972 0.26245282445534446 0.26917803219829073 0.2632754993828671 0.31370865928032166 0.6335822003731999
leaf_weight=24043 22927 2683 130343 445990 1164 9423 44643 75514 4272 7299 619 9758 4550 355345 272997 404140 55955 31731 3742 25932 3358 15339 179464 1883 943 6957 1740 1956 28646 210680 6462 2269 1905 730 51827 1253 3998 2900904 398718 497128 90337 76033 9494
leaf_count=24043 22927 2683 130343 445990 1164 9423 44643 75514 4272 7299 619 9758 4550 355345 272997 404140 55955 31731 3742 25932 3358 15339 179464 1883 943 6957 1740 1956 28646 210680 6462 2269 1905 730 51827 1253 3998 2900904 398718 497128 90337 76033 9494
internal_value=0 5.11209 -0.05944 -0.108579 11.0848 3.98743 1.13033 0.235568 5.88767 3.33054 15.153 0.886128 9.17441 -0.15534 -0.172039 -0.00383456 0.41272 0.750498 1.05387 1.42468 0.903875 1.91168 0.149862 2.00061 2.29398 2.76414 4.10404 16.7818 0.750203 -0.193808 4.46193 7.47561 0.0349054 7.32522 1.36261 5.52967 4.25504 -0.202784 -0.149943 -0.102297 0.0115548 0.0270784 2.8503
internal_weight=0 73848 6.35125e+06 6.09934e+06 11702 62146 251910 729614 15964 46182 3739 191928 7963 5.36972e+06 4.93644e+06 565675 161535 105580 73849 49806 42066 59982 625454 16134 14251 10893 3936 2575 104160 4.37076e+06 13761 6541 433283 3413 61585 2196 7740 4.16008e+06 1.25918e+06 860462 363334 431378 32421
internal_count=6425094 73848 6351246 6099336 11702 62146 251910 729614 15964 46182 3739 191928 7963 5369722 4936439 565675 161535 105580 73849 49806 42066 59982 625454 16134 14251 10893 3936 2575 104160 4370764 13761 6541 433283 3413 61585 2196 7740 4160084 1259180 860462 363334 431378 32421
shrinkage=1


Tree=1
num_leaves=44
num_cat=0
split_feature=6 4 6 12 6 7 12 21 9 6 12 6 21 21 21 8 20 5 21 21 21 1 9 9 6 16 18 0 21 0 6 18 23 18 9 9 23 2 2 2 2 2 2
split_gain=993742 300032 240380 119121 73179.5 84430.7 70510.4 27862.8 25356.2 24953.2 24706.3 21508.4 16496.8 15968.4 13291.2 31350.1 28429.7 17609.5 17037.3 59463.2 25499.1 13946.5 12808 12675.9 9470.69 8513.13 8412.18 8275.7 8958.85 8173.56 8088.66 7630.89 6852.06 6359.94 6292.45 6271.6 6222.38 6116.84 24794.7 7578.94 6954.42 6244.53 7989.82
threshold=4.5000000000000009 19.500000000000004 15.500000000000002 11.500000000000002 1.5000000000000002 1.0000000180025095e-35 4.5000000000000009 70.500000000000014 1.5000000000000002 8.5000000000000018 2.5000000000000004 1.5000000000000002 30.500000000000004 27.500000000000004 30.500000000000004 1.0000000180025095e-35 1.0000000180025095e-35 1.0000000180025095e-35 19.500000000000004 20.500000000000004 27.500000000000004 10181.500000000002 6.5000000000000009 1.0000000180025095e-35 1.0000000180025095e-35 1.0000000180025095e-35 3.5000000000000004 14.500000000000002 29.500000000000004 23.500000000000004 8.5000000000000018 4.5000000000000009 59.500000000000007 10.500000000000002 19.500000000000004 1.5000000000000002 12.500000000000002 24.500000000000004 32.000000000000007 53.500000000000007 54.500000000000007 30.500000000000004 25.500000000000004
decision_type=2 2 2 2 2 2 2 2 2 2 2 2 2 2 2 2 2 2 2 2 2 2 2 2 2 2 2 2 2 2 2 2 2 2 2 2 2 2 2 2 2 2 2
left_child=1 11 6 22 5 12 30 34 24 31 35 14 13 36 15 16 17 18 -1 21 -21 -20 -4 -16 -7 27 -12 -22 29 -29 -2 -8 -13 -11 -5 -6 -3 -14 41 -40 -41 42 -39
right_child=2 4 3 7 10 8 9 -9 -10 33 26 32 37 -15 23 -17 -18 -19 19 20 25 -23 -24 -25 -26 -27 -28 28 -30 -31 -32 -33 -34 -35 -36 -37 -38 38 39 40 -42 -43 -44
leaf_value=0.025713172829776379 0.19023798111120138 0.19362981130043128 0.46488998547230614 0.85192524824363736 0.069765147192346069 0.0074820555316200592 0.31668534829709477 1.6234428559308931 0.0728556185035064 0.544860987268873 0.15244952120102961 0.031945026517452173 0.05479880395695387 0.31654906303677538 -0.017381236347057745 -0.013484938100961852 -0.020107177800671838 0.0062768694607980586 0.34440653872163196 0.019933865697557097 0.069169903493765353 0.8507926238210578 0.73912250344930019 0.0018764826145465778 0.036720442313183194 -0.019729918483654615 0.26392133376812538 0.4976745072887101 0.18053388697920783 0.20738024758196427 0.29180254341648931 0.48616005319603595 0.23841288950344294 0.79192362470319866 1.1994534416480571 0.11765325913545854 0.082818758530238082 0.45703118850004687 0.056810388310087993 0.40674179519333037 0.13111034596137539 0.47105051380549068 0.1852157136889705
leaf_weight=24043 32771 11260 4572 928 80316 423805 10529 1393 87713 5949 34135 86447 22634 7239 4337537 471267 56067 32252 7151 25932 3358 589 2718 371024 149998 1883 8449 2196 6957 1740 10315 3558 1638 1266 1197 41485 9222 1323 27296 1063 6615 1323 5941
leaf_count=24043 32771 11260 4572 928 80316 423805 10529 1393 87713 5949 34135 86447 22634 7239 4337537 471267 56067 32252 7151 25932 3358 589 2718 371024 149998 1883 8449 2196 6957 1740 10315 3558 1638 1266 1197 41485 9222 1323 27296 1063 6615 1323 5941
internal_value=0 -0.0427964 3.61396 7.97798 0.485348 0.35377 2.88141 12.7572 0.227803 4.36973 1.09001 -0.132261 1.24104 1.88872 -0.140342 -0.00434565 0.374897 0.679267 0.948496 1.28222 0.813497 3.82955 5.67148 -0.158638 0.151254 1.80056 1.74569 2.06461 2.48775 3.69369 2.14555 3.59497 0.357856 5.88226 10.4773 0.860765 1.43742 0.969785 1.18893 0.815051 1.69284 2.71156 2.34736
internal_weight=0 6.3499e+06 75196 10808 919817 755432 64388 3518 661516 21302 164385 5.43008e+06 93916 27721 5.342e+06 633435 162168 106101 73849 49806 42066 7740 7290 4.70856e+06 573803 16134 42584 14251 10893 3936 43086 14087 88085 7215 2125 121801 20482 66195 43561 34974 7678 8587 7264
internal_count=6425094 6349898 75196 10808 919817 755432 64388 3518 661516 21302 164385 5430081 93916 27721 5341996 633435 162168 106101 73849 49806 42066 7740 7290 4708561 573803 16134 42584 14251 10893 3936 43086 14087 88085 7215 2125 121801 20482 66195 43561 34974 7678 8587 7264
shrinkage=0.1


Tree=2
num_leaves=44
num_cat=0
split_feature=3 3 3 4 3 9 3 9 6 9 15 3 21 15 3 8 21 20 5 21 21 21 1 3 3 6 17 2 2 1 0 0 15 15 14 1 1 0 1 3 15 0 0
split_gain=1.39328e+06 329106 290553 57423 54930.4 51005.3 39714 19823.8 19771.1 17396.5 15301.3 12174.6 10834.1 10512.3 10424.5 10824.4 28777.1 23117.1 14925.4 13800.3 48165.2 20654.4 11726.9 10155.8 7385.91 7076.57 6896.1 6954.98 7358.17 5517.69 6458.44 6286.95 5207.27 5164.93 5072.62 5033.43 7939.97 7110.46 13110.9 4493.05 4399.93 3995.62 4184.86
threshold=5.5000000000000009 1.5000000000000002 15.500000000000002 16.500000000000004 3.5000000000000004 11.500000000000002 9.5000000000000018 2.5000000000000004 1.5000000000000002 5.5000000000000009 4.5000000000000009 19.500000000000004 70.500000000000014 3.5000000000000004 1.0000000180025095e-35 1.0000000180025095e-35 30.500000000000004 1.0000000180025095e-35 1.0000000180025095e-35 19.500000000000004 20.500000000000004 27.500000000000004 7807.5000000000009 1.0000000180025095e-35 2.5000000000000004 1.0000000180025095e-35 1.0000000180025095e-35 32.000000000000007 21.500000000000004 4973.5000000000009 20.500000000000004 32.500000000000007 2.5000000000000004 2.5000000000000004 1.0000000180025095e-35 4636.5000000000009 3965.5000000000005 23.500000000000004 2417.5000000000005 19.500000000000004 9.5000000000000018 19.500000000000004 23.500000000000004
decision_type=2 2 2 2 2 2 2 2 2 2 2 2 2 2 2 2 2 2 2 2 2 2 2 2 2 2 2 2 2 2 2 2 2 2 2 2 2 2 2 2 2 2 2
left_child=1 3 6 14 7 11 10 24 23 -8 -2 -4 39 -6 15 16 17 18 19 -1 22 -22 29 -5 -3 -17 27 28 -23 31 -31 35 -10 -9 -18 36 37 38 -21 -7 -11 -29 -43
right_child=2 4 5 8 13 12 9 33 32 40 -12 -13 -14 -15 -16 25 34 -19 -20 20 21 26 -24 -25 -26 -27 -28 41 -30 30 -32 -33 -34 -35 -36 -37 -38 -39 -40 -41 -42 42 -44
leaf_value=0.023141855495159399 0.29004895330243419 0.054938771505402745 0.64399427954574118 0.0016356069724833798 0.17243684768143391 0.94246221435473232 0.4487783651834838 0.11513954851085578 0.043351201641935053 0.61132865698114092 0.45145452673566305 0.91904932735057976 1.5066761343538164 0.28135661454568711 0.0047119026670054305 -0.01863668996469205 -0.007655034968802688 -0.018671295472363101 -0.0012548610165726713 0.26597443427771594 0.017940478237639161 0.19095841384091555 0.68579902036946627 0.027340172691801803 0.10173185532152602 -0.0028524134128155064 -0.01775692692634848 0.057251618166624663 0.42266181915475615 0.43005580451753406 0.045668555645962491 0.076793755731575611 0.099671965301893109 0.18644263818435017 -0.021465108502593352 0.75062604042614112 0.012586772142023576 0.26853537044307946 0.82089226536393012 1.2537705022088799 0.8073218092498271 0.33173182426855485 0.1119395618741027
leaf_weight=24043 23673 131484 2495 565293 40001 717 7931 26224 94873 2846 7816 4550 1394 11388 308433 3179803 868959 54698 27223 783 25932 4389 892 211115 45383 311913 1883 4260 1995 630 1430 678 19856 16598 383321 384 533 1475 935 1331 1927 1450 2157
leaf_count=24043 23673 131484 2495 565293 40001 717 7931 26224 94873 2846 7816 4550 1394 11388 308433 3179803 868959 54698 27223 783 25932 4389 892 211115 45383 311913 1883 4260 1995 630 1430 678 19856 16598 383321 384 533 1475 935 1331 1927 1450 2157
internal_value=0 -0.0431421 5.02631 -0.0910592 1.035 9.75843 3.90336 0.817281 0.143511 5.39595 3.30115 8.21652 12.9141 1.96576 -0.131195 -0.14242 -0.0684026 0.33694 0.620339 0.853654 1.15401 0.732154 3.4466 0.0862513 0.669462 -0.172267 1.62052 1.85817 2.63381 3.0021 1.63272 3.59106 0.530994 1.42779 -0.118824 4.05652 3.70073 4.29716 5.6804 11.4483 6.90478 1.22862 2.00323
internal_weight=0 6.37041e+06 54680 6.09934e+06 271078 10487 44193 219689 891137 12704 31489 7045 3442 51389 5.2082e+06 4.89977e+06 1.40805e+06 155770 101072 73849 49806 42066 7740 776408 176867 3.49172e+06 16134 14251 6384 6848 2060 4788 114729 42822 1.25228e+06 4110 3726 3193 1718 2048 4773 7867 3607
internal_count=6425094 6370414 54680 6099336 271078 10487 44193 219689 891137 12704 31489 7045 3442 51389 5208199 4899766 1408050 155770 101072 73849 49806 42066 7740 776408 176867 3491716 16134 14251 6384 6848 2060 4788 114729 42822 1252280 4110 3726 3193 1718 2048 4773 7867 3607
shrinkage=0.1


Tree=3
num_leaves=44
num_cat=0
split_feature=3 3 3 9 4 3 3 15 3 15 3 9 15 3 3 11 22 23 23 5 22 1 15 9 8 19 22 23 22 4 0 23 1 0 0 1 0 1 1 1 9 6 6
split_gain=1.13132e+06 296655 207200 48021.1 46593.8 40163.2 26656.6 17307.2 16672.4 16333.9 15435.5 11513.8 10258.5 9710.17 8808.24 8667.23 10966.8 9485.4 33474.8 14090 12734.9 9361.9 8094.3 7254.69 6166.97 5755.36 6428.15 10996.9 25659.5 6445.42 6682.01 6166.57 6357.03 5748.2 6898.13 7735.28 5336.57 6349.21 11337.5 8103.07 4777.16 4759.5 4599.86
threshold=4.5000000000000009 13.500000000000002 1.5000000000000002 11.500000000000002 18.500000000000004 7.5000000000000009 2.5000000000000004 6.5000000000000009 19.500000000000004 1.5000000000000002 19.500000000000004 3.5000000000000004 4.5000000000000009 1.0000000180025095e-35 1.0000000180025095e-35 1.0000000180025095e-35 5.5000000000000009 12.500000000000002 10.500000000000002 1.0000000180025095e-35 4.5000000000000009 10181.500000000002 2.5000000000000004 1.0000000180025095e-35 1.0000000180025095e-35 1.0000000180025095e-35 11.500000000000002 59.500000000000007 8.5000000000000018 1.0000000180025095e-35 14.500000000000002 54.500000000000007 10558.500000000002 23.500000000000004 21.500000000000004 2777.5000000000005 22.500000000000004 3965.5000000000005 2777.5000000000005 6938.5000000000009 4.5000000000000009 19.500000000000004 2.5000000000000004
decision_type=2 2 2 2 2 2 2 2 2 2 2 2 2 2 2 2 2 2 2 2 2 2 2 2 2 2 2 2 2 2 2 2 2 2 2 2 2 2 2 2 2 2 2
left_child=2 5 4 8 13 12 22 40 -3 14 -5 -8 -2 15 -6 16 17 18 -1 20 -20 36 -4 -17 25 26 27 28 29 30 -18 32 33 34 35 -32 37 38 -22 -39 -7 -12 -11
right_child=1 3 6 10 9 7 11 -9 -10 42 41 -13 -14 -15 -16 23 24 -19 19 -21 21 -23 -24 -25 -26 -27 -28 -29 -30 -31 31 -33 -34 -35 -36 -37 -38 39 -40 -41 -42 -43 -44
leaf_value=0.0062880259114656807 0.21067352144376705 0.55567448674621089 0.049815529106230189 0.84963160691815287 0.0020584706563761771 0.32658836737637054 0.10816232759412636 0.57960764442963197 0.82714438538585933 0.044333756661099621 1.0117974941421644 0.19343928529707566 0.33375020894386803 0.0049915794741221568 0.026985362625934151 -0.016902892932632529 0.044829423023705163 -0.00096348812652183227 0.038702463639674292 0.023053597720795387 0.23937699047617836 0.692278244503433 0.11451832675825034 -0.0020667374592016172 -0.018721800549102639 -0.018870473168529231 -0.0088820929075891213 -0.020705468998211168 0.011922303003776885 0.0024783197910229395 -0.013825885255234505 0.1455331412679379 0.025586342927600661 0.19738854243693982 0.71044096440569426 0.49960156877663719 0.19576322528403581 0.095255723606365236 0.76930959461334947 0.53768081481418306 0.44867817857114017 1.3307901933800681 0.1050143937078763
leaf_weight=37724 31303 4507 134654 1492 485411 11743 74570 4614 4550 77613 619 20106 8647 333143 200243 3141882 3539 73304 2219 3754 783 593 22580 368236 430211 207871 379483 86060 231902 2953 443 6982 700 1360 726 867 3738 1248 835 620 4417 1956 14893
leaf_count=37724 31303 4507 134654 1492 485411 11743 74570 4614 4550 77613 619 20106 8647 333143 200243 3141882 3539 73304 2219 3754 783 593 22580 368236 430211 207871 379483 86060 231902 2953 443 6982 700 1360 726 867 3738 1248 835 620 4417 1956 14893
internal_value=0 3.89147 -0.045246 8.20277 -0.081953 2.95967 0.843513 4.08754 6.92065 0.146602 11.0577 1.26273 2.37315 -0.115377 0.0933843 -0.126417 -0.0621746 0.221445 0.55029 1.88358 2.50181 3.102 0.59108 -0.153465 -0.0883381 -0.0422434 0.00033483 0.101172 0.207505 1.37265 1.64489 2.02706 3.00139 3.56701 4.6307 3.25901 2.78822 3.67856 5.12921 2.42153 3.59965 12.5415 0.541041
internal_weight=0 73848 6.35125e+06 13124 6.09934e+06 60724 251910 20774 9057 778160 4067 94676 39950 5.32118e+06 685654 4.98803e+06 1.47792e+06 124818 51514 13790 10036 7817 157234 3.51012e+06 1.3531e+06 922886 715015 335532 249472 17570 14617 11078 4096 3396 2036 1310 7224 3486 1618 1868 16160 2575 92506
internal_count=6425094 73848 6351246 13124 6099336 60724 251910 20774 9057 778160 4067 94676 39950 5321176 685654 4988033 1477915 124818 51514 13790 10036 7817 157234 3510118 1353097 922886 715015 335532 249472 17570 14617 11078 4096 3396 2036 1310 7224 3486 1618 1868 16160 2575 92506
shrinkage=0.1


Tree=4
num_leaves=44
num_cat=0
split_feature=3 3 3 6 3 21 3 9 9 21 11 9 9 19 5 9 21 21 21 15 1 3 8 6 2 2 3 3 6 6 6 6 7 7 0 0 2 2 11 12 23 19 8
split_gain=918248 215057 190786 37734.6 36946.1 32606.9 32069.7 15689.5 14198.1 14147.9 16062.3 14025.2 12741.1 12365.6 14207.3 10660 9521.11 32854.7 14030.6 7576.6 7231.9 6660.67 6355.01 6783.08 5227.91 5443.02 4971.48 4770.67 4085.34 4066.22 4016.99 3906.44 3746.44 3569.72 3561.24 3675.26 3357.99 6328.4 3294.78 4432.2 4176.99 6548.42 5663.72
threshold=5.5000000000000009 1.5000000000000002 16.500000000000004 1.0000000180025095e-35 3.5000000000000004 69.500000000000014 10.500000000000002 1.5000000000000002 2.5000000000000004 30.500000000000004 1.0000000180025095e-35 4.5000000000000009 7.5000000000000009 1.0000000180025095e-35 1.0000000180025095e-35 15.500000000000002 19.500000000000004 20.500000000000004 27.500000000000004 2.5000000000000004 10181.500000000002 1.0000000180025095e-35 1.0000000180025095e-35 1.5000000000000002 32.000000000000007 21.500000000000004 1.0000000180025095e-35 19.500000000000004 7.5000000000000009 4.5000000000000009 4.5000000000000009 2.5000000000000004 1.0000000180025095e-35 19.500000000000004 14.500000000000002 23.500000000000004 32.000000000000007 24.500000000000004 1.0000000180025095e-35 1.0000000180025095e-35 5.5000000000000009 1.0000000180025095e-35 1.0000000180025095e-35
decision_type=2 2 2 2 2 2 2 2 2 2 2 2 2 2 2 2 2 2 2 2 2 2 2 2 2 2 2 2 2 2 2 2 2 2 2 2 2 2 2 2 2 2 2
left_child=1 3 6 9 8 15 11 26 22 10 13 -2 -8 14 16 27 -1 20 -19 -6 36 38 -3 -24 25 -20 -5 -4 -13 -10 -21 -9 -23 -12 -27 -36 37 -18 40 -40 41 42 -11
right_child=2 4 5 7 19 -7 12 31 29 21 33 28 -14 -15 -16 -17 17 18 24 30 -22 32 23 -25 -26 34 -28 -29 -30 -31 -32 -33 -34 -35 35 -37 -38 -39 39 -41 -42 -43 -44
leaf_value=0.02205459646196101 0.2313678642654261 0.10846367493117855 0.53182788805681958 0.0022511415446453821 0.13541795651925023 1.2097704572492776 0.40225735235488042 0.037304699221886596 0.10056104864525461 0.01152109762085797 -0.010931480275997593 0.30977264222452144 0.64261657119898929 -0.01536148768266881 0.010591854545577262 0.97239800842660284 0.25565062627663582 0.018106229672643505 0.14367689469180284 0.18161511799950716 0.62790561606174622 0.034046911667550646 0.032906679052010106 0.077701552715101915 0.086711170198106619 0.11383473958833751 0.023311050401303303 0.72627798230261142 0.42650355484748836 0.17368166482856529 0.29020094781231065 0.079034285215343128 -0.0015595725431515857 0.0081795212102636541 0.53464572173120828 0.22824268574007306 0.19353943428557979 0.57086501166586412 -0.016146186925130201 -0.0026994084248634876 -0.014062403207431335 -0.017192597515496205 -0.015308016144671944
leaf_weight=23706 22993 18672 1754 417553 36469 1722 6909 85218 32925 299503 389447 6402 3243 49274 69619 1458 2607 25289 4739 9643 589 33436 109231 48964 8533 546 153231 4541 5658 9897 5277 30459 254242 130481 959 664 3489 844 2775159 268891 751650 212488 106720
leaf_count=23706 22993 18672 1754 417553 36469 1722 6909 85218 32925 299503 389447 6402 3243 49274 69619 1458 2607 25289 4739 9643 589 33436 109231 48964 8533 546 153231 4541 5658 9897 5277 30459 254242 130481 959 664 3489 844 2775159 268891 751650 212488 106720
internal_value=0 -0.0350228 4.08047 -0.0737575 0.836516 8.16057 3.22525 0.147111 0.657955 -0.101768 0.0297254 2.77191 4.79049 0.27784 0.428002 7.28597 0.739571 0.994508 0.639728 1.59985 2.91365 -0.121645 0.532855 0.467721 1.39086 2.03766 0.07905 6.72113 3.64546 1.17463 2.20027 0.482934 0.0257852 -0.061352 3.35008 4.09352 2.62788 3.32771 -0.131253 -0.149584 -0.0905338 -0.0296793 0.044725
internal_weight=0 6.37041e+06 54680 6.09934e+06 271078 9475 45205 686461 219689 5.41288e+06 710786 35053 10152 190858 141584 7753 71965 48259 40730 51389 7529 4.70209e+06 176867 158195 15441 6908 570784 6295 12060 42822 14920 115677 287678 519928 2169 1623 6940 3451 4.41441e+06 3.04405e+06 1.37036e+06 618711 406223
internal_count=6425094 6370414 54680 6099336 271078 9475 45205 686461 219689 5412875 710786 35053 10152 190858 141584 7753 71965 48259 40730 51389 7529 4702089 176867 158195 15441 6908 570784 6295 12060 42822 14920 115677 287678 519928 2169 1623 6940 3451 4414411 3044050 1370361 618711 406223
shrinkage=0.1


Tree=5
num_leaves=44
num_cat=0
split_feature=3 3 3 21 4 3 6 3 12 15 15 3 9 9 15 3 11 21 20 5 21 21 21 9 1 0 21 1 1 1 0 23 18 3 0 0 0 21 4 7 16 23 20
split_gain=744898 195687 135353 38232.6 34286.7 22221 19382.6 18861.7 14259.5 10738.4 8924.15 8119.37 7725.33 7411.93 7319.99 6585.77 5620.38 15200.1 10927.3 12635.2 7696.51 26613.3 11358.1 7675.15 6044.42 4735.69 5276.17 4913.3 5213.16 4723.62 4366.14 3943.93 3892.43 3870 3738.15 3520.78 7434.85 3352.67 3232.28 3230.91 3097.08 4319.55 3585.59
threshold=4.5000000000000009 12.500000000000002 1.5000000000000002 70.500000000000014 14.500000000000002 7.5000000000000009 2.5000000000000004 19.500000000000004 1.5000000000000002 5.5000000000000009 3.5000000000000004 2.5000000000000004 3.5000000000000004 14.500000000000002 1.5000000000000002 1.0000000180025095e-35 1.0000000180025095e-35 30.500000000000004 1.0000000180025095e-35 1.0000000180025095e-35 19.500000000000004 20.500000000000004 27.500000000000004 1.0000000180025095e-35 7807.5000000000009 14.500000000000002 29.500000000000004 10558.500000000002 7720.5000000000009 5223.5000000000009 17.500000000000004 59.500000000000007 2.5000000000000004 19.500000000000004 32.500000000000007 23.500000000000004 21.500000000000004 70.500000000000014 19.500000000000004 1.0000000180025095e-35 1.0000000180025095e-35 5.5000000000000009 1.0000000180025095e-35
decision_type=2 2 2 2 2 2 2 2 2 2 2 2 2 2 2 2 2 2 2 2 2 2 2 2 2 2 2 2 2 2 2 2 2 2 2 2 2 2 2 2 2 2 2
left_child=2 5 4 7 16 12 11 10 15 37 -3 38 -2 -9 -8 -6 17 18 19 20 -1 24 -23 -18 29 -24 27 28 35 34 -31 -25 -10 -5 -22 36 -27 -7 -4 -13 41 42 -19
right_child=1 3 6 33 8 9 14 13 32 -11 -12 39 -14 -15 -16 -17 23 40 -20 -21 21 22 25 31 -26 26 -28 -29 -30 30 -32 -33 -34 -35 -36 -37 -38 -39 -40 -41 -42 -43 -44
leaf_value=0.01980486188848532 0.15899594630104902 0.39843514040700956 0.017301433743006332 0.82935719212503811 0.00066297255487037703 0.27009989949468532 0.087311057506778367 0.65526272971923616 0.035883970554684834 0.45342590309767927 0.64402724368754893 0.13537595751859019 0.25090982332778183 0.93775932266161011 0.15784578456747281 0.019866601257942498 -0.01381479990730599 0.0075060587894127222 -0.014842775688619921 -0.0044132095788839516 0.31235713703734524 0.016235871031798053 0.026697647941090908 0.00014300730249718841 0.50652596143162032 0.16125312134643066 0.10572202679505743 0.0075610723078168331 0.52397017841615101 0.35760192403724 -0.004590743722152151 0.14788466159408251 0.090756685578372104 1.1416390562303087 0.046449084047055403 0.076531583226198782 0.58900367045175828 0.52570078058921721 0.050206954895312031 0.072634837803918592 -0.016416753375028553 -0.011045375483834104 -0.015406945697223546
leaf_weight=23736 25763 5108 46319 559 672109 13746 34072 4562 102390 4740 2086 9758 14187 1169 25910 243209 3180149 312962 49429 38665 4291 25340 3723 402920 892 1144 7497 722 771 447 1301 1815 14799 1394 604 973 631 534 84024 51827 351098 570360 87359
leaf_count=23736 25763 5108 46319 559 672109 13746 34072 4562 102390 4740 2086 9758 14187 1169 25910 243209 3180149 312962 49429 38665 4291 25340 3723 402920 892 1144 7497 722 771 447 1301 1815 14799 1394 604 973 631 534 84024 51827 351098 570360 87359
internal_value=0 3.15769 -0.0367135 6.39854 -0.0663815 2.34001 0.681615 5.77524 0.0997077 3.22974 4.69662 0.526537 1.91639 7.12903 1.17781 0.0576567 -0.100227 -0.0484251 0.242512 0.417022 0.664435 0.893439 0.574533 -0.121641 2.62014 1.25001 1.56171 2.45329 2.94084 2.29167 0.879723 0.00805789 0.428143 10.5231 2.79567 2.29549 3.13372 2.79665 0.385143 0.825776 -0.0836801 -0.0545665 0.0250568
internal_weight=0 73848 6.35125e+06 14878 6.09934e+06 58970 251910 12925 1.03251e+06 19020 7194 191928 39950 5731 59982 915318 5.06683e+06 1.48195e+06 160166 110737 72072 48336 40801 3.58488e+06 7535 15461 11738 4241 3519 6643 1748 404735 117189 1953 4895 2748 1775 14280 130343 61585 1.32178e+06 970681 400321
internal_count=6425094 73848 6351246 14878 6099336 58970 251910 12925 1032507 19020 7194 191928 39950 5731 59982 915318 5066829 1481945 160166 110737 72072 48336 40801 3584884 7535 15461 11738 4241 3519 6643 1748 404735 117189 1953 4895 2748 1775 14280 130343 61585 1321779 970681 400321
shrinkage=0.1


Tree=6
num_leaves=44
num_cat=0
split_feature=3 3 3 4 3 12 15 9 15 3 3 9 3 3 12 14 7 22 23 23 22 1 1 7 6 6 6 19 2 2 23 2 2 2 6 0 0 23 2 23 9 9 22
split_gain=605017 140563 126097 27935.9 25192.1 24549.8 19319.5 13243.7 11068.7 10436 6453.45 5861.7 5466.79 5231.75 4778.9 7140.65 6987.39 8042.8 7598.92 18270 5899.8 5940.85 4802.32 4642.15 5972.37 3696.48 3523.93 3403.98 3767.56 11150.5 10323.1 6119.12 4608.3 3519.93 3372.36 3351.62 3271.76 3250.65 3242.2 3419.05 3219.05 3088.04 2952.35
threshold=5.5000000000000009 1.5000000000000002 15.500000000000002 13.500000000000002 3.5000000000000004 14.500000000000002 7.5000000000000009 1.5000000000000002 2.5000000000000004 8.5000000000000018 11.500000000000002 3.5000000000000004 19.500000000000004 1.0000000180025095e-35 1.0000000180025095e-35 1.0000000180025095e-35 1.0000000180025095e-35 5.5000000000000009 12.500000000000002 10.500000000000002 4.5000000000000009 7807.5000000000009 5223.5000000000009 1.0000000180025095e-35 1.5000000000000002 2.5000000000000004 19.500000000000004 1.0000000180025095e-35 32.000000000000007 24.500000000000004 5.5000000000000009 30.500000000000004 25.500000000000004 53.500000000000007 3.5000000000000004 17.500000000000004 32.500000000000007 59.500000000000007 54.500000000000007 5.5000000000000009 4.5000000000000009 3.5000000000000004 8.5000000000000018
decision_type=2 2 2 2 2 2 2 2 2 2 2 2 2 2 2 2 2 2 2 2 2 2 2 2 2 2 2 2 2 2 2 2 2 2 2 2 2 2 2 2 2 2 2
left_child=1 3 6 14 8 12 9 13 23 -2 -8 -6 40 -5 15 16 17 18 19 -1 -21 22 36 -3 -25 -9 -7 28 29 -19 31 32 -31 -30 -10 -24 -22 -16 39 -35 -4 -11 -14
right_child=2 4 5 7 11 26 10 25 34 41 -12 -13 42 -15 37 -17 -18 27 -20 20 21 -23 35 24 -26 -27 -28 -29 33 30 -32 -33 -34 38 -36 -37 -38 -39 -40 -41 -42 -43 -44
leaf_value=0.01584557595537742 0.18668154423039982 0.090140500145043947 0.37042873277256239 0.00015646967909158677 0.10935589511601961 0.72597350147945805 0.35617553187668388 0.030190696897012273 0.085331776856444649 0.26429654770444522 0.58553602904293722 0.18424343556331518 0.56133987017612597 0.01680691702142894 0.00050374910870103142 -0.012958666030877331 -0.013437761089071321 -0.0019942262050972707 0.0044495417084879502 0.041402587826992437 0.26182839006232944 0.45234432736710384 0.29027150837524285 0.02379413700729888 0.063966005366589765 0.072894601115738297 0.97910404104684123 -0.014249870177989449 -0.010489287877788056 0.16070056042577607 0.014295385648002612 0.19696236650013871 0.048781531385901064 0.14699039668706754 0.15500575197096028 -0.0028794564640008398 0.038595478653203785 0.13581832424248871 0.0057584417621880804 0.022211235830701528 0.60407363220147614 0.36679018049562628 0.72401506490580347
leaf_weight=24566 23207 18661 1948 738838 36778 782 5947 101673 27052 9147 1548 14611 3335 253449 413698 3010827 568657 241395 50100 2782 4793 898 496 108423 56198 25324 1886 188779 311548 4496 52752 4410 20280 3492 9355 1822 762 1783 65793 5923 849 4344 1687
leaf_count=24566 23207 18661 1948 738838 36778 782 5947 101673 27052 9147 1548 14611 3335 253449 413698 3010827 568657 241395 50100 2782 4793 898 496 108423 56198 25324 1886 188779 311548 4496 52752 4410 20280 3492 9355 1822 762 1783 65793 5923 849 4344 1687
internal_value=0 -0.0284277 3.31218 -0.0597432 0.676176 6.42961 2.57239 0.0830099 0.528728 2.27352 4.0356 1.3065 5.53554 0.0440941 -0.0918276 -0.101174 -0.0461143 0.00483602 0.296588 0.646234 1.68335 2.08584 1.80767 0.428678 0.375085 0.387069 9.04948 -0.0231476 0.0085808 0.088247 0.406992 0.884192 0.690951 -0.0580186 1.03238 0.598051 2.31225 0.0108468 0.136144 0.685021 4.41385 2.97306 6.16006
internal_weight=0 6.37041e+06 54680 6.09934e+06 271078 10487 44193 1.11928e+06 219689 36698 7495 51389 7819 992287 4.98005e+06 4.56457e+06 1.55374e+06 985087 86219 36119 11553 8771 7873 183282 164621 126997 2668 898868 710089 323333 81938 29186 24776 386756 36407 2318 5555 415481 75208 9415 2797 13491 5022
internal_count=6425094 6370414 54680 6099336 271078 10487 44193 1119284 219689 36698 7495 51389 7819 992287 4980052 4564571 1553744 985087 86219 36119 11553 8771 7873 183282 164621 126997 2668 898868 710089 323333 81938 29186 24776 386756 36407 2318 5555 415481 75208 9415 2797 13491 5022
shrinkage=0.1


Tree=7
num_leaves=44
num_cat=0
split_feature=3 3 3 3 9 6 21 15 21 13 5 20 3 21 6 3 15 8 12 18 6 3 2 2 7 21 21 1 21 2 0 1 0 1 0 1 0 0 9 15 11 8 17
split_gain=492300 134129 81424 42268 17917 16824.1 16038.5 12215.2 9130.72 7870.06 7930.64 9064 7848.05 6269.13 5877.15 5741.63 5626.7 6733.71 5106.32 4865.78 4644.38 4622.02 4250.22 4364.17 4062.77 3742.36 21411.4 4210.85 3156.5 2934.46 2943.69 2716.62 3589.02 4241.57 3992.74 3518.19 2501.26 3174.84 2498.68 2486.28 2815 2816.79 2546.76
threshold=6.5000000000000009 2.5000000000000004 18.500000000000004 1.0000000180025095e-35 7.5000000000000009 1.5000000000000002 69.500000000000014 3.5000000000000004 30.500000000000004 1.0000000180025095e-35 1.0000000180025095e-35 1.0000000180025095e-35 11.500000000000002 27.500000000000004 1.0000000180025095e-35 10.500000000000002 1.5000000000000002 1.0000000180025095e-35 12.500000000000002 2.5000000000000004 4.5000000000000009 4.5000000000000009 32.000000000000007 21.500000000000004 19.500000000000004 20.500000000000004 19.500000000000004 10181.500000000002 69.500000000000014 34.500000000000007 15.500000000000002 1856.5000000000002 20.500000000000004 4973.5000000000009 27.500000000000004 3333.5000000000005 14.500000000000002 23.500000000000004 1.5000000000000002 1.0000000180025095e-35 1.0000000180025095e-35 1.0000000180025095e-35 1.0000000180025095e-35
decision_type=2 2 2 2 2 2 2 2 2 2 2 2 2 2 2 2 2 2 2 2 2 2 2 2 2 2 2 2 2 2 2 2 2 2 2 2 2 2 2 2 2 2 2
left_child=1 3 4 8 15 16 18 21 9 10 11 13 -6 25 39 -2 17 -5 -4 38 -9 -3 23 -15 -11 26 -1 31 -17 -24 -31 -28 -33 34 -34 -36 -25 -38 -7 40 41 42 -10
right_child=2 7 6 5 12 19 -8 20 14 24 -12 -13 -14 22 -16 28 -18 -19 -20 -21 -22 -23 29 36 -26 -27 27 -29 -30 30 -32 32 33 -35 35 -37 37 -39 -40 -41 -42 -43 -44
leaf_value=0.018651085742282036 0.19846200207345807 0.072909254048910035 0.51763783604624947 0.041241094307336947 0.32833906738955382 0.031327793735422889 0.91736337295920378 0.13052471193612464 -0.0013670465200057587 -0.0087462237658957661 0.0013123867275617917 -0.012726182767694674 0.52501757662713644 0.11985836112118096 0.0033821120826530307 0.28659722829060758 0.037804747132913805 0.0040884168023714706 0.75520224629171351 0.10218515209047677 0.22134251633652699 0.12351476031273485 -0.089124804831447232 0.10353262801979109 0.010407764014184077 0.014751127650475357 0.37145442174527277 0.46922801832189381 0.57856064476860836 0.010141852210664153 0.13964787252843186 0.2893493632683426 0.28447306007375128 -0.015871124812971076 -0.13594854829247893 0.20909132981822953 0.47223395189102835 0.187715718627286 0.062075287272041417 -0.0010279119042457322 -0.012386761140037847 -0.013489467175569156 -0.015429563896537333
leaf_weight=23022 17401 78298 5140 54274 6074 64760 1569 15595 771459 390758 109184 23717 3051 4671 359135 7616 70988 482356 1101 16472 8823 23466 1041 531 154531 25395 744 589 390 2845 4589 1780 1795 1497 554 633 945 673 44680 293536 2762288 432532 154596
leaf_count=23022 17401 78298 5140 54274 6074 64760 1569 15595 771459 390758 109184 23717 3051 4671 359135 7616 70988 482356 1101 16472 8823 23466 1041 531 154531 25395 744 589 390 2845 4589 1780 1795 1497 554 633 945 673 44680 293536 2762288 432532 154596
internal_value=0 -0.0225429 3.39855 -0.0431298 2.73901 0.182407 6.31457 0.998224 -0.0730841 0.0295273 0.196978 0.408225 3.94111 0.586352 -0.0891953 2.30724 0.113464 0.0784617 5.59564 0.515098 1.63344 0.845795 1.15381 1.74154 -0.0331794 0.431373 0.666811 2.12314 3.00832 0.68073 0.900992 1.90692 1.69189 1.21413 1.90365 0.479691 2.92122 3.53952 0.438817 -0.0992036 -0.105538 -0.068268 -0.0371476
internal_weight=0 6.38275e+06 42342 6.25657e+06 34532 733530 7810 126182 5.52304e+06 749494 204205 95021 9125 71304 4.77355e+06 25407 607618 536630 6241 125912 24418 101764 15295 6820 545289 56009 30614 7592 8006 8475 7434 7003 6259 4479 2982 1187 2149 1618 109440 4.41441e+06 4.12088e+06 1.35859e+06 926055
internal_count=6425094 6382752 42342 6256570 34532 733530 7810 126182 5523040 749494 204205 95021 9125 71304 4773546 25407 607618 536630 6241 125912 24418 101764 15295 6820 545289 56009 30614 7592 8006 8475 7434 7003 6259 4479 2982 1187 2149 1618 109440 4414411 4120875 1358587 926055
shrinkage=0.1


Tree=8
num_leaves=44
num_cat=0
split_feature=3 3 3 3 6 15 15 12 12 21 8 16 3 15 20 21 23 21 5 6 2 2 4 4 4 21 21 2 1 8 4 1 23 2 2 1 0 9 8 6 16 0 6
split_gain=398767 110500 65953.4 24322.2 21035.6 15111.4 13108 8540.47 8512.6 6795.19 8177.77 9377.41 6263.42 6114.81 5793.02 6693.9 5895.94 10146.5 6380.69 5194.89 4595.38 4058.18 3954.59 3694.98 3617.06 3503.59 3484.04 3297.45 3073.09 3064.28 3047.34 2985.44 2973.58 2934.61 3663.74 2821.6 2802.43 2574.19 2601.04 2551.77 2532.39 2499.03 2393.56
threshold=6.5000000000000009 1.5000000000000002 18.500000000000004 3.5000000000000004 1.0000000180025095e-35 7.5000000000000009 12.500000000000002 2.5000000000000004 1.5000000000000002 30.500000000000004 1.0000000180025095e-35 1.0000000180025095e-35 11.500000000000002 5.5000000000000009 1.0000000180025095e-35 27.500000000000004 12.500000000000002 19.500000000000004 1.0000000180025095e-35 10.500000000000002 32.000000000000007 21.500000000000004 19.500000000000004 19.500000000000004 8.5000000000000018 69.500000000000014 69.500000000000014 47.500000000000007 7807.5000000000009 1.0000000180025095e-35 10.500000000000002 4973.5000000000009 4.5000000000000009 40.500000000000007 43.500000000000007 3871.5000000000005 32.500000000000007 3.5000000000000004 11.000000000000002 5.5000000000000009 19.500000000000004 20.500000000000004 3.5000000000000004
decision_type=2 2 2 2 2 2 2 2 2 2 2 2 2 2 2 2 2 2 2 2 2 2 2 2 2 2 2 2 2 2 2 2 2 2 2 2 2 2 2 2 2 2 2
left_child=1 4 5 7 9 12 25 23 22 10 11 14 37 -5 15 16 17 -1 27 -7 21 -17 -6 -3 -11 40 -14 28 31 -26 -12 36 -24 -22 -35 -21 -19 38 -2 -9 -4 -33 -10
right_child=2 3 6 13 8 19 -8 39 42 24 30 -13 26 -15 -16 20 -18 18 -20 35 33 -23 32 -25 29 -27 -28 -29 -30 -31 -32 41 -34 34 -36 -37 -38 -39 -40 -41 -42 -43 -44
leaf_value=0.028705744948547871 0.22677496119982857 0.012017733180521715 0.49933542608400372 0.1007687465063913 0.00090419980896257386 0.30875656351455422 0.79017486618920818 0.076057823351447465 0.032036446468817231 -0.0097799660283308838 -0.01018628168583318 -0.015614319637155972 0.27908423032713253 0.18938794092656897 -0.010662117692559897 0.1079387093960887 0.010263238549036468 0.29369513055290336 0.02590068360417367 0.32884610426454008 -0.0033164700384347985 0.26055640123986551 0.003160506474030276 0.04333292952100723 0.01438528454217404 0.78780370816706979 0.59067276706860861 0.074176119042204891 0.43125631716030982 -0.0047664881486232484 0.0052419662878635531 0.28134109476789892 0.0285589878832016 0.29711735789895494 0.072208884296856443 0.55450688600230613 0.036795891631364583 0.23666539506437104 0.13320260995651564 0.15468155184974602 0.30063730628908819 0.008212318715997223 0.079823820217620842
leaf_weight=24536 4298 53649 4700 54643 384166 3920 1987 34693 98050 3697278 320480 50589 6652 9084 22517 5721 48653 2989 3129 783 4782 2508 76511 126658 91957 377 380 1713 685 912854 213175 482 115994 817 6413 1918 496 6923 9658 4689 746 1101 11740
leaf_count=24536 4298 53649 4700 54643 384166 3920 1987 34693 98050 3697278 320480 50589 6652 9084 22517 5721 48653 2989 3129 783 4782 2508 76511 126658 91957 377 380 1713 685 912854 213175 482 115994 817 6413 1918 496 6923 9658 4689 746 1101 11740
internal_value=0 -0.0202883 3.05871 0.5901 -0.0486512 2.46512 5.68314 0.432315 0.116256 -0.069565 0.0215642 0.207744 2.14285 1.13403 0.353227 0.452774 0.328074 0.640259 1.45811 3.82353 0.968902 1.54465 0.0676651 0.340159 -0.0833407 4.9259 2.95936 1.96052 2.32325 -0.0301368 -0.0402309 2.05417 0.184649 0.574393 0.976377 4.89127 2.57161 1.8678 1.62027 0.854217 4.72136 0.914391 0.371473
internal_weight=0 6.38275e+06 42342 283416 6.09934e+06 34532 7810 219689 686461 5.41288e+06 710786 177131 27911 63727 126542 104025 83784 35131 10595 6621 20241 8229 576671 180307 4.70209e+06 5823 7032 7466 5753 1.00481e+06 533655 5068 192505 12012 7230 2701 3485 20879 13956 39382 5446 1583 109790
internal_count=6425094 6382752 42342 283416 6099336 34532 7810 219689 686461 5412875 710786 177131 27911 63727 126542 104025 83784 35131 10595 6621 20241 8229 576671 180307 4702089 5823 7032 7466 5753 1004811 533655 5068 192505 12012 7230 2701 3485 20879 13956 39382 5446 1583 109790
shrinkage=0.1


Tree=9
num_leaves=44
num_cat=0
split_feature=6 4 6 12 15 15 7 6 6 18 9 21 21 18 12 11 21 8 20 15 2 2 2 2 2 2 2 2 2 18 2 2 21 9 9 21 9 21 18 4 14 2 18
split_gain=220461 61549.7 52130.5 25021.9 21984.5 20153.7 24688.5 11095.5 7495.62 6516.98 6429.65 5874.35 5054.74 4753.18 3596.55 3574.83 6817.81 5177.19 5808.92 4766 4436.3 7840.89 3528.2 13058.2 3812.92 3754.13 3539.4 3310.83 3412.36 3217.2 2834.09 2757.34 2629.82 2611.48 2606.36 2561.82 2412.07 2342.57 2312.28 2267.73 2066.15 2037.53 2018.14
threshold=4.5000000000000009 19.500000000000004 17.500000000000004 6.5000000000000009 4.5000000000000009 2.5000000000000004 1.0000000180025095e-35 1.0000000180025095e-35 7.5000000000000009 3.5000000000000004 1.5000000000000002 78.500000000000014 70.500000000000014 2.5000000000000004 2.5000000000000004 1.0000000180025095e-35 30.500000000000004 1.0000000180025095e-35 1.0000000180025095e-35 1.0000000180025095e-35 32.000000000000007 24.500000000000004 23.000000000000004 32.000000000000007 53.500000000000007 30.500000000000004 54.500000000000007 28.500000000000004 27.500000000000004 7.5000000000000009 55.500000000000007 34.500000000000007 36.500000000000007 1.0000000180025095e-35 2.5000000000000004 27.500000000000004 4.5000000000000009 27.500000000000004 8.5000000000000018 6.5000000000000009 1.0000000180025095e-35 58.500000000000007 5.5000000000000009
decision_type=2 2 2 2 2 2 2 2 2 2 2 2 2 2 2 2 2 2 2 2 2 2 2 2 2 2 2 2 2 2 2 2 2 2 2 2 2 2 2 2 2 2 2
left_child=1 10 4 36 11 6 22 33 42 34 15 14 38 32 -2 16 17 18 20 39 21 35 -3 25 -25 27 -26 28 -24 -10 -28 -22 -9 -8 -7 -1 -4 -23 -5 -17 -18 -32 -6
right_child=2 5 3 12 8 9 7 13 29 -11 -12 -13 -14 -15 -16 19 40 -19 -20 -21 31 37 23 24 26 -27 30 -29 -30 -31 41 -33 -34 -35 -36 -37 -38 -39 -40 -41 -42 -43 -44
leaf_value=0.025204698443573061 0.083332250572187988 0.037228024593919849 0.21059565331570124 0.44828198728731006 0.14627658515354436 0.042039149021865757 -0.0031373576641265028 0.033759646741952226 0.26212663962834476 0.12925778204160038 0.017385842072832221 0.48627361058488605 0.75355052845947024 0.068375159857884768 0.14403546719600852 -0.011240748009720893 -0.0026190325520881221 -0.012357434881660521 -0.010414787122056164 0.0011204025111916551 -0.047847185593331537 0.11625678310349158 0.14296196067750325 0.040555391365701111 0.25008550837997867 0.29711792281739863 -0.025865443235520147 0.051713999234814123 0.2949559152258785 0.39772879267053501 0.14247102029048403 0.027671789953463106 0.013937471828155443 0.014817146988288564 0.083740971340611481 0.098728681758972175 0.35104123275673677 0.23964534884799038 0.69065218799135519 -0.0054758424170263352 -0.01167711172451623 0.021457273698290015 0.24954495670628926
leaf_weight=25930 33757 29899 3388 1601 7313 44920 338470 115917 6148 14795 114424 399 1393 24397 13741 2349047 1024129 45599 30983 477511 5417 8677 7271 39270 1503 1853 1856 2934 1856 2452 5573 44925 158441 106499 22506 5801 1920 1873 525 961817 333948 1857 2559
leaf_count=25930 33757 29899 3388 1601 7313 44920 338470 115917 6148 14795 114424 399 1393 24397 13741 2349047 1024129 45599 30983 477511 5417 8677 7271 39270 1503 1853 1856 2934 1856 2452 5573 44925 158441 106499 22506 5801 1920 1873 525 961817 333948 1857 2559
internal_value=0 -0.0201549 1.70221 3.98537 1.39854 0.219056 0.172678 0.111682 2.32535 0.691507 -0.0606757 1.04108 6.05339 0.260747 1.00896 -0.0657245 -0.0248807 0.164404 0.270649 -0.0821904 0.396032 0.634848 0.655925 0.788477 0.550255 1.64547 1.07685 1.44171 1.73881 3.00801 0.846253 0.195437 0.223128 0.0115965 0.559602 0.386494 2.61416 1.38172 5.08181 -0.0956605 -0.0484647 1.12239 1.73056
internal_weight=0 6.3499e+06 75196 8827 66369 919817 837596 743724 18472 82221 5.43008e+06 47897 3519 298755 47498 5.31566e+06 1.52728e+06 169205 123606 3.78838e+06 92623 42281 93872 63973 50059 13914 10789 12061 9127 8600 9286 50342 274358 444969 67426 31731 5308 10550 2126 3.31086e+06 1.35808e+06 7430 9872
internal_count=6425094 6349898 75196 8827 66369 919817 837596 743724 18472 82221 5430081 47897 3519 298755 47498 5315657 1527282 169205 123606 3788375 92623 42281 93872 63973 50059 13914 10789 12061 9127 8600 9286 50342 274358 444969 67426 31731 5308 10550 2126 3310864 1358077 7430 9872
shrinkage=0.1


Tree=10
num_leaves=44
num_cat=0
split_feature=3 3 3 3 12 9 9 9 12 3 23 13 21 5 20 21 23 21 1 1 0 18 8 18 18 1 6 23 21 0 3 0 6 23 8 20 24 24 24 24 4 24 24
split_gain=284209 76493.1 48697.6 24698.1 10578.3 9675.76 8741.76 8081.77 5535.82 4372.73 4298.76 3824.19 6600.8 4956.78 5064.98 3777.21 4893.38 11676.5 4111.38 6465.37 7834.28 3677.62 3437.56 4025.55 2999.52 2960.52 2955.4 2595.89 2594.14 2984.22 2570.18 2564.31 2522.76 2366.52 3372.81 3670.14 2780.51 7521.65 3625.76 4011.04 2849.37 2343.84 2904.26
threshold=6.5000000000000009 2.5000000000000004 16.500000000000004 1.0000000180025095e-35 1.5000000000000002 19.500000000000004 5.5000000000000009 4.5000000000000009 1.0000000180025095e-35 11.500000000000002 4.5000000000000009 1.0000000180025095e-35 30.500000000000004 1.0000000180025095e-35 1.0000000180025095e-35 27.500000000000004 12.500000000000002 19.500000000000004 10558.500000000002 7720.5000000000009 15.500000000000002 2.5000000000000004 1.0000000180025095e-35 3.5000000000000004 2.5000000000000004 10181.500000000002 1.5000000000000002 4.5000000000000009 30.500000000000004 23.500000000000004 9.5000000000000018 22.500000000000004 2.5000000000000004 5.5000000000000009 1.0000000180025095e-35 1.0000000180025095e-35 13.500000000000002 11.500000000000002 25.500000000000004 26.500000000000004 1.0000000180025095e-35 13.500000000000002 6.5000000000000009
decision_type=2 2 2 2 2 2 2 2 2 2 2 2 2 2 2 2 2 2 2 2 2 2 2 2 2 2 2 2 2 2 2 2 2 2 2 2 2 2 2 2 2 2 2
left_child=1 3 6 8 10 28 30 22 11 -8 -5 12 13 14 15 16 17 -1 19 -17 -21 -6 -3 27 -9 41 -12 -24 29 31 -2 -4 -29 34 35 36 37 -14 -38 -40 -39 42 -19
right_child=2 7 5 4 21 -7 9 24 -10 -11 26 -13 33 -15 -16 18 -18 25 -20 20 -22 -23 23 -25 -26 -27 -28 32 -30 -31 -32 -33 -34 -35 -36 -37 38 40 39 -41 -42 -43 -44
leaf_value=0.020028800725464421 0.13597338410811127 0.10972782301951514 0.37122667422104616 0.00058066424920330735 0.033887396396189977 0.6309668968413118 0.23520989896027611 0.10758671567352432 0.0042141387071714664 0.37759267223817949 0.012973002925063759 -0.0085842678659916443 0.0013051003360160375 -0.00041773144842046674 -0.0092112075837294718 0.084014904584276517 0.0054186557209723873 0.079646552533572668 -0.031669218317910842 -0.085801089936961436 0.42727567203338235 0.08261733556966383 0.019978084861883814 0.11280002096177016 0.18999860315783221 0.3838999746272464 0.040040074537601333 0.044451323182078097 0.475952218838264 0.23016653410255997 0.20641207030711883 0.64502747854725884 0.089365811821676133 -0.0086469246286361625 -0.0090075113710123625 -0.010732759120750286 -0.0040744794711275907 0.065160642925686366 0.1375386656880361 0.021288633397314717 0.013249516160724915 0.092719038636374693 0.27327203646774717
leaf_weight=17554 13176 13878 2571 315321 98575 2412 8206 17044 524706 2931 253266 3280795 72590 109174 23717 11295 30863 1166 2410 396 1194 18379 22961 11025 5968 589 47989 36181 2703 1393 8554 396 19125 825492 285917 106317 140674 38392 3351 26011 14600 3519 2318
leaf_count=17554 13176 13878 2571 315321 98575 2412 8206 17044 524706 2931 253266 3280795 72590 109174 23717 11295 30863 1166 2410 396 1194 18379 22961 11025 5968 589 47989 36181 2703 1393 8554 396 19125 825492 285917 106317 140674 38392 3351 26011 14600 3519 2318
internal_value=0 -0.0171272 2.58225 -0.032674 0.139728 4.5797 2.00639 0.753735 -0.0555714 2.72691 0.0874247 -0.0658291 -0.0275993 0.141168 0.308172 0.441328 0.321025 0.64849 0.881802 1.10604 2.99428 0.41546 0.634192 0.562206 1.28964 1.68468 0.17285 0.482493 3.98878 3.51073 1.63706 4.07804 0.599847 -0.0503716 -0.00704934 0.0520087 0.109316 0.222168 0.0259626 0.345593 0.508603 1.50334 2.085
internal_weight=0 6.38275e+06 42342 6.25657e+06 733530 9475 32867 126182 5.52304e+06 11137 616576 4.99833e+06 1.71754e+06 204195 95021 71304 56009 25146 15295 12885 1590 116954 103170 89292 23012 7592 301255 78267 7063 4360 21730 2967 55306 1.51334e+06 687852 401935 295618 125582 170036 29362 52992 7003 3484
internal_count=6425094 6382752 42342 6256570 733530 9475 32867 126182 5523040 11137 616576 4998334 1717539 204195 95021 71304 56009 25146 15295 12885 1590 116954 103170 89292 23012 7592 301255 78267 7063 4360 21730 2967 55306 1513344 687852 401935 295618 125582 170036 29362 52992 7003 3484
shrinkage=0.1


Tree=11
num_leaves=44
num_cat=0
split_feature=6 4 15 9 8 6 23 18 9 18 0 0 6 6 23 6 23 19 23 1 23 21 2 2 21 15 17 21 8 20 2 2 23 23 21 0 2 2 2 0 21 6 4
split_gain=150724 46999.7 32056.1 17922.1 17564.3 14813.8 9190.89 8489.87 6900.53 6413.07 5685.44 6551.79 5145.23 5069.53 3995.76 3507.46 3188.5 3028.95 3024.04 2959.75 2840.82 3001.02 3094.59 3108.8 3147.02 2817.09 3434.08 4440.4 5643.71 3310.27 3670.77 6591.98 2634.04 2619.04 4606.51 2655.72 2441.38 2369.53 2293.68 2066.75 2065.2 3054.33 2065.15
threshold=5.5000000000000009 19.500000000000004 10.500000000000002 2.5000000000000004 1.0000000180025095e-35 18.500000000000004 10.500000000000002 1.5000000000000002 5.5000000000000009 3.5000000000000004 24.500000000000004 22.500000000000004 1.0000000180025095e-35 1.5000000000000002 59.500000000000007 15.500000000000002 4.5000000000000009 19.500000000000004 4.5000000000000009 3871.5000000000005 1.5000000000000002 40.500000000000007 56.500000000000007 57.500000000000007 39.500000000000007 1.0000000180025095e-35 1.0000000180025095e-35 30.500000000000004 1.0000000180025095e-35 1.0000000180025095e-35 32.000000000000007 24.500000000000004 59.500000000000007 25.500000000000004 30.500000000000004 21.500000000000004 32.000000000000007 34.500000000000007 23.000000000000004 23.500000000000004 29.500000000000004 19.500000000000004 1.0000000180025095e-35
decision_type=2 2 2 2 2 2 2 2 2 2 2 2 2 2 2 2 2 2 2 2 2 2 2 2 2 2 2 2 2 2 2 2 2 2 2 2 2 2 2 2 2 2 2
left_child=1 13 6 4 20 17 -2 12 40 18 11 15 -6 25 -15 -10 -14 -4 -5 -7 -3 22 33 24 -24 26 27 28 29 30 31 -1 -27 -22 35 36 38 -32 -35 -13 -8 -42 -33
right_child=2 3 5 9 7 19 8 -9 10 -11 -12 39 16 14 -16 -17 -18 -19 -20 -21 21 -23 23 -25 -26 32 -28 -29 -30 -31 37 42 -34 34 -36 -37 -38 -39 -40 -41 41 -43 -44
leaf_value=0.033914918453643778 0.070947219813527543 0.015101520306818182 0.20219023456806401 0.018402111500876461 -0.00089078134268307711 0.31611291300191585 0.088609031273962746 0.041564113792163848 0.19809172346695231 0.12153578097942508 0.12510730165006792 0.63014686572122436 0.0027386244450883102 0.015401543715383584 0.16280957771010587 0.37389290115783097 0.025876610628215009 0.34451925438505238 0.061305193149594366 0.59760007981065533 0.059998186393372649 0.035341352507498272 0.15791473027760039 0.10264497780770886 0.50847873169374813 0.0012434488980365124 -0.0081469866276461227 -0.0043629964191416364 -0.0086614281874500022 -0.0081636649977903809 -0.045878503839897361 0.15429872465609598 0.12361880618688406 0.21811736094918599 -0.031846761938140615 0.083061165819137084 0.14136879019284723 0.024219895152868001 0.46442959270523199 0.35607769978979831 0.14036080772389234 0.35242428860216091 0.051535674220146481
leaf_weight=30406 16585 14789 3866 22824 419027 460 8398 74164 5390 14473 3967 571 95600 88702 1878 1440 158016 2445 58704 2027 40935 26414 574 2076 464 508691 3088886 1552243 78843 22306 5425 7427 1765 1173 1613 2951 2363 43345 560 536 9380 733 2659
leaf_count=30406 16585 14789 3866 22824 419027 460 8398 74164 5390 14473 3967 571 95600 88702 1878 1440 158016 2445 58704 2027 40935 26414 574 2076 464 508691 3088886 1552243 78843 22306 5425 7427 1765 1173 1613 2951 2363 43345 560 536 9380 733 2659
internal_value=0 -0.0143325 1.6364 0.192538 0.145795 3.38834 1.30843 0.0945376 1.635 0.601875 2.22908 2.71777 0.059132 -0.0500027 0.184589 2.35171 0.171552 2.57347 0.492956 5.45576 0.553398 0.628595 0.766477 1.73368 3.14718 -0.0539807 -0.061445 -0.0259499 0.118174 0.262902 0.349012 0.571576 0.0166678 0.705728 1.20546 1.55442 2.07565 0.164204 2.97768 4.97535 1.2529 1.55741 1.27217
internal_weight=0 6.3693e+06 55798 936720 840719 8798 47000 746807 30415 96001 11904 7937 672643 5.43258e+06 90580 6830 253616 6311 81528 2487 93912 79123 52709 3114 1038 5.342e+06 4.83154e+06 1.74265e+06 190411 111568 89262 40492 510456 49595 8660 7047 4096 48770 1733 1107 18511 10113 10086
internal_count=6425094 6369296 55798 936720 840719 8798 47000 746807 30415 96001 11904 7937 672643 5432576 90580 6830 253616 6311 81528 2487 93912 79123 52709 3114 1038 5341996 4831540 1742654 190411 111568 89262 40492 510456 49595 8660 7047 4096 48770 1733 1107 18511 10113 10086
shrinkage=0.1


Tree=12
num_leaves=44
num_cat=0
split_feature=3 3 3 9 21 3 18 3 21 18 18 23 11 21 8 17 5 21 20 2 2 9 12 2 12 12 21 4 9 1 2 2 0 0 23 3 23 20 5 17 2 2 2
split_gain=204370 57768.9 34212.5 11227.6 8814.52 7619.95 6452.5 4805.55 4331.57 3998.92 3735.14 3392.81 3320.22 4300.34 3187.08 3085.98 3149.71 3219.46 3565.41 3272.8 5762.09 3068.61 2784.39 2549.96 2447.2 2344.52 2255.4 2151.4 2110.54 2007.55 1999.84 2825.45 1970.87 6117.63 1900.19 1891.04 1904.28 2311.05 3237.82 2321.42 2622.66 14014.5 5170.03
threshold=4.5000000000000009 13.500000000000002 1.5000000000000002 1.0000000180025095e-35 69.500000000000014 8.5000000000000018 2.5000000000000004 19.500000000000004 69.500000000000014 1.5000000000000002 6.5000000000000009 4.5000000000000009 1.0000000180025095e-35 30.500000000000004 11.000000000000002 1.0000000180025095e-35 1.0000000180025095e-35 15.500000000000002 1.0000000180025095e-35 32.000000000000007 24.500000000000004 3.5000000000000004 1.0000000180025095e-35 34.500000000000007 6.5000000000000009 3.5000000000000004 75.500000000000014 19.500000000000004 4.5000000000000009 3333.5000000000005 25.500000000000004 30.500000000000004 23.500000000000004 22.500000000000004 4.5000000000000009 1.0000000180025095e-35 5.5000000000000009 1.0000000180025095e-35 1.0000000180025095e-35 1.0000000180025095e-35 32.000000000000007 24.500000000000004 30.500000000000004
decision_type=2 2 2 2 2 2 2 2 2 2 2 2 2 2 2 2 2 2 2 2 2 2 2 2 2 2 2 2 2 2 2 2 2 2 2 2 2 2 2 2 2 2 2
left_child=2 5 3 12 7 10 11 25 24 27 26 14 13 15 -4 16 17 -1 19 20 -19 -13 -14 -21 -7 -3 32 -5 -8 -9 -22 -32 33 -2 -29 36 37 38 39 40 41 -15 -43
right_child=1 4 6 9 -6 8 28 29 -10 -11 -12 21 22 35 -16 -17 -18 18 -20 23 30 -23 -24 -25 -26 -27 -28 34 -30 -31 31 -33 -34 -35 -36 -37 -38 -39 -40 -41 -42 42 -44
leaf_value=-0.020796627925635101 0.095606086986828029 0.20602115630507312 0.061340220426628789 0.0019559810313115301 0.54630807409919269 0.14719064614162153 0.065431079549163343 0.26906714881379962 0.38252985159190511 0.030252551885905955 0.18992133684503928 0.031922070691736061 -0.0075804517615761929 0.0065497201570766704 0.0048442968049396563 -0.012219234286526277 0.0045063139855138898 0.049906746880814604 -0.0057593948452470799 -0.054029582004384624 0.28642926235482391 0.074698655468264707 0.001135076900321254 0.038482433132346519 0.24501128881109691 0.34451059193466982 0.31425913937975941 0.0020172162153322057 0.13500082359397436 0.41601491319299272 0.10002655076634047 0.28435443655866216 0.064608290543495581 0.28089737510195162 0.022425634415705081 0.013987979800797863 -0.0072781180657978117 -0.0082506566516085001 -0.004748502403677175 -0.014396182201157712 0.0062971193960218649 0.079273874049407639 0.21613837014347662
leaf_weight=9996 23470 3585 11566 434786 2048 10049 24685 1181 1056 75258 4600 117695 3321581 64265 73101 40727 80401 20360 13878 3337 1020 19562 412006 27750 3437 1861 464 73803 5301 4449 4525 1020 15719 1929 119531 61710 760480 216879 200074 27422 107401 17860 3266
leaf_count=9996 23470 3585 11566 434786 2048 10049 24685 1181 1056 75258 4600 117695 3321581 64265 73101 40727 80401 20360 13878 3337 1020 19562 412006 27750 3437 1861 464 73803 5301 4449 4525 1020 15719 1929 119531 61710 760480 216879 200074 27422 107401 17860 3266
internal_value=0 1.65398 -0.0192281 -0.034144 3.55652 1.24278 0.341916 3.2039 1.87414 0.0846901 1.04395 0.283079 -0.0496345 -0.012459 0.125631 0.123906 0.185672 0.323718 0.397661 0.506587 0.761828 0.380194 -0.0661866 0.285486 1.72128 2.53364 0.94931 0.0585886 0.777331 3.85208 1.57657 1.33952 0.924535 1.09683 0.146355 -0.0314297 -0.0389942 0.0013302 0.0445944 0.128257 0.166982 0.29779 1.00437
internal_weight=0 73848 6.35125e+06 6.09934e+06 13124 60724 251910 11076 14542 703378 46182 221924 5.39596e+06 1.66237e+06 84667 203014 162287 81886 71890 58012 26925 137257 3.73359e+06 31087 13486 5446 41582 628120 29986 5630 6565 5545 41118 25399 193334 1.45936e+06 1.39765e+06 637167 420288 220214 192792 85391 21126
internal_count=6425094 73848 6351246 6099336 13124 60724 251910 11076 14542 703378 46182 221924 5395958 1662371 84667 203014 162287 81886 71890 58012 26925 137257 3733587 31087 13486 5446 41582 628120 29986 5630 6565 5545 41118 25399 193334 1459357 1397647 637167 420288 220214 192792 85391 21126
shrinkage=0.1


Tree=13
num_leaves=44
num_cat=0
split_feature=6 6 4 12 8 12 18 6 23 18 21 6 23 6 23 2 2 2 23 0 2 9 0 2 2 8 17 21 23 20 2 2 2 2 2 2 20 21 23 21 1 1 1
split_gain=105272 31489.7 24170.6 15557.5 11367.2 10951.1 8987.95 4792.58 4358.73 3741.33 3565.9 3413.55 4126.08 3029.02 2665.08 2660.37 10320.2 2909.78 2591.84 2664.44 2438.09 2396.62 2466.35 2260.34 3130.89 2253.69 3561.59 4782.71 2254.76 2229.23 2480.66 11658.1 5034.76 4134.3 3220.31 3671.47 2205.01 3058.68 4542.38 8171.98 3364.8 6054.94 2656.36
threshold=3.5000000000000004 11.500000000000002 19.500000000000004 6.5000000000000009 1.0000000180025095e-35 1.5000000000000002 4.5000000000000009 19.500000000000004 4.5000000000000009 3.5000000000000004 75.500000000000014 1.0000000180025095e-35 59.500000000000007 1.0000000180025095e-35 41.500000000000007 24.500000000000004 32.000000000000007 41.500000000000007 59.500000000000007 24.500000000000004 42.500000000000007 3.5000000000000004 16.500000000000004 25.500000000000004 26.500000000000004 1.0000000180025095e-35 1.0000000180025095e-35 30.500000000000004 6.5000000000000009 1.0000000180025095e-35 32.000000000000007 24.500000000000004 30.500000000000004 25.500000000000004 53.500000000000007 54.500000000000007 1.0000000180025095e-35 27.500000000000004 12.500000000000002 19.500000000000004 10558.500000000002 7720.5000000000009 7807.5000000000009
decision_type=2 2 2 2 2 2 2 2 2 2 2 2 2 2 2 2 2 2 2 2 2 2 2 2 2 2 2 2 2 2 2 2 2 2 2 2 2 2 2 2 2 2 2
left_child=2 6 11 14 15 13 8 -5 -2 -7 18 25 -13 -6 -3 -4 23 -18 19 21 -19 -10 -23 -17 -25 26 27 36 29 30 31 -29 33 -33 -32 -36 37 38 39 -1 41 -39 -41
right_child=1 3 4 7 5 9 -8 -9 10 -11 -12 12 -14 -15 -16 16 17 20 -20 -21 -22 22 -24 24 -26 -27 -28 28 -30 -31 34 32 -34 -35 35 -37 -38 40 -40 42 -42 -43 -44
leaf_value=0.015590013798212407 0.025037137151495859 0.1182271550268037 0.022936201942153074 0.26446470798567717 -0.00074162018226276046 0.029104911712635236 0.15337163466665252 0.43523088723810255 0.065173973643513947 0.078955896578069604 0.2916617508493376 0.0033642807502279452 0.12712510774556385 0.013346554571038513 0.23260988694443757 0.24302302318907354 0.0028417893970661386 0.16623643097508822 0.24101718176272124 0.040545767025819759 0.048430558076374482 0.07804064258334939 0.16081015933694054 0.005569653417935156 0.14914357699019207 -0.0063050240177428335 -0.0089087341234737518 0.0023196998191819598 -0.0050779297633952291 -0.0083773845680442018 -0.0050654544931968814 0.14058053945140292 0.16834720694550054 0.03733766465139348 0.12524612343035657 0.018150862279083912 -0.006856419850268739 0.062755668847033055 -0.0016634862189348195 0.11208152325586691 -0.033375133673429445 0.26777321815374022 0.29423517506123259
leaf_weight=21069 22956 8121 31765 3661 421923 120948 12380 2990 20125 17199 763 453248 2710 239086 2723 1858 15707 1858 913 18627 32513 7354 7066 1858 8357 3522674 457672 90088 504250 91439 132284 4756 4756 21057 3691 24150 22306 12542 42505 7811 2814 1628 893
leaf_count=21069 22956 8121 31765 3661 421923 120948 12380 2990 20125 17199 763 453248 2710 239086 2723 1858 15707 1858 913 18627 32513 7354 7066 1858 8357 3522674 457672 90088 504250 91439 132284 4756 4756 21057 3691 24150 22306 12542 42505 7811 2814 1628 893
internal_value=0 0.980443 -0.0167081 2.20827 0.135734 0.0970563 0.742243 3.41249 0.616293 0.35312 0.769427 -0.0418065 0.0410008 0.043539 1.46959 0.464838 0.585172 0.385065 0.739117 0.710405 0.548017 0.874807 1.18606 1.41512 1.23039 -0.0494061 -0.0161595 0.0176205 -0.00720116 0.0518317 0.0959964 0.204278 0.737898 0.563639 0.014398 0.323525 0.212627 0.282906 0.193154 0.49269 0.664801 0.863173 1.30781
internal_weight=0 107679 6.31742e+06 17495 893072 799156 90184 6651 77804 138147 54848 5.42434e+06 455958 661009 10844 93916 62151 50078 54085 53172 34371 34545 14420 12073 10215 4.96839e+06 1.44571e+06 988039 876471 372221 280782 120657 30569 25813 160125 27841 111568 89262 72278 29773 16984 14170 8704
internal_count=6425094 107679 6317415 17495 893072 799156 90184 6651 77804 138147 54848 5424343 455958 661009 10844 93916 62151 50078 54085 53172 34371 34545 14420 12073 10215 4968385 1445711 988039 876471 372221 280782 120657 30569 25813 160125 27841 111568 89262 72278 29773 16984 14170 8704
shrinkage=0.1


Tree=14
num_leaves=44
num_cat=0
split_feature=3 3 3 3 9 3 12 21 18 9 12 23 8 23 9 18 11 21 4 17 21 20 2 2 2 21 23 2 2 23 4 18 1 4 23 1 8 21 9 1 8 2 2
split_gain=146811 37598.7 27473.6 12274.4 5849.67 5789.32 4219.42 3206.8 3053.62 2979.5 2801.65 2378.91 2215.66 2070.19 1973.92 1896.02 1807.31 2407 2230.12 2692.86 2385.15 2422.59 2629.93 4668.55 2038.67 1692.95 1668.4 1618.65 2286.88 1572.09 1519.56 1490.93 1489.52 1476.16 1444.42 1439.97 1404.64 1697.01 1609.03 1354 1476.77 1424.68 4952.79
threshold=6.5000000000000009 2.5000000000000004 19.500000000000004 1.0000000180025095e-35 1.5000000000000002 11.500000000000002 3.5000000000000004 30.500000000000004 7.5000000000000009 1.0000000180025095e-35 6.5000000000000009 59.500000000000007 1.0000000180025095e-35 4.5000000000000009 1.5000000000000002 2.5000000000000004 1.0000000180025095e-35 30.500000000000004 1.0000000180025095e-35 1.0000000180025095e-35 15.500000000000002 1.0000000180025095e-35 32.000000000000007 24.500000000000004 34.500000000000007 70.500000000000014 38.000000000000007 25.500000000000004 30.500000000000004 1.5000000000000002 5.5000000000000009 2.5000000000000004 3333.5000000000005 19.500000000000004 41.500000000000007 8397.0000000000018 11.000000000000002 29.500000000000004 2.5000000000000004 8315.5000000000018 1.0000000180025095e-35 32.000000000000007 30.500000000000004
decision_type=2 2 2 2 2 2 2 2 2 2 2 2 2 2 2 2 2 2 2 2 2 2 2 2 2 2 2 2 2 2 2 2 2 2 2 2 2 2 2 2 2 2 2
left_child=1 3 5 9 11 8 12 35 25 16 32 13 26 -5 -14 -6 17 18 19 20 -1 22 23 -22 -24 29 -3 -25 -29 -2 -18 -8 -7 -15 -34 -4 37 -31 -38 -19 41 42 -41
right_child=2 6 7 4 15 10 31 -9 -10 -11 -12 -13 14 33 -16 -17 30 39 -20 -21 21 -23 24 27 -26 -27 -28 28 -30 36 -32 -33 34 -35 -36 -37 38 -39 -40 40 -42 -43 -44
leaf_value=-0.019105472060147347 -0.0061421526926929062 0.064903943603911093 0.27685253580025743 -0.00023063882933048753 0.02465626036374538 0.083382702127800551 0.071984675158701605 0.4372670649142445 0.22506079785745056 0.0033822725490735336 0.29567295093486323 0.11281452356059124 0.024712332457827359 0.0040768073471693081 0.055822588830630716 0.06021397781322288 -0.0075931087302426696 -0.0079115064639721303 -0.0030319762454146153 -0.016365572324318702 0.041224141353119192 -0.0045098440495880288 -0.05164536386087968 0.25407063763603793 0.031060149738100735 0.23688364665011982 0.15865855045616833 0.086359388009392926 0.25219760774502387 0.088572066129106175 -0.0032508780184844011 0.12259717934084378 0.17197310481581718 0.018211532672303892 0.28821998005857224 0.44933162270335647 0.066301120833531027 0.22754850007980629 0.12848760001331733 0.0041917302469235539 -0.0066539373444686042 -0.0028416401299091957 0.074145351393984024
leaf_weight=9998 1179 11601 3268 312000 105868 1313 18862 3286 2676 505521 2963 2071 51014 141819 34001 17477 2143479 436621 85123 17692 20360 13878 3338 1020 27766 1038 2272 4525 1020 1519 1291673 8432 4176 154295 1442 571 7606 2094 9211 287305 327020 336210 10491
leaf_count=9998 1179 11601 3268 312000 105868 1313 18862 3286 2676 505521 2963 2071 51014 141819 34001 17477 2143479 436621 85123 17692 20360 13878 3338 1020 27766 1038 2272 4525 1020 1519 1291673 8432 4176 154295 1442 571 7606 2094 9211 287305 327020 336210 10491
internal_value=0 -0.0123084 1.85592 -0.0232083 0.0983295 1.49356 0.528137 3.64685 1.24003 -0.0393502 2.14234 0.0581774 0.432047 0.0545318 0.371558 0.296953 -0.0467227 -0.0187582 0.0885222 0.190103 0.26653 0.330167 0.419931 0.648763 0.221812 1.12057 0.802655 1.38213 1.16883 1.06056 -0.0596039 0.876242 1.79405 0.114423 2.01829 3.02533 1.12536 1.69147 1.00368 -0.0329377 -0.011957 0.0161951 0.0665645
internal_weight=0 6.38275e+06 42342 6.25657e+06 733530 35217 126182 7125 25323 5.52304e+06 9894 610185 98888 608114 85015 123345 5.01752e+06 1.58237e+06 184720 99597 81905 71907 58029 26925 31104 22647 13873 6565 5545 21609 3.43515e+06 27294 6931 296114 5618 3839 20430 3613 16817 1.39765e+06 961026 634006 297796
internal_count=6425094 6382752 42342 6256570 733530 35217 126182 7125 25323 5523040 9894 610185 98888 608114 85015 123345 5017519 1582367 184720 99597 81905 71907 58029 26925 31104 22647 13873 6565 5545 21609 3435152 27294 6931 296114 5618 3839 20430 3613 16817 1397647 961026 634006 297796
shrinkage=0.1


Tree=15
num_leaves=44
num_cat=0
split_feature=3 3 3 15 15 21 18 7 21 18 0 0 10 23 3 6 9 14 21 12 23 9 5 0 0 1 1 1 0 21 0 0 21 23 15 7 23 1 1 1 0 0 21
split_gain=119530 27700.1 24676.1 7549.74 5545.42 4737.97 4392.93 3243.41 2998.54 2862.32 2701.1 7809.69 2747.89 2554.08 2363.63 2043.18 1974.01 1970.94 2851.01 2016.44 1638.46 1613.18 1590.5 1949.52 4734.5 9350.97 4703.19 3449.85 3472.91 2967.35 5828.32 1880.27 2478.74 2279.23 1579.56 2335.47 2101.8 1536.2 3440.04 3358.47 6354.02 2038.44 2298.42
threshold=5.5000000000000009 14.500000000000002 1.5000000000000002 1.5000000000000002 2.5000000000000004 70.500000000000014 9.5000000000000018 1.0000000180025095e-35 75.500000000000014 1.0000000180025095e-35 23.500000000000004 22.500000000000004 13.500000000000002 4.5000000000000009 19.500000000000004 3.5000000000000004 5.5000000000000009 1.0000000180025095e-35 30.500000000000004 1.0000000180025095e-35 1.5000000000000002 2.5000000000000004 1.0000000180025095e-35 23.500000000000004 19.500000000000004 3785.0000000000005 3333.5000000000005 3396.5000000000005 21.500000000000004 27.500000000000004 20.500000000000004 21.500000000000004 27.500000000000004 12.500000000000002 3.5000000000000004 2.5000000000000004 38.000000000000007 6632.5000000000009 7884.5000000000009 7720.5000000000009 15.500000000000002 14.500000000000002 27.500000000000004
decision_type=2 2 2 2 2 2 2 2 2 2 2 2 2 2 2 2 2 2 2 2 2 2 2 2 2 2 2 2 2 2 2 2 2 2 2 2 2 2 2 2 2 2 2
left_child=2 6 3 9 7 14 8 20 10 17 11 34 -13 -9 -3 -15 -6 18 22 -19 -4 -5 23 24 37 26 31 -28 -29 -27 -31 -26 33 -33 35 36 -2 -1 39 41 -41 42 -39
right_child=1 5 4 21 16 -7 -8 13 -10 -11 -12 12 -14 15 -16 -17 -18 19 -20 -21 -22 -23 -24 -25 25 29 27 28 -30 30 -32 32 -34 -35 -36 -37 -38 38 -40 40 -42 -43 -44
leaf_value=-0.0088221645700425396 0.11546647831698438 0.200267077981793 -0.0008643455467969599 0.012170849785650648 0.048362669354274614 0.43601486348793933 0.22235062775644657 0.0019255881304458958 0.32615990183483112 0.003755364536479712 0.063045131818836642 0.21248007884085426 0.45773907987165052 0.020163081096854857 0.29891065272711098 0.055508243911179804 0.098402911586405586 -0.006221014989200014 -0.0027493804719509653 0.00097608943819342824 0.067281375565763399 0.037440540068519566 0.002332767869371749 0.00063081270229419233 0.044698118433046385 -0.0048875775565683545 0.49831651543206146 0.0013909258878012317 0.32130313023445745 0.46261233126790063 0.04126680360137875 0.22279454554949873 0.31845433853473648 0.053701231778742448 0.1435151728872831 0.062855418819544498 0.29695415611582238 0.044986170223629912 -0.018621870793440534 -0.072389310344112681 0.32803304679780632 -0.024452986079021341 0.28815906812299968
leaf_weight=21665 3475 4232 4262 194834 41593 1739 3225 71174 583 528894 14341 1121 774 104507 5731 19395 9734 3109141 1571203 444977 20413 29033 130941 33906 2885 11823 535 545 902 410 1651 1246 721 2219 6430 12246 783 1324 5830 578 1258 2264 551
leaf_count=21665 3475 4232 4262 194834 41593 1739 3225 71174 583 528894 14341 1121 774 104507 5731 19395 9734 3109141 1571203 444977 20413 29033 130941 33906 2885 11823 535 545 902 410 1651 1246 721 2219 6430 12246 783 1324 5830 578 1258 2264 551
internal_value=0 1.47221 -0.0126332 -0.0257542 0.282588 2.83628 1.10078 0.213457 1.00967 -0.0326218 0.97613 1.17575 3.12707 0.170242 2.5702 0.256966 0.578546 -0.0395639 -0.0125274 -0.0531991 0.555068 0.154485 0.0937502 0.195842 0.309752 0.659726 1.45046 2.81217 2.0088 0.144063 1.25135 1.06862 1.49682 1.14535 1.01447 0.850514 1.48864 0.0698843 0.360131 0.89339 2.0192 0.393756 1.165
internal_weight=0 54680 6.37041e+06 6.09934e+06 271078 11702 42978 219751 39753 5.87547e+06 39170 24829 1895 195076 9963 123902 51327 5.34658e+06 1.79246e+06 3.55412e+06 24675 223867 221254 90313 56407 22937 9053 1982 1447 13884 2061 7071 4186 3465 22934 16504 4258 33470 11805 5975 1836 4139 1875
internal_count=6425094 54680 6370414 6099336 271078 11702 42978 219751 39753 5875469 39170 24829 1895 195076 9963 123902 51327 5346575 1792457 3554118 24675 223867 221254 90313 56407 22937 9053 1982 1447 13884 2061 7071 4186 3465 22934 16504 4258 33470 11805 5975 1836 4139 1875
shrinkage=0.1


Tree=16
num_leaves=44
num_cat=0
split_feature=3 3 3 15 4 15 15 3 21 21 0 18 21 7 18 6 21 7 0 0 6 2 10 23 6 3 10 5 17 21 23 20 18 21 23 21 0 21 0 2 0 0 1
split_gain=98218.7 29541.9 14291 9115.33 4201.43 3895.25 3758.58 2383.49 2364.3 2353.64 2570.91 2098.96 2051.52 1980.99 1974.91 1816.55 1727.59 1707.68 1677.1 6780.22 1612.33 1608.09 1502.56 1479.76 1401.05 1380.02 1371.93 2436.55 2283.93 2870.26 2317.52 2335.67 2143.18 2016.83 2870.31 7693.3 2779.7 2992.79 3789.98 2103.23 1880.97 3710.38 2435.11
threshold=7.5000000000000009 2.5000000000000004 19.500000000000004 1.5000000000000002 9.5000000000000018 7.5000000000000009 2.5000000000000004 1.0000000180025095e-35 69.500000000000014 30.500000000000004 23.500000000000004 1.0000000180025095e-35 23.500000000000004 2.5000000000000004 19.500000000000004 6.5000000000000009 75.500000000000014 1.0000000180025095e-35 23.500000000000004 22.500000000000004 2.5000000000000004 24.500000000000004 7.5000000000000009 7.5000000000000009 1.0000000180025095e-35 1.0000000180025095e-35 1.0000000180025095e-35 1.0000000180025095e-35 1.0000000180025095e-35 30.500000000000004 4.5000000000000009 1.0000000180025095e-35 4.5000000000000009 27.500000000000004 12.500000000000002 19.500000000000004 14.500000000000002 29.500000000000004 23.500000000000004 47.500000000000007 21.500000000000004 16.500000000000004 6488.5000000000009
decision_type=2 2 2 2 2 2 2 2 2 2 2 2 2 2 2 2 2 2 2 2 2 2 2 2 2 2 2 2 2 2 2 2 2 2 2 2 2 2 2 2 2 2 2
left_child=1 3 5 4 26 8 13 -5 18 10 -4 17 -12 21 -7 -8 20 25 19 -2 -15 -3 -21 -9 -19 -6 27 28 29 33 31 -31 -32 34 35 -1 -35 38 40 -37 41 -38 -43
right_child=2 6 9 7 11 14 15 23 -10 -11 12 -13 -14 16 -16 -17 -18 24 -20 22 -22 -23 -24 -25 -26 -27 -28 -29 -30 30 32 -33 -34 36 -36 39 37 -39 -40 -41 -42 42 -44
leaf_value=0.0052222459685807403 0.10793931746842654 0.018598256184972763 0.29803543459498849 0.0081489499798085337 0.0048300795906404299 0.19098281272132711 0.062525015013502938 0.011638128833463691 0.25103780959493799 0.35783300458192002 0.23738149594911168 0.011184922131745094 -0.024387470811048403 0.016074823089811945 0.38769538441180351 0.12079639682686638 0.2012091438996583 -0.0028401218251926457 0.06951924716234556 0.28361866426759619 0.044804999312088263 0.086259284436679962 0.53098010741855184 0.035851792791869494 0.0048755190554947087 0.028377229214025482 -0.0054453041031245963 -0.0067957381885018339 -0.0082279127617917221 0.014593855670017003 -0.0036871454159148991 -0.0077697208830197068 0.23518492696569004 -0.016020913149156407 -0.0055509892545446667 0.15227288069332387 0.35787602719130079 0.039306218052040452 0.043089166264811629 0.026145875499618033 0.33120295901646979 -0.11323695312126979 0.19233043254644697
leaf_weight=20196 11856 4971 2626 150037 85005 4905 29365 38652 1239 3286 678 207360 535 48376 571 6548 578 879240 7097 733 32781 12007 372 72807 321365 35202 3037384 564935 184232 192372 343960 61667 376 4696 35426 5824 575 9241 2309 1713 953 515 528
leaf_count=20196 11856 4971 2626 150037 85005 4905 29365 38652 1239 3286 678 207360 535 48376 571 6548 578 879240 7097 733 32781 12007 372 72807 321365 35202 3037384 564935 184232 192372 343960 61667 376 4696 35426 5824 575 9241 2309 1713 953 515 528
internal_value=0 -0.00900093 1.69771 -0.018974 -0.0269459 1.36268 0.45448 0.163786 1.16916 2.95646 2.42391 0.018314 1.21844 0.353677 2.11513 0.731524 0.289091 0.00362874 1.08626 1.30032 0.276808 0.664547 3.66984 0.274558 -0.00774799 0.117266 -0.04243 -0.0168833 0.0164883 0.0432349 0.0191922 0.0916479 -0.0342602 0.21872 0.133084 0.374029 0.506104 0.72776 1.36136 1.2362 2.19661 1.53901 0.413552
internal_weight=0 6.3912e+06 33898 6.25657e+06 5.99507e+06 26773 134626 261496 21297 7125 3839 1.52817e+06 1213 98713 5476 35913 81735 1.32081e+06 20058 12961 81157 16978 1105 111459 1.20061e+06 120207 4.4669e+06 1.42952e+06 864583 680351 598375 254039 344336 81976 63159 27733 18817 14121 4880 7537 2571 1618 1043
internal_count=6425094 6391196 33898 6256570 5995074 26773 134626 261496 21297 7125 3839 1528172 1213 98713 5476 35913 81735 1320812 20058 12961 81157 16978 1105 111459 1200605 120207 4466902 1429518 864583 680351 598375 254039 344336 81976 63159 27733 18817 14121 4880 7537 2571 1618 1043
shrinkage=0.1


Tree=17
num_leaves=44
num_cat=0
split_feature=3 3 6 3 23 18 18 1 22 7 18 23 7 1 1 15 0 0 23 0 23 1 15 1 23 0 22 0 23 3 23 11 8 2 2 20 22 2 2 2 2 22 18
split_gain=80082.1 23371.9 13799.3 4916.54 4091.77 3410.38 3274.5 2671.21 2660.79 2581.57 2588.19 2087.91 2161.31 3572.58 6020.01 3183.49 2052.98 6839.59 2041.4 1997.01 1996.61 3726.37 1771.2 1748.67 1735.78 1678.65 1622.94 1604.97 1583.06 1414.66 1410.06 1659.52 1785.66 2106 6626.14 3813.51 5955.62 4483.58 4609.8 2275.52 4141.8 1987.43 1930.06
threshold=4.5000000000000009 12.500000000000002 1.5000000000000002 1.0000000180025095e-35 56.500000000000007 2.5000000000000004 9.5000000000000018 3333.5000000000005 15.500000000000002 1.0000000180025095e-35 1.5000000000000002 3.5000000000000004 9.5000000000000018 6938.5000000000009 4636.5000000000009 3.5000000000000004 23.500000000000004 22.500000000000004 4.5000000000000009 19.500000000000004 7.5000000000000009 3333.5000000000005 1.0000000180025095e-35 6632.5000000000009 36.500000000000007 18.500000000000004 11.500000000000002 16.500000000000004 19.500000000000004 2.5000000000000004 59.500000000000007 1.0000000180025095e-35 1.0000000180025095e-35 32.000000000000007 24.500000000000004 11.000000000000002 11.500000000000002 30.500000000000004 25.500000000000004 41.500000000000007 42.500000000000007 8.5000000000000018 5.5000000000000009
decision_type=2 2 2 2 2 2 2 2 2 2 2 2 2 2 2 2 2 2 2 2 2 2 2 2 2 2 2 2 2 2 2 2 2 2 2 2 2 2 2 2 2 2 2
left_child=2 6 3 22 7 18 8 -3 16 24 -11 -9 13 14 -13 23 17 -2 -4 27 -19 -22 30 -14 -5 -25 -26 -15 -23 -20 31 32 33 34 42 36 37 38 -36 -35 41 -41 -1
right_child=1 4 5 9 -6 -7 -8 11 -10 10 -12 12 15 19 -16 -17 -18 20 29 -21 21 28 -24 25 26 -27 -28 -29 -30 -31 -32 -33 -34 39 35 -37 -38 -39 -40 40 -42 -43 -44
leaf_value=-0.00013986846291813904 0.068946935421845781 0.10393992049612139 0.004879855689534726 0.016927984301725992 0.3566084217117374 0.05010331564747228 0.1641849420690509 0.028169994726302085 0.28288138780219219 0.0016806862311241331 0.02364087700709885 0.39265038694894944 0.22337814268429065 0.3819827035322092 -0.062279969032205965 0.27686931938709836 0.041823431692947506 0.099219055253022201 0.019159204340524264 0.28234715958680301 0.060154046858670179 0.50919964953561447 0.0025024060644218836 0.0030625335715905866 0.11971236075913028 0.1673099898427165 0.037218537674640666 0.65680969351956953 0.28888014903749532 0.044581468583555488 -0.0099108781034927089 -0.0045569843271128247 -0.0056421587042733076 -0.011696514992482013 0.14230120451350065 -0.0026012459619873004 0.014997567750155667 0.15872408857565706 0.03865618058904885 0.13960548888941313 -0.00013460631319703342 0.03744139577093588 0.18181104310389531
leaf_weight=337040 31355 2542 93962 52269 1808 34324 3872 549 576 529776 59721 588 1600 494 575 3039 20569 744 122836 808 501 557 496673 1186 3211 1312 9295 377 796 26646 346823 3182943 445187 172745 5159 28510 42922 4941 25550 2188 313207 14734 584
leaf_count=337040 31355 2542 93962 52269 1808 34324 3872 549 576 529776 59721 588 1600 494 575 3039 20569 744 122836 808 501 557 496673 1186 3211 1312 9295 377 796 26646 346823 3182943 445187 172745 5159 28510 42922 4941 25550 2188 313207 14734 584
internal_value=0 1.03536 -0.0120349 -0.0220034 2.1554 0.205925 0.752754 1.96018 0.690255 0.0598802 0.0390561 2.18241 2.28688 3.02506 1.67642 1.99279 0.667644 0.818708 0.164312 3.95863 2.37809 2.93371 -0.0318895 1.41715 0.249379 0.893686 0.584074 5.01052 3.79655 0.236915 -0.0376322 -0.0329722 -0.00418173 0.0203603 0.0704927 0.287239 0.400916 0.703016 0.560714 -0.0239713 0.0246861 0.50657 0.00174562
internal_weight=0 73848 6.35125e+06 6.07348e+06 14878 277768 58970 13070 55098 654272 589497 10528 9979 2842 1163 7137 54522 33953 243444 1679 2598 1854 5.41921e+06 4098 64775 2498 12506 871 1353 149482 4.92253e+06 4.57571e+06 1.39277e+06 947580 444706 107082 78572 35650 30709 502874 330129 16922 337624
internal_count=6425094 73848 6351246 6073478 14878 277768 58970 13070 55098 654272 589497 10528 9979 2842 1163 7137 54522 33953 243444 1679 2598 1854 5419206 4098 64775 2498 12506 871 1353 149482 4922533 4575710 1392767 947580 444706 107082 78572 35650 30709 502874 330129 16922 337624
shrinkage=0.1


Tree=18
num_leaves=44
num_cat=0
split_feature=6 12 15 4 8 6 23 18 0 22 0 15 10 0 0 6 0 2 2 2 2 18 2 0 0 0 2 2 2 1 23 0 19 2 2 2 2 23 22 2 6 23 23
split_gain=42575.2 13687.1 9602.69 5957.83 6297.62 4534.36 3560.12 2990.33 2771.23 2588.18 3326.7 2354.99 1859.99 4003.8 2778.76 1852.35 1963.34 1849.49 2180.68 4317.27 2131.49 1695.69 1685.67 1523.17 3580.87 2610.64 1515.04 2894.77 1511.37 1510.84 2036.49 1405.39 1387.7 1384.75 1304.99 2186.18 1440.26 1227.65 1102.86 1062.77 1031.63 1016.77 2467.31
threshold=6.5000000000000009 1.5000000000000002 10.500000000000002 12.500000000000002 1.0000000180025095e-35 2.5000000000000004 4.5000000000000009 15.500000000000002 24.500000000000004 8.5000000000000018 20.500000000000004 1.0000000180025095e-35 1.0000000180025095e-35 22.500000000000004 23.500000000000004 19.500000000000004 14.500000000000002 14.500000000000002 32.000000000000007 24.500000000000004 53.500000000000007 1.5000000000000002 54.500000000000007 24.500000000000004 22.500000000000004 23.500000000000004 30.500000000000004 28.500000000000004 55.500000000000007 3871.5000000000005 5.5000000000000009 28.500000000000004 19.500000000000004 58.500000000000007 27.500000000000004 25.500000000000004 26.500000000000004 1.5000000000000002 11.500000000000002 56.500000000000007 2.5000000000000004 3.5000000000000004 4.5000000000000009
decision_type=2 2 2 2 2 2 2 2 2 2 2 2 2 2 2 2 2 2 2 2 2 2 2 2 2 2 2 2 2 2 2 2 2 2 2 2 2 2 2 2 2 2 2
left_child=1 3 6 -1 17 21 -2 29 9 12 -11 40 -8 15 -15 -14 -17 -5 19 -19 -20 -3 -22 24 -7 -26 27 34 -24 -4 -31 -10 -12 38 35 -21 -37 -28 39 -30 -6 -41 -43
right_child=2 5 7 4 11 23 8 -9 31 10 32 -13 13 14 -16 16 -18 18 20 26 22 -23 28 -25 25 -27 37 -29 33 30 -32 -33 -34 -35 -36 36 -38 -39 -40 41 -42 42 -44
leaf_value=-0.0032912178196952049 0.023042777341997896 0.010219954323110837 0.08939819392483675 0.00012356801608320365 -0.0011616090000681643 0.04516718793797278 0.040821691189723258 0.31755601608462558 0.017852065761744761 0.13089102027002283 0.22537208981085666 0.010510037590192665 0.083030201585889515 0.46590816490456605 0.13521496985968082 0.35722462861341664 0.079857195715837714 0.01971946344236282 0.011878268424518675 0.1627219189385567 0.14241734185973809 0.031853760477324265 -0.028902965912680406 0.023178152453142309 0.21069393742432904 0.065478546212979091 -0.0016449405355973446 0.0036147596680920768 0.041992044533167704 0.011886048014548579 0.22467676188868474 0.10306947981627015 0.44748769643597158 -0.005954376921456013 0.17083725094114199 -0.0081437396201592075 0.10384258416837161 0.19480224353254871 0.019489504572540145 0.034754972849907716 0.014958531025063513 0.27522721643631398 0.082449033442620015
leaf_weight=4833696 9136 199582 1779 22645 824353 32629 4092 1688 5437 2796 577 257331 7894 535 486 540 486 18588 52200 2408 1938 44276 2410 20256 2421 2539 376 3766 1727 512 3760 3008 554 2413 2413 2414 2188 2031 2057 747 41708 1181 1521
leaf_count=4833696 9136 199582 1779 22645 824353 32629 4092 1688 5437 2796 577 257331 7894 535 486 540 486 18588 52200 2408 1938 44276 2410 20256 2421 2539 376 3766 1727 512 3760 3008 554 2413 2413 2414 2188 2031 2057 747 41708 1181 1521
internal_value=0 -0.00670007 0.988481 -0.0170164 0.0446281 0.201197 0.768634 1.99799 0.954813 1.177 1.89488 0.0211046 0.976035 1.20966 3.08595 0.99479 2.25938 0.259426 0.317664 0.522787 0.211718 0.141483 0.558312 0.452917 0.572056 1.36379 0.910779 0.777486 0.419041 1.66933 1.99197 0.482173 3.3426 0.596053 1.07366 0.85504 0.450779 1.64073 0.814905 1.06111 -0.00385175 1.38188 1.66746
internal_weight=0 6.38181e+06 43280 6.08011e+06 1.24642e+06 301703 35541 7739 26405 17960 3927 1.12339e+06 14033 9941 1021 8920 1026 123023 100378 34184 66194 243858 13994 57845 37589 4960 15596 13189 12056 6051 4272 8445 1131 9646 9423 7010 4602 2407 7233 5176 866061 3449 2702
internal_count=6425094 6381814 43280 6080111 1246415 301703 35541 7739 26405 17960 3927 1123392 14033 9941 1021 8920 1026 123023 100378 34184 66194 243858 13994 57845 37589 4960 15596 13189 12056 6051 4272 8445 1131 9646 9423 7010 4602 2407 7233 5176 866061 3449 2702
shrinkage=0.1


Tree=19
num_leaves=44
num_cat=0
split_feature=3 3 3 9 21 4 18 15 7 21 15 1 6 18 9 7 15 11 5 20 21 21 14 17 2 2 2 2 2 2 2 2 2 21 2 21 21 21 21 18 21 2 3
split_gain=57981.8 16758.5 8969.72 6168.86 2584.54 2483.47 2473.16 2095.24 1868.46 2412.44 1780.81 1544.66 1580.14 1514.99 1375.5 1377.29 1223.7 1148.11 1955.33 1783.94 2177.64 2479.11 2377.07 1716.73 1786.38 9170.06 3469.59 3047.25 3276.68 2999.44 2817.81 4531.29 2789.04 3381.01 1568.3 1402.08 1401.74 1578.16 1315.5 1195.21 1147.56 1145.67 1083.78
threshold=7.5000000000000009 2.5000000000000004 19.500000000000004 1.5000000000000002 69.500000000000014 7.5000000000000009 4.5000000000000009 3.5000000000000004 9.5000000000000018 38.500000000000007 1.0000000180025095e-35 3333.5000000000005 19.500000000000004 1.5000000000000002 6.5000000000000009 2.5000000000000004 1.5000000000000002 1.0000000180025095e-35 1.0000000180025095e-35 1.0000000180025095e-35 42.500000000000007 41.500000000000007 1.0000000180025095e-35 1.0000000180025095e-35 32.000000000000007 24.500000000000004 40.500000000000007 30.500000000000004 25.500000000000004 43.500000000000007 53.500000000000007 54.500000000000007 41.500000000000007 30.500000000000004 28.500000000000004 36.500000000000007 37.500000000000007 30.500000000000004 27.500000000000004 5.5000000000000009 78.500000000000014 24.500000000000004 4.5000000000000009
decision_type=2 2 2 2 2 2 2 2 2 2 2 2 2 2 2 2 2 2 2 2 2 2 2 2 2 2 2 2 2 2 2 2 2 2 2 2 2 2 2 2 2 2 2
left_child=1 3 4 5 7 17 14 8 9 -2 -7 12 -4 -5 15 41 40 18 19 20 21 22 23 24 25 -1 -26 28 -27 32 -31 -32 -28 38 -30 -35 37 -29 -34 -21 -17 -3 -43
right_child=2 6 11 13 -6 10 -8 -9 -10 -11 -12 -13 -14 -15 -16 16 -18 -19 -20 39 -22 -23 -24 -25 26 27 29 36 34 30 31 -33 33 35 -36 -37 -38 -39 -40 -41 -42 42 -44
leaf_value=0.0083735411432034734 0.073737308303637158 0.011576271592050207 0.053215798906142281 0.010525801546435232 0.21177813825867531 -0.00057457143336544093 0.074214112089528703 0.13921662211481414 0.052602920898775253 0.20911839077605199 0.0071994581141758638 0.25149416452196421 0.29926414244134536 0.031423080931568814 0.060779796953191315 0.011529956125535791 0.037084013764346495 -0.0046074061591628223 -0.0058646243554534945 -0.0061212015751974788 -0.0015449826080990636 0.25272992334534322 -0.013138595570170684 -0.013266774612186933 -0.013047745519461362 0.13347885612603591 0.0042982331126675769 0.19286466665605115 0.060681911570772087 -0.00097861651075626223 0.14151598353255226 0.022341367397764642 0.17645298989791283 -0.01172214842187197 0.002848883845743689 0.095838766988921686 0.21336865329919161 0.04118007319269662 0.38478995322641329 0.10214939427896752 0.18256251205843463 0.047107538632478275 0.1102492560248523
leaf_weight=91445 3656 4978 858 204290 2052 1474747 13870 7465 11540 2060 368234 5891 376 41798 12685 59274 31292 2772052 531255 231492 301393 421 39427 22870 51565 4720 4720 1142 13972 54168 3686 23762 1476 1704 7063 4183 1855 1723 383 1024 395 8009 4123
leaf_count=91445 3656 4978 858 204290 2052 1474747 13870 7465 11540 2060 368234 5891 376 41798 12685 59274 31292 2772052 531255 231492 301393 421 39427 22870 51565 4720 4720 1142 13972 54168 3686 23762 1476 1704 7063 4183 1855 1723 383 1024 395 8009 4123
internal_value=0 -0.00691464 1.3044 -0.0144262 1.03897 -0.02078 0.342169 0.949378 0.757768 1.22545 0.00978652 2.30166 1.28268 0.140756 0.29622 0.259639 0.210659 -0.0342976 -0.0109031 0.0184454 0.0460116 0.1021 0.0990013 0.13028 0.152759 0.24207 0.0779908 0.717143 0.581708 0.19226 0.122463 0.38349 0.649146 1.01838 0.412679 0.646881 1.45594 1.01677 2.19429 -0.0564395 0.126638 0.51997 0.685742
internal_weight=0 6.3912e+06 33898 6.25657e+06 26773 6.01048e+06 134626 24721 17256 5716 1.84298e+06 7125 1234 246088 120756 108071 90961 4.1675e+06 1.39545e+06 864194 631678 330285 329864 290437 267567 121920 145647 30475 25755 94082 81616 27448 12466 7746 21035 5887 4720 2865 1859 232516 59669 17110 12132
internal_count=6425094 6391196 33898 6256570 26773 6010482 134626 24721 17256 5716 1842981 7125 1234 246088 120756 108071 90961 4167501 1395449 864194 631678 330285 329864 290437 267567 121920 145647 30475 25755 94082 81616 27448 12466 7746 21035 5887 4720 2865 1859 232516 59669 17110 12132
shrinkage=0.1


Tree=20
num_leaves=44
num_cat=0
split_feature=3 3 3 9 15 15 21 23 0 0 23 1 0 0 10 11 3 23 18 23 21 9 9 24 8 21 6 0 23 8 21 21 1 5 19 23 23 1 0 1 0 0 1
split_gain=47202.8 15352.8 5660.09 5255.76 2564.67 2520.02 2231.12 1717.73 1722.67 10511 2293.09 3611 1684.75 5664.75 1527.81 1357.71 1929.08 1738.63 1325.12 1311.61 2089.5 1432.81 1301.63 1714.61 2185.7 1847.78 1510.94 1397.53 1283 1282.51 1966.96 1532.79 2063.56 1266.81 1441.51 2187.38 5822.92 2244.36 1609.38 1402.8 2953.45 2967.48 3311.09
threshold=8.5000000000000018 2.5000000000000004 19.500000000000004 1.0000000180025095e-35 5.5000000000000009 1.5000000000000002 69.500000000000014 1.5000000000000002 23.500000000000004 22.500000000000004 9.5000000000000018 3333.5000000000005 23.500000000000004 22.500000000000004 13.500000000000002 1.0000000180025095e-35 1.0000000180025095e-35 40.500000000000007 1.0000000180025095e-35 17.500000000000004 62.500000000000007 2.5000000000000004 19.500000000000004 8.5000000000000018 11.000000000000002 39.500000000000007 8.5000000000000018 23.500000000000004 4.5000000000000009 1.0000000180025095e-35 27.500000000000004 39.500000000000007 6488.5000000000009 1.0000000180025095e-35 1.0000000180025095e-35 12.500000000000002 10.500000000000002 1856.5000000000002 14.500000000000002 7200.0000000000009 16.500000000000004 32.500000000000007 5223.5000000000009
decision_type=2 2 2 2 2 2 2 2 2 2 2 2 2 2 2 2 2 2 2 2 2 2 2 2 2 2 2 2 2 2 2 2 2 2 2 2 2 2 2 2 2 2 2
left_child=1 3 6 15 7 -5 12 -3 9 29 -11 -12 13 -2 -15 16 33 -18 -17 21 -21 -13 23 -4 25 27 -26 -25 -6 30 -9 32 -32 34 35 36 -1 -38 -39 40 -40 42 -42
right_child=2 4 22 5 28 -7 -8 8 -10 10 11 19 -14 14 -16 18 17 -19 -20 20 -22 -23 -24 24 26 -27 -28 -29 -30 -31 31 -33 -34 -35 -36 -37 37 38 39 -41 41 -43 -44
leaf_value=0.008305969944076206 0.096112430334747714 -0.015962065544275674 0.013493789947635429 0.0036267162040069753 0.0062549456650012256 0.018117670609471604 0.21678807995442156 -0.016097914400241806 0.015277632875549547 0.063479828521803935 0.042188318382499285 0.2544017591440168 0.052976851544610272 0.24490403124268939 0.50229116498406245 -0.0040968239905012638 0.0068385377973860118 0.039495248194886375 0.001937226014183352 0.10434335701498312 0.31388558382292042 0.4674137161984801 0.27387790325237077 0.29791124369311212 0.035766234836069187 0.46529690147552583 0.19569281774436428 0.085644260582314974 0.079673624572855026 0.023059145097197628 0.073777400074161253 0.071974729157150683 0.34870066720556164 -0.0040229487991562422 -0.0050748742848800441 -0.00067248615706259722 0.25499061138639201 0.23376917357909344 -0.23187852239522042 0.13479041146438178 0.14238968517245532 -0.14226986768872973 -0.020811456846875569
leaf_weight=243391 11430 8655 554 634180 2842 148027 1609 2052 46083 1536 1028 874 6539 575 388 3376339 87738 20027 407892 1009 904 498 2077 949 892 431 1759 463 14744 55220 576 4316 521 718173 232338 378764 738 586 378 2024 3322 668 1985
leaf_count=243391 11430 8655 554 634180 2842 148027 1609 2052 46083 1536 1028 874 6539 575 388 3376339 87738 20027 407892 1009 904 498 2077 949 892 431 1759 463 14744 55220 576 4316 521 718173 232338 378764 738 586 378 2024 3322 668 1985
internal_value=0 -0.00563286 1.30339 -0.0129835 0.320855 0.0636915 1.0369 0.269876 0.302318 0.402856 1.68495 2.05871 0.94073 1.15749 3.48711 -0.0239394 -0.000373903 0.129084 -0.034464 2.57064 2.03416 3.31792 2.07152 1.79678 2.00143 2.83838 1.41919 2.28379 0.678144 0.28321 0.672309 0.988383 2.04438 -0.00919108 0.0166017 0.0413685 0.113346 0.873115 0.734939 0.622702 0.391502 0.563132 0.81328
internal_weight=0 6.39743e+06 27666 6.25657e+06 140858 782207 20541 123272 114617 68534 5849 4313 18932 12393 963 5.47436e+06 1.69013e+06 107765 3.78423e+06 3285 1913 1372 7125 5048 4494 1843 2651 1412 17586 62685 7465 5413 1097 1.58237e+06 864194 631856 253092 9701 8963 8377 6353 5975 5307
internal_count=6425094 6397428 27666 6256570 140858 782207 20541 123272 114617 68534 5849 4313 18932 12393 963 5474363 1690132 107765 3784231 3285 1913 1372 7125 5048 4494 1843 2651 1412 17586 62685 7465 5413 1097 1582367 864194 631856 253092 9701 8963 8377 6353 5975 5307
shrinkage=0.1


Tree=21
num_leaves=44
num_cat=0
split_feature=3 3 3 6 18 21 22 0 0 15 0 23 18 23 8 21 2 2 2 0 6 2 8 4 0 0 0 0 0 23 3 11 14 2 2 2 2 2 2 21 20 21 20
split_gain=38318.7 10923.7 5855.08 4536.48 2468.65 2022.05 2068.95 1977.91 3124.06 1874.89 1861.39 1827.63 1637.55 1453.65 2448.7 2513.01 1363.26 1887.64 1364.25 1236.33 1221.18 1220.77 1499.9 1208.34 1319.03 2831.97 1105.83 2277.25 1644.18 1102.01 1484.89 1277.06 1529.69 1822.13 6352.59 3214.87 3887.26 2125.7 3540.95 1661.55 2076.62 1580.28 1952.53
threshold=7.5000000000000009 2.5000000000000004 14.500000000000002 1.0000000180025095e-35 1.5000000000000002 30.500000000000004 9.5000000000000018 23.500000000000004 22.500000000000004 1.5000000000000002 28.500000000000004 59.500000000000007 9.5000000000000018 3.5000000000000004 11.000000000000002 70.500000000000014 24.500000000000004 32.000000000000007 30.500000000000004 16.500000000000004 2.5000000000000004 24.500000000000004 1.0000000180025095e-35 15.500000000000002 23.500000000000004 22.500000000000004 24.500000000000004 22.500000000000004 23.500000000000004 59.500000000000007 1.0000000180025095e-35 1.0000000180025095e-35 1.0000000180025095e-35 32.000000000000007 24.500000000000004 25.500000000000004 30.500000000000004 41.500000000000007 42.500000000000007 55.500000000000007 11.000000000000002 55.500000000000007 11.000000000000002
decision_type=2 2 2 2 2 2 2 2 2 2 2 2 2 2 2 2 2 2 2 2 2 2 2 2 2 2 2 2 2 2 2 2 2 2 2 2 2 2 2 2 2 2 2
left_child=1 3 12 29 11 7 -7 8 -4 21 -9 16 23 -8 -15 19 -5 18 -18 -16 -11 -3 -23 -2 25 -25 27 -22 -29 31 -31 32 33 34 -1 -36 -37 -35 41 40 -38 42 -39
right_child=2 9 5 4 -6 6 13 10 -10 20 -12 -13 -14 14 15 -17 17 -19 -20 -21 26 22 -24 24 -26 -27 -28 28 -30 30 -32 -33 -34 37 35 36 39 38 -40 -41 -42 -43 -44
leaf_value=0.00051633053347828136 0.22103273177053781 -0.00069507371815277167 0.13249914715441205 -0.0029285901607469709 0.021880261343831097 0.37119685598561947 0.013270899035511062 -0.029770443908450506 0.39943507302063286 0.025647372206354754 0.17197387738900882 0.087932659414468553 0.16351083604136019 0.36546510952095285 -0.018356156781109433 0.25552040727416081 0.011107788605836985 0.0024754647331296309 0.034748613545266989 0.15175452326856115 0.058176643239791805 0.060761158650588079 0.019190172263120343 0.069341784347707061 0.028698657154271917 0.24913705019536014 0.028647875149613939 0.25044181494742823 0.082073849423434264 -0.0080142837619791314 0.1011239274980878 -0.0028077577026252871 -0.0054099165298680842 -0.0092981324612294892 0.064709676624198714 0.011123557622444692 0.11311373699462535 0.090731794871780361 0.00086942832087772066 0.025993878971655466 0.011858246998626209 0.010065505004495889 -0.0036729664806040524
leaf_weight=398767 500 23397 3872 214769 86869 684 448 1277 495 21452 712 2584 1946 761 704 1666 112915 326103 31152 1083 15607 10397 52642 11786 7017 947 8805 1135 1191 347253 1251 3668772 321435 215545 18509 90439 7924 8896 382079 7603 2724 8077 2904
leaf_count=398767 500 23397 3872 214769 86869 684 448 1277 495 21452 712 2584 1946 761 704 1666 112915 326103 31152 1083 15607 10397 52642 11786 7017 947 8805 1135 1191 347253 1251 3668772 321435 215545 18509 90439 7924 8896 382079 7603 2724 8077 2904
internal_value=0 -0.00562047 1.0604 -0.011685 0.0599599 1.63286 2.0864 1.25124 1.62779 0.276215 0.423975 0.0398885 0.758552 1.84768 2.02977 1.67137 0.0367202 0.0668733 0.162204 0.846824 0.43428 0.188079 0.26048 0.674267 0.635328 0.827217 0.576898 0.719436 1.64274 -0.0218055 -0.0762223 -0.0181112 0.00684843 0.023982 0.0672355 0.261823 0.196205 -0.0128582 0.0301046 0.617197 0.872197 0.441607 0.674901
internal_weight=0 6.3912e+06 33898 6.25657e+06 774392 11702 5346 6356 4367 134626 1989 687523 22196 4662 4214 3453 684939 470170 144067 1787 48190 86436 63039 20250 19750 12733 26738 17933 2326 5.48218e+06 348504 5.13367e+06 1.4649e+06 1.14347e+06 525966 127199 108690 617501 401956 18251 10648 19877 11800
internal_count=6425094 6391196 33898 6256570 774392 11702 5346 6356 4367 134626 1989 687523 22196 4662 4214 3453 684939 470170 144067 1787 48190 86436 63039 20250 19750 12733 26738 17933 2326 5482178 348504 5133674 1464902 1143467 525966 127199 108690 617501 401956 18251 10648 19877 11800
shrinkage=0.1


Tree=22
num_leaves=44
num_cat=0
split_feature=3 3 9 21 4 2 23 7 21 6 3 21 9 23 18 15 0 0 23 1 23 21 21 0 2 0 0 0 0 7 2 15 15 0 0 0 0 0 0 21 4 21 9
split_gain=31500.5 9750.81 6600.17 2269.72 2105.53 1996.42 1967.65 1873.55 2754.16 2662.3 1867.25 1785.5 1518.55 1472.57 1431.78 1398.15 1348.72 6089.18 2060.21 3451.13 1303.84 1189.39 3055.65 1369.32 1484.67 1175.8 1137.89 1354.45 1119.95 990.948 933.738 932.58 929.379 984.445 920.642 3129.13 3324.85 916.18 1645.36 2356.24 1761.76 1493.6 912.52
threshold=4.5000000000000009 11.500000000000002 1.5000000000000002 69.500000000000014 8.5000000000000018 24.500000000000004 4.5000000000000009 3.5000000000000004 39.500000000000007 4.5000000000000009 1.0000000180025095e-35 75.500000000000014 15.500000000000002 59.500000000000007 1.5000000000000002 5.5000000000000009 23.500000000000004 22.500000000000004 7.5000000000000009 3333.5000000000005 4.5000000000000009 32.500000000000007 57.500000000000007 24.500000000000004 34.500000000000007 27.500000000000004 16.500000000000004 19.500000000000004 28.500000000000004 2.5000000000000004 44.500000000000007 1.0000000180025095e-35 5.5000000000000009 18.500000000000004 24.500000000000004 22.500000000000004 23.500000000000004 12.500000000000002 14.500000000000002 30.500000000000004 16.500000000000004 27.500000000000004 4.5000000000000009
decision_type=2 2 2 2 2 2 2 2 2 2 2 2 2 2 2 2 2 2 2 2 2 2 2 2 2 2 2 2 2 2 2 2 2 2 2 2 2 2 2 2 2 2 2
left_child=2 11 4 5 -1 12 -4 8 -7 -9 -8 13 -3 16 29 34 17 26 -19 -20 -11 23 -23 24 -22 -25 -2 32 -18 37 -26 -31 -28 -34 35 -12 -37 -6 39 40 -39 -42 -21
right_child=1 3 6 -5 14 7 10 9 -10 20 15 -13 -14 -15 -16 -17 28 18 19 42 21 22 -24 25 30 -27 27 -29 -30 31 -32 -33 33 -35 -36 36 -38 38 -40 -41 41 -43 -44
leaf_value=-0.002627667641142457 0.023405844614483196 0.016876348644338342 0.0031697953915845998 0.22282894774172191 -0.012492091588920038 0.13792186479390831 0.0077661381298742248 -0.0024615076690644479 0.33444693843608669 0.044137855298063106 0.022685306047555025 0.19919214482165654 0.21148514348522257 0.17319778635829039 0.013087918955931008 0.05768880683950877 0.0038172277039780407 0.052178835667674783 0.031308924177347687 0.26975099539870906 0.23161609848101997 0.39419789943900957 0.077896176219531682 -0.095964964688537976 -0.025052810431609857 0.14404011863068894 0.071522843554945731 0.031524756909144303 0.052646771274849846 -0.0013808797351977963 0.14241197431569769 0.0048645861798152206 0.10573721920106854 0.26659348384384068 0.01150174735665355 0.15136135990750396 0.023783852620398827 0.029758006014565033 0.0077954030891620955 0.027925090859559677 0.14137859416972906 0.38912893186256992 0.43596161460160526
leaf_weight=4345373 17362 2675 105006 2341 19553 2284 71433 1666 1039 1187 51942 742 472 856 100510 14307 13509 744 546 998 1615 655 574 428 454 390 5201 7370 7205 1141572 1239 302426 1247 550 35918 4196 3985 651 145195 8162 610 407 499
leaf_count=4345373 17362 2675 105006 2341 19553 2284 71433 1666 1039 1187 51942 742 472 856 100510 14307 13509 744 546 998 1615 655 574 428 454 390 5201 7370 7205 1141572 1239 302426 1247 550 35918 4196 3985 651 145195 8162 610 407 499
internal_value=0 0.649354 -0.00754643 1.31339 -0.0145568 1.1674 0.140693 1.36011 1.99399 1.10336 0.203649 0.450474 0.460964 0.430063 0.0150672 0.285196 0.409868 0.530942 1.94823 2.46721 1.39077 1.60103 2.46552 1.34328 1.62979 0.183406 0.406423 0.614636 0.208066 0.0078749 0.97445 -0.000727815 0.929796 1.55025 0.241733 0.317418 0.8923 0.0790368 0.104768 0.500726 1.58387 2.40626 3.25221
internal_weight=0 73848 6.35125e+06 17019 6.06446e+06 14678 286787 11531 3323 8208 181781 56829 3147 56087 1.71909e+06 110348 55231 34517 2787 2043 6542 5355 1229 4126 3308 818 31730 14368 20714 1.61858e+06 1693 1.444e+06 6998 1797 96041 60123 8181 174578 155025 9830 1668 1017 1497
internal_count=6425094 73848 6351246 17019 6064459 14678 286787 11531 3323 8208 181781 56829 3147 56087 1719086 110348 55231 34517 2787 2043 6542 5355 1229 4126 3308 818 31730 14368 20714 1618576 1693 1443998 6998 1797 96041 60123 8181 174578 155025 9830 1668 1017 1497
shrinkage=0.1


Tree=23
num_leaves=44
num_cat=0
split_feature=6 6 12 12 23 23 4 8 1 1 1 21 0 0 21 21 21 23 18 18 0 18 0 0 2 2 0 14 1 0 0 0 23 23 18 0 0 21 21 1 1 1 24
split_gain=18366.7 5813.88 3878.69 3123.28 2404.24 3026.38 2118.6 3043.46 1490.12 1441.99 2484.82 1920.38 1368.29 3585.51 3043.09 2006.53 1328.56 1516.16 1192.57 1157.2 1113.95 1107.29 971.166 1045.76 965.443 1684.61 958.605 906.081 866.56 830.818 869.49 1464.15 771.281 1361.35 743.284 731.938 1127.99 1156.56 955.657 825.605 1229.63 1821.78 728.966
threshold=3.5000000000000004 10.500000000000002 1.5000000000000002 5.5000000000000009 11.500000000000002 12.500000000000002 10.500000000000002 1.0000000180025095e-35 3689.5000000000005 6843.0000000000009 5637.5000000000009 41.500000000000007 12.500000000000002 14.500000000000002 30.500000000000004 27.500000000000004 78.500000000000014 59.500000000000007 1.0000000180025095e-35 1.0000000180025095e-35 23.500000000000004 12.500000000000002 24.500000000000004 18.500000000000004 56.500000000000007 57.500000000000007 14.500000000000002 11.000000000000002 3333.5000000000005 24.500000000000004 22.500000000000004 23.500000000000004 4.5000000000000009 3.5000000000000004 6.5000000000000009 16.500000000000004 18.500000000000004 30.500000000000004 27.500000000000004 2910.5000000000005 3476.5000000000005 3333.5000000000005 11.500000000000002
decision_type=2 2 2 2 2 2 2 2 2 2 2 2 2 2 2 2 2 2 2 2 2 2 2 2 2 2 2 2 2 2 2 2 2 2 2 2 2 2 2 2 2 2 2
left_child=2 4 6 9 27 22 42 12 -5 10 20 -11 -8 14 15 -14 17 21 -4 -9 28 29 23 -6 35 32 -12 -2 -3 30 -7 -32 33 -26 -10 -15 37 38 -37 -38 41 -41 -1
right_child=1 3 18 8 5 16 7 19 34 11 26 -13 13 24 -16 -17 -18 -19 -20 -21 -22 -23 -24 -25 25 -27 -28 -29 -30 -31 31 -33 -34 -35 -36 36 39 -39 -40 40 -42 -43 -44
