tree
version=v3
num_class=1
num_tree_per_iteration=1
label_index=0
max_feature_idx=36
objective=regression
feature_names=date_block_num item_id shop_id target_lag_1 target_item_lag_1 target_shop_lag_1 target_lag_2 target_item_lag_2 target_shop_lag_2 target_lag_3 target_item_lag_3 target_shop_lag_3 target_lag_4 target_item_lag_4 target_shop_lag_4 target_lag_5 target_item_lag_5 target_shop_lag_5 target_lag_12 target_item_lag_12 target_shop_lag_12 item_category_id type_code subtype_code city_code item_name_len item_name_wc item_name_tfidf_0 item_name_tfidf_1 item_name_tfidf_2 item_name_tfidf_3 item_name_tfidf_4 item_name_tfidf_5 item_name_tfidf_6 item_name_tfidf_7 item_name_tfidf_8 item_name_tfidf_9
feature_infos=[12:27] [0:22169] [2:59] [0:20] [0:20] [0:20] [0:20] [0:20] [0:20] [0:20] [0:20] [0:20] [0:20] [0:20] [0:20] [0:20] [0:20] [0:20] [0:20] [0:20] [0:20] [2:83] [1:19] [0:64] [0:30] [2:150] [1:47] [0:1] [0:1] [0:1] [0:1] [0:1] [0:1] [0:1] [0:1] [0:1] [0:1]
tree_sizes=2322 2335 2391 2347 2359 2373 2374 2367 2327 2415 2352 2393 2377 2412 2417 2367 2384 2451 2274 2400 2367 2402 2342 2369 2299 2349 2325 2323 2358 2382 2403 2385 2401 2294 2298 2344 2380 2312 2409 2307 2352 2365 2301 2382 2360 2367 2324 2353 2312 2410 2302 2404 2305 2336 2401 2329 2307 2408 2408 2354 2353 2353 2344 2351 2315 2319 2332 2400 2381 2365 2375 2376 2290 2330 2240 2357 2380 2296 2335 2376 2358 2347 2291 2388 2300 2243 2225 2386 2320 2224 2349 2313 2160 2300 2279 2344 2370 2125 2224 2304

Tree=0
num_leaves=24
num_cat=0
split_feature=3 3 3 6 9 3 6 3 21 8 20 31 9 9 3 3 23 21 5 5 31 3 15
split_gain=1.65414e+06 413565 305779 64635.1 64487.1 63554.7 38461.3 31722.1 22138.4 29944.3 26679.2 28143 20479.7 19342.1 16360.3 15597.2 15378.5 55295.6 23343.3 13966.6 14127.7 12710.7 12195.5
threshold=4.5000000000000009 14.500000000000002 1.5000000000000002 1.5000000000000002 11.500000000000002 8.5000000000000018 2.5000000000000004 1.0000000180025095e-35 30.500000000000004 1.0000000180025095e-35 1.0000000180025095e-35 0.5516725778579713 4.5000000000000009 4.5000000000000009 2.5000000000000004 19.500000000000004 12.500000000000002 19.500000000000004 1.0000000180025095e-35 1.0000000180025095e-35 0.59347611665725719 19.500000000000004 3.5000000000000004
decision_type=2 2 2 2 2 2 2 2 2 2 2 2 2 2 2 2 2 2 2 2 2 2 2
left_child=2 5 3 7 15 13 14 8 9 10 11 16 -7 -2 -4 -3 17 -1 -19 20 -13 -6 -8
right_child=1 4 6 -5 21 12 22 -9 -10 -11 -12 19 -14 -15 -16 -17 -18 18 -20 -21 -22 -23 -24
leaf_value=0.32550957185636903 0.5786221009091097 1.0186064101037924 0.35984324608989426 0.34837885879372216 1.398639850517355 0.77074736681464717 0.45507068212562285 0.30737627906677495 0.27499299572282043 0.28331743612667315 0.27122745338628773 0.71099993750947399 1.0300548686004127 0.73584020925569582 0.42993142859095457 1.3569615891025926 0.3113739654135142 0.75338571694237011 0.3313705487460144 0.33638674357191223 0.45199707332547573 1.9359780468429502 0.57210476886436701
leaf_weight=22347 26979 2937 103758 143448 995 8002 37267 394069 3725500 408439 40745 4172 5649 11724 49883 3817 48689 5254 1820 3508 4670 2175 12255
leaf_count=22347 26979 2937 103758 143448 995 8002 37267 394069 3725500 408439 40745 4172 5649 11724 49883 3817 48689 5254 1820 3508 4670 2175 12255
internal_value=0 5.1211 -0.0637324 -0.114586 11.041 3.99325 1.13783 -0.13496 -0.160052 0.0290842 0.444807 0.747648 5.85964 3.32968 0.889383 9.20137 0.523857 1.09507 3.52891 2.15184 2.82258 14.847 1.90595
internal_weight=0 62278 5.00582e+06 4.80266e+06 9924 52354 203163 4.65921e+06 4.26514e+06 539644 131205 90460 13651 38703 153641 6754 78110 29421 7074 12350 8842 3170 49522
internal_count=5068102 62278 5005824 4802661 9924 52354 203163 4659213 4265144 539644 131205 90460 13651 38703 153641 6754 78110 29421 7074 12350 8842 3170 49522
shrinkage=1


Tree=1
num_leaves=24
num_cat=0
split_feature=6 4 6 21 15 6 7 9 15 9 6 6 31 33 8 21 20 31 23 21 5 5 25
split_gain=847053 257626 194631 86672.4 62750.3 59579.7 75623.2 29567 24205.6 19868.6 16790.1 16505.8 15640.3 14627.3 13771.4 30151.2 22202.8 22213.6 13247.1 50637.1 12337.4 12042 11785.4
threshold=4.5000000000000009 19.500000000000004 15.500000000000002 70.500000000000014 4.5000000000000009 1.5000000000000002 1.0000000180025095e-35 7.5000000000000009 2.5000000000000004 1.5000000000000002 1.0000000180025095e-35 8.5000000000000018 0.44243226945400244 0.51456919312477123 1.0000000180025095e-35 30.500000000000004 1.0000000180025095e-35 0.5516725778579713 12.500000000000002 19.500000000000004 1.0000000180025095e-35 1.0000000180025095e-35 33.500000000000007
decision_type=2 2 2 2 2 2 2 2 2 2 2 2 2 2 2 2 2 2 2 2 2 2 2
left_child=1 10 4 7 -2 6 12 -4 -7 -8 14 -6 -3 22 15 16 17 18 19 -1 -19 -21 -14
right_child=2 5 3 -5 11 8 9 -9 -10 -11 -12 -13 13 -15 -16 -17 -18 20 -20 21 -22 -23 -24
leaf_value=0.028693386749098038 0.22379554277134328 0.11275885913972483 0.46343202266983818 1.5477380777630694 0.38575298298792154 0.086259133509116459 0.015240637914536909 0.86174278197202048 0.18775587713348976 0.071817773038095598 0.0065973377451837099 0.61737812038133111 0.76935802453578117 -0 -0.019858402027916621 -0.012535520468243331 -0.020131529571202511 0.25427535060054157 0.015513493127169958 0.41385498143616711 -0.0018930332318748925 0.027751720094361068 0.28550155513087833
leaf_weight=20956 39479 71419 4134 1297 9603 104081 470375 3840 30721 71679 356072 5076 582 1580 2769851 997397 41565 8842 45603 5254 2288 1024 5384
leaf_count=20956 39479 71419 4134 1297 9603 104081 470375 3840 30721 71679 356072 5076 582 1580 2769851 997397 41565 8842 45603 5254 2288 1024 5384
internal_value=0 -0.0459632 3.63091 7.86761 2.90117 0.491939 0.360868 6.58172 1.09489 0.22743 -0.141675 4.6726 1.2753 2.65341 -0.160695 -0.0671447 0.394509 0.69062 0.487433 1.03967 2.00809 3.52754 3.36786
internal_weight=0 5.00467e+06 63429 9271 54158 755821 621019 7974 134802 542054 4.24885e+06 14679 78965 7546 3.89278e+06 1.12293e+06 125532 83967 72837 27234 11130 6278 5966
internal_count=5068102 5004673 63429 9271 54158 755821 621019 7974 134802 542054 4248852 14679 78965 7546 3892780 1122929 125532 83967 72837 27234 11130 6278 5966
shrinkage=0.1


Tree=2
num_leaves=24
num_cat=0
split_feature=3 3 3 4 3 9 3 9 6 9 9 3 9 11 32 32 5 19 15 15 8 20 36
split_gain=1.19517e+06 272437 246302 50029.3 44209.2 35116 32877.9 15738.7 15466.5 12944 10455.9 8425.32 8300.38 11796 15964.8 12903.5 10942.7 9064.18 7893.72 7850.26 7095.72 7312.66 7952.48
threshold=5.5000000000000009 1.5000000000000002 15.500000000000002 18.500000000000004 3.5000000000000004 11.500000000000002 9.5000000000000018 2.5000000000000004 1.0000000180025095e-35 3.5000000000000004 4.5000000000000009 19.500000000000004 1.0000000180025095e-35 1.0000000180025095e-35 1.0000000180025095e-35 0.6827928125858308 1.0000000180025095e-35 1.0000000180025095e-35 1.5000000000000002 3.5000000000000004 1.0000000180025095e-35 1.0000000180025095e-35 1.0000000180025095e-35
decision_type=2 2 2 2 2 2 2 2 2 2 2 2 2 2 2 2 2 2 2 2 2 2 2
left_child=1 3 6 12 7 11 10 -3 -5 -8 -2 -4 13 14 20 16 17 -16 -10 -6 21 22 -1
right_child=2 4 5 8 19 -7 9 -9 18 -11 -12 -13 -14 -15 15 -17 -18 -19 -20 -21 -22 -23 -24
leaf_value=0.0073870297624822057 0.28331452084266889 0.06722589873357715 0.6407282445762752 0.0052595463043314085 0.1726002098819894 1.2744750940446226 0.43315693301440439 0.14236835178014745 0.02839854746217553 0.66536678933753013 0.42063121644650048 0.92862931293747786 0.00086245265438927648 -0.018740930251971679 0.26305508784213483 0.020170156098211437 0 -0.0073956426518835827 0.076004440534533244 0.27998754706326334 -0.020327660592372065 -0.021698028429816243 -0.022210780174876401
leaf_weight=479947 17538 141415 2138 422078 33229 2915 5950 35186 171979 4938 9122 3817 359677 2624290 6274 33685 3645 1453 44206 9193 372693 170863 111871
leaf_count=479947 17538 141415 2138 422078 33229 2915 5950 35186 171979 4938 9122 3817 359677 2624290 6274 33685 3645 1453 44206 9193 372693 170863 111871
internal_value=0 -0.0465841 5.04998 -0.0963458 1.04402 9.79351 3.92214 0.822683 0.164284 5.40414 3.30954 8.2943 -0.136316 -0.150044 -0.0668892 0.516431 1.43792 2.1102 0.381855 1.96228 -0.0901349 -0.0347119 0.0177472
internal_weight=0 5.02168e+06 46418 4.80266e+06 219023 8870 37548 176601 638263 10888 26660 5955 4.1644e+06 3.80472e+06 1.18043e+06 45057 11372 7727 216185 42422 1.13537e+06 762681 591818
internal_count=5068102 5021684 46418 4802661 219023 8870 37548 176601 638263 10888 26660 5955 4164398 3804721 1180431 45057 11372 7727 216185 42422 1135374 762681 591818
shrinkage=0.1


Tree=3
num_leaves=24
num_cat=0
split_feature=3 3 3 4 3 3 12 3 6 15 15 35 11 4 35 19 33 6 15 15 0 0 6
split_gain=969474 220756 200059 40704 37452.1 32035.3 26880 14620.5 12283.8 11748.8 10363.9 8583.46 22032.2 15828.9 17878.1 24861.4 11450.1 7370.15 6478.01 6103.6 6020.64 8656.85 5979.35
threshold=5.5000000000000009 1.5000000000000002 16.500000000000004 16.500000000000004 2.5000000000000004 10.500000000000002 14.500000000000002 1.0000000180025095e-35 3.5000000000000004 5.5000000000000009 3.5000000000000004 0.46415852010250097 1.0000000180025095e-35 1.0000000180025095e-35 0.67097818851470958 1.0000000180025095e-35 0.50317418575286876 1.0000000180025095e-35 2.5000000000000004 2.5000000000000004 14.500000000000002 23.500000000000004 2.5000000000000004
decision_type=2 2 2 2 2 2 2 2 2 2 2 2 2 2 2 2 2 2 2 2 2 2 2
left_child=1 3 5 11 18 9 -4 -5 -6 -2 -7 17 13 14 15 16 -13 -1 -3 -10 -18 -22 -9
right_child=2 4 6 7 8 10 -8 22 19 -11 -12 12 -14 -15 -16 -17 20 -19 -20 -21 21 -23 -24
leaf_value=-0.014830542122426491 0.2744978200397678 0.048988151779531308 0.79127445833009213 0.003807914666476714 0.11952303898069699 0.44542658734999474 1.2339935248030867 0.029068633437709702 0.16127869877736858 0.43407598036493983 0.69445590661445944 0.17779818740389747 -0.012189946912683366 -0.0088767243370639192 0.020439120046336714 -0.01147330219914168 0.10027473457954467 0.001960634988986386 0.11537723763550856 0.26610064676194523 0.52569770484019529 0.11465991736248887 0.083884995348428942
leaf_weight=3592677 23473 108465 5944 511239 67923 5851 2071 195707 15543 6220 2859 9470 147186 19150 14549 5377 728 280790 17356 9736 2626 734 22428
leaf_count=3592677 23473 108465 5944 511239 67923 5851 2071 195707 15543 6220 2859 9470 147186 19150 14549 5377 728 280790 17356 9736 2626 734 22428
internal_value=0 -0.0419072 4.54828 -0.086703 0.939819 3.59208 9.097 0.130785 1.421 3.08532 5.29718 -0.125672 0.0761117 0.631566 1.04633 1.68707 2.40813 -0.136108 0.582423 2.02224 3.82779 4.40074 0.347577
internal_weight=0 5.02168e+06 46418 4.80266e+06 219023 38403 8015 729374 93202 29693 8710 4.07329e+06 199820 52634 33484 18935 13558 3.87347e+06 125821 25279 4088 3360 218135
internal_count=5068102 5021684 46418 4802661 219023 38403 8015 729374 93202 29693 8710 4073287 199820 52634 33484 18935 13558 3873467 125821 25279 4088 3360 218135
shrinkage=0.1


Tree=4
num_leaves=24
num_cat=0
split_feature=3 3 3 4 21 3 9 3 9 9 3 3 35 8 16 35 19 5 33 15 2 9 3
split_gain=791946 204907 137499 33535 32003.1 28235 18728.2 15612.2 12709.5 10270.6 9082.42 7572.43 7286.03 18088.4 15744.7 16058 14510.5 12300.1 11279.7 6342.14 6284.36 6208.69 6188.74
threshold=4.5000000000000009 13.500000000000002 1.5000000000000002 19.500000000000004 70.500000000000014 7.5000000000000009 2.5000000000000004 19.500000000000004 1.5000000000000002 3.5000000000000004 2.5000000000000004 1.0000000180025095e-35 0.46415852010250097 1.0000000180025095e-35 1.0000000180025095e-35 0.67097818851470958 1.0000000180025095e-35 1.0000000180025095e-35 0.50317418575286876 3.5000000000000004 32.000000000000007 5.5000000000000009 1.0000000180025095e-35
decision_type=2 2 2 2 2 2 2 2 2 2 2 2 2 2 2 2 2 2 2 2 2 2 2
left_child=2 5 3 11 7 19 10 21 22 -7 -4 12 -1 14 15 16 17 18 -14 -2 -20 -3 -5
right_child=1 4 6 8 -6 9 -8 -9 -10 -11 -12 -13 13 -15 -16 -17 -18 -19 20 -21 -22 -23 -24
leaf_value=-0.013046814918435857 0.18642746353236755 0.43147963611711665 0.04257682669329145 0.0014664007834462465 1.1909957814902521 0.29944987714193183 0.13350518826968835 0.80464781358147308 0.050789472275164206 0.45961364756811585 0.093491236016094159 0.0053437148273813486 0.17981220744798299 -0.011516292667511519 -0.021777689540017242 0.020860679398005212 -0.0072981575615758609 0.0024536871939412671 0.54727447458695366 0.28915692952185229 0.26351181545757107 0.69450026855244096 0.025618880029908184
leaf_weight=3741853 24549 3027 104690 367645 1462 9844 44724 4866 82466 7926 53749 266000 8690 143204 16773 15978 4078 2623 1623 8821 2049 1783 149679
leaf_count=3741853 24549 3027 104690 367645 1462 9844 44724 4866 82466 7926 53749 266000 8690 143204 16773 15978 4078 2623 1623 8821 2049 1783 149679
internal_value=0 3.54363 -0.0439084 -0.078016 7.43275 2.69207 0.761811 6.72278 0.143107 3.71887 0.599218 -0.109597 -0.120638 0.06746 0.573974 0.95572 1.57581 2.03067 2.44754 2.14039 3.93927 5.3352 0.0847456
internal_weight=0 62278 5.00582e+06 4.80266e+06 11138 51140 203163 9676 599790 17770 158439 4.20287e+06 3.93687e+06 195018 51814 35041 19063 14985 12362 33370 3672 4810 517324
internal_count=5068102 62278 5005824 4802661 11138 51140 203163 9676 599790 17770 158439 4202871 3936871 195018 51814 35041 19063 14985 12362 33370 3672 4810 517324
shrinkage=0.1


Tree=5
num_leaves=24
num_cat=0
split_feature=3 3 3 3 6 3 9 9 21 8 17 31 9 12 9 12 19 2 31 8 3 6 21
split_gain=643301 170586 108840 38066.4 27010.8 19987 16304.8 11494.1 11262.5 14931.7 13238.2 14053.6 10406 10015.3 7676.96 7236.61 6428.02 6687.13 6448.73 5995.57 5630.44 5618.51 5084.25
threshold=6.5000000000000009 1.5000000000000002 19.500000000000004 3.5000000000000004 1.0000000180025095e-35 11.500000000000002 14.500000000000002 1.5000000000000002 30.500000000000004 1.0000000180025095e-35 1.0000000180025095e-35 0.5516725778579713 5.5000000000000009 2.5000000000000004 3.5000000000000004 4.5000000000000009 1.0000000180025095e-35 32.000000000000007 0.59347611665725719 1.0000000180025095e-35 1.0000000180025095e-35 1.5000000000000002 20.500000000000004
decision_type=2 2 2 2 2 2 2 2 2 2 2 2 2 2 2 2 2 2 2 2 2 2 2
left_child=1 4 5 13 8 15 -4 -6 9 10 11 22 -7 19 -5 -2 17 18 -13 -3 -10 -21 -1
right_child=2 3 6 14 7 12 -8 -9 20 -11 -12 16 -14 -15 -16 -17 -18 -19 -20 21 -22 -23 -24
leaf_value=0.062341827295832319 0.24759830650105547 0.10708495768234111 0.68003646927759098 0.12960934042951164 0.0073859342405867504 0.37796293394132474 1.0585500411899937 0.046196973039303257 -0.01264984269970873 -0.0059709787465936325 -0.018350163068222489 0.40873674074993094 0.61934898725051502 0.10997679214988332 0.21411985877389272 0.37840363414581457 -0.0022604081578351354 0.10870147624854154 0.16118038209089683 0.025459017280785885 0.0034610856352340104 0.069889618860549452 0.013495481965974401
leaf_weight=39721 14806 15335 3996 36559 448974 5155 1996 92185 3492185 400414 37609 1974 3308 31742 16233 6787 2348 6831 2766 86068 230259 43456 47395
leaf_count=39721 14806 15335 3996 36559 448974 5155 1996 92185 3492185 400414 37609 1974 3308 31742 16233 6787 2348 6831 2766 86068 230259 43456 47395
internal_value=0 -0.0299379 4.20841 0.812451 -0.0701975 3.42261 8.10889 0.140172 -0.0969359 0.0380161 0.320945 0.509707 4.74732 0.588696 1.55856 2.89487 1.44446 1.75031 2.67662 0.475882 -0.116506 0.404514 0.358912
internal_weight=0 5.03205e+06 36048 229393 4.80266e+06 30056 5992 541159 4.2615e+06 539058 138644 101035 8463 176601 52792 21593 13919 11571 4740 144859 3.72244e+06 129524 87116
internal_count=5068102 5032054 36048 229393 4802661 30056 5992 541159 4261502 539058 138644 101035 8463 176601 52792 21593 13919 11571 4740 144859 3722444 129524 87116
shrinkage=0.1


Tree=6
num_leaves=24
num_cat=0
split_feature=3 3 3 21 4 3 15 12 3 3 15 11 35 5 35 19 0 0 1 1 33 9 32
split_gain=524167 136334 89625.2 25607.9 25140.4 14807.5 13480.8 11922.2 11910 7670.34 6912.85 6361.17 14455.9 10020.2 10732.3 15073.4 8835.46 15798.2 9058.32 8070.82 6951.72 6457.59 5774.73
threshold=4.5000000000000009 12.500000000000002 1.5000000000000002 69.500000000000014 14.500000000000002 7.5000000000000009 2.5000000000000004 1.5000000000000002 19.500000000000004 2.5000000000000004 6.5000000000000009 1.0000000180025095e-35 0.46415852010250097 1.0000000180025095e-35 0.67097818851470958 1.0000000180025095e-35 23.500000000000004 19.500000000000004 6957.5000000000009 3471.5000000000005 0.50317418575286876 1.0000000180025095e-35 0.97148165106773388
decision_type=2 2 2 2 2 2 2 2 2 2 2 2 2 2 2 2 2 2 2 2 2 2 2
left_child=2 5 4 8 11 -2 9 -6 -3 -4 -7 12 22 14 15 16 17 18 -14 -19 -20 -13 -1
right_child=1 3 6 -5 7 10 -8 -9 -10 -11 -12 21 13 -15 -16 -17 -18 19 20 -21 -22 -23 -24
leaf_value=-0.0066187510227663079 0.1740983976461456 0.42168943748026699 0.033551219936676424 0.95062931938453876 0.0051226193536778666 0.25551793178856358 0.11769948405246798 0.042882286366053846 0.64517846944424251 0.07859160771565625 0.42231458658983634 -0.013930919930168768 0.040762557095458674 -0.011249575723415332 0.0153341134332635 -0.0094884724377459328 0.019725229259963659 0.50618857083595492 0.17390818925607487 0.21247500243338224 0.58937351912506353 0.001283746967018239 0.060627773149663416
leaf_weight=1091211 33370 6132 108465 1707 748655 12780 35464 94279 4797 59234 3492 2491338 4386 18034 14546 5377 2682 2336 1670 1893 585 312794 12875
leaf_count=1091211 33370 6132 108465 1707 748655 12780 35464 94279 4797 59234 3492 2491338 4386 18034 14546 5377 2682 2336 1670 1893 585 312794 12875
internal_value=0 2.88304 -0.0356236 5.81842 -0.0631642 2.1318 0.61487 0.0935868 5.21697 0.495273 2.92401 -0.0965583 -0.034002 0.483507 0.807454 1.30414 1.86591 2.26733 1.2762 3.78688 2.90319 -0.122302 -0.0582443
internal_weight=0 62278 5.00582e+06 12636 4.80266e+06 49642 203163 842934 10929 167699 16272 3.95973e+06 1.1556e+06 51509 33475 18929 13552 10870 6641 4229 2255 2.80413e+06 1.10409e+06
internal_count=5068102 62278 5005824 12636 4802661 49642 203163 842934 10929 167699 16272 3959727 1155595 51509 33475 18929 13552 10870 6641 4229 2255 2804132 1104086
shrinkage=0.1


Tree=7
num_leaves=24
num_cat=0
split_feature=3 3 3 3 9 9 9 9 3 12 14 35 4 25 35 20 0 0 1 4 8 18 2
split_gain=425427 113059 72210.7 38339.2 15370.2 13032.3 12253.2 11241.6 7943 7305.33 8249.12 11724.4 10101.8 9165.98 7140.58 9204.05 7748.83 10533 8201.04 6247.77 5900.44 5077.93 5041.92
threshold=6.5000000000000009 2.5000000000000004 19.500000000000004 1.0000000180025095e-35 5.5000000000000009 1.5000000000000002 14.500000000000002 3.5000000000000004 11.500000000000002 1.0000000180025095e-35 1.0000000180025095e-35 0.46415852010250097 1.0000000180025095e-35 35.500000000000007 0.67097818851470958 1.0000000180025095e-35 23.500000000000004 21.500000000000004 3869.5000000000005 19.500000000000004 1.0000000180025095e-35 2.5000000000000004 32.000000000000007
decision_type=2 2 2 2 2 2 2 2 2 2 2 2 2 2 2 2 2 2 2 2 2 2 2
left_child=1 3 4 9 -2 19 -4 20 -6 10 11 -1 13 -13 15 16 17 22 -19 -5 -3 -7 -15
right_child=2 7 6 5 8 21 -8 -9 -10 -11 -12 12 -14 14 -16 -17 -18 18 -20 -21 -22 -23 -24
leaf_value=-0.0049900167916298276 0.22455080835791652 0.14832252568260168 0.54671462811645588 0.0027157309995718124 0.31291468331571481 0.043234059065841421 0.87467061846169636 0.15837459005585233 0.51211627550521654 0.0048399274065764114 -0.012473038034621541 0.25865886579473857 0.00117031639168672 0.23582749122968516 0.0058660256917242477 -0.0089466828257399426 -0.0034249893631840191 0.52323355142172545 0.076400746710973202 0.025728044431536451 0.069760848158210334 0.10924268662087483 0.061272487908013165
leaf_weight=1286049 19689 11549 3996 273835 7059 85317 1996 25938 3308 411103 2580510 2600 36793 2933 13134 4822 2391 1466 656 208756 66085 13819 4298
leaf_count=1286049 19689 11549 3996 273835 7059 85317 1996 25938 3308 411103 2580510 2600 36793 2933 13134 4822 2391 1466 656 208756 66085 13819 4298
internal_value=0 -0.024251 3.42244 -0.0460015 2.78133 0.19504 6.6017 1.00959 3.78304 -0.0782839 -0.0915423 -0.0282697 0.372795 0.78076 0.617675 1.05424 1.5317 1.9419 3.9177 0.126916 0.816118 0.525563 1.33909
internal_weight=0 5.03205e+06 36048 4.92848e+06 30056 581727 5992 103572 10367 4.34676e+06 3.93565e+06 1.35514e+06 69093 32300 29700 16566 11744 9353 2122 482591 77634 99136 7231
internal_count=5068102 5032054 36048 4928482 30056 581727 5992 103572 10367 4346755 3935652 1355142 69093 32300 29700 16566 11744 9353 2122 482591 77634 99136 7231
shrinkage=0.1


Tree=8
num_leaves=24
num_cat=0
split_feature=3 3 6 3 15 18 15 8 3 6 15 21 8 20 31 4 0 16 3 1 31 6 3
split_gain=349122 91114.2 59616.9 21030.8 19573 12769.3 11867.1 10273 7202.24 7148.84 6508.39 5853.37 8774.45 8541.14 9243.76 4942.33 5898.51 5419.62 4814.33 4683.7 6166.8 4028.48 3954.59
threshold=4.5000000000000009 12.500000000000002 1.5000000000000002 1.0000000180025095e-35 11.500000000000002 2.5000000000000004 5.5000000000000009 1.0000000180025095e-35 19.500000000000004 3.5000000000000004 1.5000000000000002 30.500000000000004 1.0000000180025095e-35 1.0000000180025095e-35 0.5516725778579713 1.0000000180025095e-35 14.500000000000002 1.0000000180025095e-35 8.5000000000000018 8513.5000000000018 0.59347611665725719 7.5000000000000009 1.5000000000000002
decision_type=2 2 2 2 2 2 2 2 2 2 2 2 2 2 2 2 2 2 2 2 2 2 2
left_child=2 6 3 11 8 9 18 22 -3 -4 -9 12 13 14 -1 16 -16 19 -2 20 -18 -8 -5
right_child=1 4 5 7 -6 -7 21 10 -10 -11 -12 -13 -14 -15 15 -17 17 -19 -20 -21 -22 -23 -24
leaf_value=0.028912295582804972 0.13056667369383429 0.32460930574363567 0.027681806876076388 0.035045016644634705 0.72382638317396286 0.11226424149025949 0.21447403110516794 0.0043834465434584363 0.50815457530873165 0.07238654469720017 0.039336119481735952 -0.0089768014792991676 -0.0050547740677812213 -0.013164735762462958 0.019409259137229861 0.017604262015254318 0.38171120889330901 -0.070664624016323729 0.2198963274533913 -0 0.15629346091036572 0.3558731624072452 0.093477335382946641
leaf_weight=78110 31836 5579 147500 33826 2633 27054 5726 404467 4424 47904 61532 3725500 408439 40745 2310 3462 2617 564 8086 662 2735 3994 18397
leaf_count=78110 31836 5579 147500 33826 2633 27054 5726 404467 4424 47904 61532 3725500 408439 40745 2310 3462 2617 564 8086 662 2735 3994 18397
internal_value=0 2.353 -0.0289815 -0.0525356 4.75351 0.476996 1.73828 0.137619 4.07635 0.386988 0.0902166 -0.0756636 0.0215227 0.246612 0.418085 1.22386 1.61946 2.10275 1.49011 2.38425 2.6939 2.74214 0.558487
internal_weight=0 62278 5.00582e+06 4.78337e+06 12636 222458 49642 518222 10003 195404 465999 4.26514e+06 539644 131205 90460 12350 8888 6578 39922 6014 5352 9720 52223
internal_count=5068102 62278 5005824 4783366 12636 222458 49642 518222 10003 195404 465999 4265144 539644 131205 90460 12350 8888 6578 39922 6014 5352 9720 52223
shrinkage=0.1


Tree=9
num_leaves=24
num_cat=0
split_feature=3 3 3 4 6 21 9 15 8 18 12 8 35 20 35 2 2 14 32 21 23 20 26
split_gain=283347 64918.8 59708.2 16103.6 13642.7 13297.3 10191.2 8791.23 6386.08 6587.34 5257.97 4722.57 8055.02 6290.31 8387.94 6166.92 6821.83 4973.03 6502.04 15196.6 4981.26 6564.76 4895.51
threshold=5.5000000000000009 1.5000000000000002 15.500000000000002 13.500000000000002 3.5000000000000004 70.500000000000014 5.5000000000000009 1.5000000000000002 1.0000000180025095e-35 2.5000000000000004 2.5000000000000004 1.0000000180025095e-35 0.46415852010250097 1.0000000180025095e-35 0.67097818851470958 32.000000000000007 24.500000000000004 1.0000000180025095e-35 0.97148165106773388 19.500000000000004 6.5000000000000009 1.0000000180025095e-35 3.5000000000000004
decision_type=2 2 2 2 2 2 2 2 2 2 2 2 2 2 2 2 2 2 2 2 2 2 2
left_child=1 3 6 11 8 -4 -2 -5 -3 -10 -6 12 17 14 15 16 -14 18 20 -20 21 22 -1
right_child=2 4 5 7 10 -7 -8 -9 9 -11 -12 -13 13 -15 -16 -17 -18 -19 19 -21 -22 -23 -24
leaf_value=0.057610083396578964 0.15383337891363666 0.092355207331630523 0.42349416615544028 0.0040224555848771123 0.072377856199535698 0.78265663142207176 0.26853600460837201 0.036977137633762029 0.02502556041693875 0.087520189821227543 0.14905645120106978 -0.0096650036922379667 0.12047260611793041 -0.010500548683575528 0.0089689937694476148 0.057035476466015284 0.34567544118946447 -0.014076182590752198 0.015662951417870073 0.33219786994959954 -0.0075741128858630262 -0.013929312475319847 0.012711249243888646
leaf_weight=27974 25784 20426 7547 821445 21794 1323 11764 89945 141135 19358 16310 2790825 5621 17882 15745 9946 1892 325718 7137 1934 405121 87100 194376
leaf_count=27974 25784 20426 7547 821445 21794 1323 11764 89945 141135 19358 16310 2790825 5621 17882 15745 9946 1892 325718 7137 1934 405121 87100 194376
internal_value=0 -0.0224283 2.45911 -0.0467291 0.509931 4.7983 1.9016 0.0728646 0.394428 0.326357 1.05523 -0.0747656 -0.0191731 0.368322 0.626153 1.10357 1.7928 -0.0381395 0.00791615 0.848327 -0.00263581 0.0927467 0.184096
internal_weight=0 5.02168e+06 46418 4.80266e+06 219023 8870 37548 911390 180919 160493 38104 3.89127e+06 1.10045e+06 51086 33204 17459 7513 1.04936e+06 723642 9071 714571 309450 222350
internal_count=5068102 5021684 46418 4802661 219023 8870 37548 911390 180919 160493 38104 3891271 1100446 51086 33204 17459 7513 1049360 723642 9071 714571 309450 222350
shrinkage=0.1


Tree=10
num_leaves=24
num_cat=0
split_feature=3 3 6 12 4 18 12 3 3 3 6 8 17 35 35 19 5 0 0 1 25 0 1
split_gain=232848 77455.9 32347.4 16267.7 12649.3 10174.1 7296.25 5812.57 5471.84 5274.21 4350.12 4076.86 7403.88 10710.3 6206.02 5668.19 5874.94 6301.9 9839.82 6915.01 11261.3 5555.46 6937.51
threshold=3.5000000000000004 11.500000000000002 1.5000000000000002 10.500000000000002 19.500000000000004 6.5000000000000009 1.5000000000000002 7.5000000000000009 1.0000000180025095e-35 19.500000000000004 19.500000000000004 1.0000000180025095e-35 1.0000000180025095e-35 0.46415852010250097 0.67097818851470958 1.0000000180025095e-35 1.0000000180025095e-35 23.500000000000004 19.500000000000004 6957.5000000000009 53.500000000000007 20.500000000000004 3471.5000000000005
decision_type=2 2 2 2 2 2 2 2 2 2 2 2 2 2 2 2 2 2 2 2 2 2 2
left_child=2 5 4 9 11 7 -4 -2 -6 -3 -5 12 13 -1 15 16 17 18 19 -15 -21 -20 -23
right_child=1 3 6 10 8 -7 -8 -9 -10 -11 -12 -13 -14 14 -16 -17 -18 -19 21 20 -22 22 -24
leaf_value=0.0016004293899096859 0.092537988134528876 0.24747005605921057 0.022567081074863823 0.42318552207738924 0.0016339263981797487 0.23744859562298465 0.06269168300372982 0.1691850344832404 0.02149519700041173 0.40234197041560188 0.67816632715233005 -0.0083432997002249425 -0.013216154537954886 0.020959683474466063 0.011791076435864653 -0.0056933209210275173 -0.00044013754159120543 0.0040301218329502125 0.56111398238276866 0.43801574229732065 -0.013552980861865759 0.36245685168004216 0.049966185653633755
leaf_weight=730881 55003 6721 138712 1835 367891 6734 68307 12648 223855 4037 1862 3057958 355724 3827 16533 4130 2909 2394 776 1262 895 1963 1245
leaf_count=730881 55003 6721 138712 1835 367891 6734 68307 12648 223855 4037 1862 3057958 355724 3827 16533 4130 2909 2394 776 1262 895 1963 1245
internal_value=0 1.60483 -0.0283161 3.72492 -0.0451226 1.1906 0.358595 1.07061 0.0916473 3.07153 5.57255 -0.0645066 -0.0128586 0.0423575 0.57528 0.959366 1.24048 1.54103 1.89064 1.04891 2.47651 3.1184 2.45341
internal_weight=0 88840 4.97926e+06 14455 4.77224e+06 74385 207019 67651 591746 10758 3697 4.1805e+06 1.12254e+06 766815 35934 19401 15271 12362 9968 5984 2157 3984 3208
internal_count=5068102 88840 4979262 14455 4772243 74385 207019 67651 591746 10758 3697 4180497 1122539 766815 35934 19401 15271 12362 9968 5984 2157 3984 3208
shrinkage=0.1


Tree=11
num_leaves=24
num_cat=0
split_feature=3 3 3 6 15 15 21 15 8 17 35 23 23 26 25 20 26 15 31 33 8 0 0
split_gain=189694 53620.8 32771.6 18727.3 8759.82 8618.14 7552.11 7025.81 5481.24 7599.21 9973.31 6406.8 7474.29 9806.6 5783.33 5741.06 5424.13 5268.85 3960.15 3734.16 3664.36 3477.5 9397.72
threshold=6.5000000000000009 2.5000000000000004 18.500000000000004 1.0000000180025095e-35 7.5000000000000009 1.5000000000000002 69.500000000000014 2.5000000000000004 1.0000000180025095e-35 1.0000000180025095e-35 0.46415852010250097 12.500000000000002 10.500000000000002 12.500000000000002 35.500000000000007 1.0000000180025095e-35 3.5000000000000004 1.0000000180025095e-35 0.50049886107444774 0.55053287744522106 1.0000000180025095e-35 23.500000000000004 22.500000000000004
decision_type=2 2 2 2 2 2 2 2 2 2 2 2 2 2 2 2 2 2 2 2 2 2 2
left_child=1 3 4 8 21 -5 -4 20 9 10 11 12 15 19 -12 16 -1 -10 -16 -14 -3 22 -2
right_child=2 7 6 5 -6 -7 -8 -9 17 -11 14 -13 13 -15 18 -17 -18 -19 -20 -21 -22 -23 -24
leaf_value=0.053886319551152209 0.1545977755945018 0.10663645974582028 0.37250100161719168 0.0080139217496563633 0.29819276578345616 0.040244172451570165 0.66524627861267183 0.1143222937956518 -0.0091108341494872541 -0.011812298498674788 0.17136127799812137 -0.005401453119477314 0.45422546626680538 0.045812009924469987 0.027009959037351802 -0.012911341405757049 0.012172705160279421 0.003620798160588295 0.1166167525080458 0.088479586577064395 0.044603314531069804 0.087295619174957401 0.4161139414789421
leaf_weight=35978 16187 11528 5322 512631 5532 99330 1248 26522 2766315 357194 3764 417337 1015 4472 33568 78896 244465 367110 5906 501 65522 6204 1555
leaf_count=35978 16187 11528 5322 512631 5532 99330 1248 26522 2766315 357194 3764 417337 1015 4472 33568 78896 244465 367110 5906 501 65522 6204 1555
internal_value=0 -0.0160505 2.28548 -0.0310356 1.82719 0.132628 4.31477 0.69592 -0.0542622 0.00364969 0.0564378 0.030467 0.127247 1.23503 0.523998 0.108441 0.175633 -0.07616 0.407222 3.42592 0.540396 1.55398 1.78524
internal_weight=0 5.03205e+06 36048 4.92848e+06 29478 611961 6570 103572 4.31652e+06 1.1831e+06 825902 782664 365327 5988 43238 359339 280443 3.13342e+06 39474 1516 77050 23946 17742
internal_count=5068102 5032054 36048 4928482 29478 611961 6570 103572 4316521 1183096 825902 782664 365327 5988 43238 359339 280443 3133425 39474 1516 77050 23946 17742
shrinkage=0.1


Tree=12
num_leaves=24
num_cat=0
split_feature=3 3 6 3 12 6 23 18 23 8 18 12 8 21 17 21 21 4 1 1 26 0 21
split_gain=155790 41626.5 30747.7 15562.3 10537.2 7064.17 5769.69 5226.34 4534.91 4490.85 3905.63 3666.31 3942.15 5484.8 4740.16 4557.81 23164.2 8645.6 4757.48 7445.08 6385.71 4803.05 4282.14
threshold=4.5000000000000009 12.500000000000002 2.5000000000000004 1.0000000180025095e-35 10.500000000000002 6.5000000000000009 4.5000000000000009 2.5000000000000004 4.5000000000000009 1.0000000180025095e-35 3.5000000000000004 1.0000000180025095e-35 1.0000000180025095e-35 30.500000000000004 1.0000000180025095e-35 19.500000000000004 20.500000000000004 1.0000000180025095e-35 7834.5000000000009 5160.5000000000009 11.500000000000002 18.500000000000004 27.500000000000004
decision_type=2 2 2 2 2 2 2 2 2 2 2 2 2 2 2 2 2 2 2 2 2 2 2
left_child=2 5 3 11 -3 9 -5 -4 -7 -2 -8 12 13 14 15 -1 17 18 19 20 -17 -21 -18
right_child=1 4 7 6 -6 8 10 -9 -10 -11 -12 -13 -14 -15 -16 16 22 -19 -20 21 -22 -23 -24
leaf_value=-0.0015943350837443202 0.1608735948711574 0.26125795067223445 0.042423031379407533 0.0022794859557519497 0.4756732110862652 0.064812960796406874 0.019418063464281293 0.10588872343865603 0.2064242412679631 0.07180795703309073 0.071107893086925153 0.0039951627416511424 -0.0080709966564198113 -0.0035698283212825563 -0.013309981211435446 0.5127955438699634 0.0029790271486723661 0.011868390635216445 0.5683141373671019 0.27957313624633984 0.20572664124518633 -0.10006038279547168 0.059950394559603382
leaf_weight=30471 7475 9284 87356 291117 3352 3153 275926 15595 11067 27947 15605 398346 2796841 996223 34258 1208 36192 1625 565 508 2030 845 21113
leaf_count=30471 7475 9284 87356 291117 3352 3153 275926 15595 11067 27947 15605 398346 2796841 996223 34258 1208 36192 1625 565 508 2030 845 21113
internal_value=0 1.57196 -0.0192188 -0.0305959 3.19589 1.15547 0.122764 0.521526 1.75862 0.909655 0.222239 -0.0513024 -0.0605967 -0.0105058 0.183526 0.299301 0.450708 2.19747 2.83033 2.43443 3.25799 0.371904 0.241571
internal_weight=0 62278 5.00582e+06 4.90287e+06 12636 49642 582648 102951 14220 35422 291531 4.32022e+06 3.92188e+06 1.12504e+06 128815 94557 64086 6781 5156 4591 3238 1353 57305
internal_count=5068102 62278 5005824 4902873 12636 49642 582648 102951 14220 35422 291531 4320225 3921879 1125038 128815 94557 64086 6781 5156 4591 3238 1353 57305
shrinkage=0.1


Tree=13
num_leaves=24
num_cat=0
split_feature=6 4 15 18 8 6 9 23 9 0 23 0 9 23 12 11 19 5 22 23 31 24 24
split_gain=100442 29818 22625.4 13237 14701.6 12284 7954.01 6942.19 5366.71 4791.37 4018.83 3764.48 3730.2 5371.13 3670.75 3626.17 3964.4 4747.03 6914.33 6876.5 9318.16 4638.59 8735.38
threshold=5.5000000000000009 19.500000000000004 7.5000000000000009 2.5000000000000004 1.0000000180025095e-35 18.500000000000004 1.0000000180025095e-35 10.500000000000002 4.5000000000000009 24.500000000000004 4.5000000000000009 22.500000000000004 1.0000000180025095e-35 59.500000000000007 2.5000000000000004 1.0000000180025095e-35 1.0000000180025095e-35 1.0000000180025095e-35 11.500000000000002 59.500000000000007 0.5516725778579713 13.500000000000002 12.500000000000002
decision_type=2 2 2 2 2 2 2 2 2 2 2 2 2 2 2 2 2 2 2 2 2 2 2
left_child=1 12 7 4 -3 -4 -6 -2 -9 11 -8 -10 15 -14 -5 16 17 18 19 20 21 22 -1
right_child=2 3 5 14 6 -7 10 8 9 -11 -12 -13 13 -15 -16 -17 -18 -19 -20 -21 -22 -23 -24
leaf_value=0.014854056932830423 0.050854041399070328 0.054042764882952524 0.21596222311946264 0.047388955409849165 -0.0002823285593819245 0.48800912236660904 0.0051210294015188139 0.098346040643599947 0.20429531228559195 0.071411816438677722 0.032385377475540038 0.41743130689092367 0.0037270610268991672 0.15588179389916013 0.10658137321540206 -0.0076118685959649657 -0.010332338718758556 -0.0057760844885790252 -0.0040819066765962813 -0.01053396280320394 0.1297751828759191 0.010169502276614974 0.07884223143837632
leaf_weight=53143 13775 78933 7767 33822 402515 2247 84844 13448 6598 2533 153788 1099 390030 2318 16019 2666772 327947 379634 216734 57656 8706 111576 36198
leaf_count=53143 13775 78933 7767 33822 402515 2247 84844 13448 6598 2533 153788 1099 390030 2318 16019 2666772 327947 379634 216734 57656 8706 111576 36198
internal_value=0 -0.0133456 1.44787 0.167703 0.133022 2.78853 0.0826941 1.08545 1.41614 1.97214 0.227349 2.37026 -0.0461626 0.0465938 0.666492 -0.0556209 -0.00966268 0.0257883 0.091526 0.199213 0.283458 0.238884 0.409037
internal_weight=0 5.02064e+06 47467 769921 720080 10014 641147 37453 23678 10230 238632 7697 4.25071e+06 392348 49841 3.85837e+06 1.19159e+06 863647 484013 267279 209623 200917 89341
internal_count=5068102 5020635 47467 769921 720080 10014 641147 37453 23678 10230 238632 7697 4250714 392348 49841 3858366 1191594 863647 484013 267279 209623 200917 89341
shrinkage=0.1


Tree=14
num_leaves=24
num_cat=0
split_feature=3 3 3 9 18 3 12 9 8 18 0 0 7 21 18 12 36 11 20 31 5 5 21
split_gain=112091 36570.2 17153.2 12737.6 5846.6 5316.23 4913.17 4140.74 3334.29 3154.21 3135.54 8475.59 3086.85 2771.14 2500.14 2416.75 2411.27 3017.88 4186.04 5917.95 4165.86 3857 5351.99
threshold=7.5000000000000009 2.5000000000000004 19.500000000000004 1.5000000000000002 4.5000000000000009 1.0000000180025095e-35 3.5000000000000004 19.500000000000004 11.000000000000002 1.5000000000000002 23.500000000000004 22.500000000000004 1.0000000180025095e-35 39.500000000000007 4.5000000000000009 3.5000000000000004 1.0000000180025095e-35 1.0000000180025095e-35 1.0000000180025095e-35 0.5516725778579713 1.0000000180025095e-35 1.0000000180025095e-35 40.500000000000007
decision_type=2 2 2 2 2 2 2 2 2 2 2 2 2 2 2 2 2 2 2 2 2 2 2
left_child=1 3 6 5 10 16 8 -4 13 -5 11 15 -7 -2 -8 -3 17 18 19 21 -21 22 -1
right_child=2 4 7 9 -6 12 14 -9 -10 -11 -12 -13 -14 -15 -16 -17 -18 -19 -20 20 -22 -23 -24
leaf_value=0.022146522736817831 0.12414308826121617 0.038561557838553001 0.28680373194623987 0.016857485961921492 0.12452501782338024 0.031835530376828285 0.17297103396998528 0.48895575059742891 0.083816066477962511 0.051224286447251105 0.018094108448914886 0.17812820088792364 0.0039729102916745175 0.30019107674851675 0.29796378503668003 0.08637932803952858 -0.012422738762071478 -0.0055096292246299104 -0.0092977924630249058 0.10789864805544694 0.00027660196606455563 -0.0039575643486596396 -0.0015653660754835572
leaf_weight=192882 2808 53147 4263 163437 11267 43910 5667 1729 9897 32462 26892 5533 438681 1626 2918 13873 356460 2840273 297030 9340 6146 361397 186464
leaf_count=192882 2808 53147 4263 163437 11267 43910 5667 1729 9897 32462 26892 5533 438681 1626 2918 13873 356460 2840273 297030 9340 6146 361397 186464
internal_value=0 -0.0109246 1.96317 -0.0237132 0.557371 -0.0340751 1.5589 3.48231 1.18207 0.22608 0.478195 0.586915 0.0653001 1.92005 2.17211 0.486317 -0.045383 -0.0381384 0.00749649 0.0470943 0.658866 0.0341521 0.104653
internal_weight=0 5.03919e+06 28908 4.92848e+06 110712 4.73258e+06 22916 5992 14331 195899 99445 72553 482591 4434 8585 67020 4.24999e+06 3.89353e+06 1.05326e+06 756229 15486 740743 379346
internal_count=5068102 5039194 28908 4928482 110712 4732583 22916 5992 14331 195899 99445 72553 482591 4434 8585 67020 4249992 3893532 1053259 756229 15486 740743 379346
shrinkage=0.1


Tree=15
num_leaves=24
num_cat=0
split_feature=3 3 12 21 4 12 6 8 3 8 6 15 6 14 5 21 21 21 31 1 1 1 19
split_gain=92441.8 32529.8 15301 8708.27 6291.77 5008.88 4437.81 3440.4 3117.53 2765.83 3489.92 2598.52 2472.7 2320.32 3404.17 5232.61 3973.92 23082.6 5686.9 4226.56 6143.26 5120.31 3472.32
threshold=3.5000000000000004 10.500000000000002 1.5000000000000002 69.500000000000014 10.500000000000002 3.5000000000000004 2.5000000000000004 1.0000000180025095e-35 19.500000000000004 1.0000000180025095e-35 1.0000000180025095e-35 3.5000000000000004 6.5000000000000009 1.0000000180025095e-35 1.0000000180025095e-35 30.500000000000004 19.500000000000004 20.500000000000004 0.5516725778579713 7834.5000000000009 4040.0000000000005 2318.5000000000005 1.0000000180025095e-35
decision_type=2 2 2 2 2 2 2 2 2 2 2 2 2 2 2 2 2 2 2 2 2 2 2
left_child=2 5 4 8 13 7 -4 -2 11 -6 -11 -3 -7 14 15 16 -1 19 -19 20 21 -18 -20
right_child=1 3 6 -5 9 12 -8 -9 -10 10 -12 -13 -14 -15 -16 -17 17 18 22 -21 -22 -23 -24
leaf_value=-0.0044646570071373536 0.10884084187027671 0.12607830305771567 0.01754930538820498 0.4284442633383771 0.019400584391411044 0.086332163410415108 0.055650495383116706 0.041658525332190617 0.2687863638860038 -0.0017944141950761634 0.010756559191381927 0.24456879283750116 0.16206662119466786 -0.0067914906037906189 -0.0072740061534073393 0.00023357570638759639 0.14769080887316971 -0 0.11456383674038405 0.50880591531244357 0.081603239750016598 0.45662608930016213 -0.0043675686420842465
leaf_weight=24257 9693 6920 181513 1974 99511 13450 37232 41652 4797 741539 315409 3034 7320 2424148 535190 570112 1168 33328 8438 565 2331 1288 3233
leaf_count=24257 9693 6920 181513 1974 99511 13450 37232 41652 4797 741539 315409 3034 7320 2424148 535190 570112 1168 33328 8438 565 2331 1288 3233
internal_value=0 1.01132 -0.0176959 2.26991 -0.0295978 0.717492 0.240846 0.545734 1.98811 0.0345292 0.0194165 1.63615 1.13635 -0.0502025 -0.0137266 0.0351068 0.284116 0.444441 0.208016 2.40548 2.04821 3.16124 0.80812
internal_weight=0 88840 4.97926e+06 16725 4.76052e+06 72115 218745 51345 14751 1.15646e+06 1.05695e+06 9954 20770 3.60406e+06 1.17991e+06 644720 74608 50351 44999 5352 4787 2456 11671
internal_count=5068102 88840 4979262 16725 4760517 72115 218745 51345 14751 1156459 1056948 9954 20770 3604058 1179910 644720 74608 50351 44999 5352 4787 2456 11671
shrinkage=0.1


Tree=16
num_leaves=24
num_cat=0
split_feature=9 4 18 8 15 23 0 9 12 18 1 23 2 2 2 15 23 2 2 17 8 21 2
split_gain=52196.2 16140.5 13641 7605.58 8917.7 6877.59 5948.15 4420.16 3786.51 3406.19 2982.86 2883.83 2863.62 8096.81 3787.27 2533.48 3434.62 2267.12 2287.6 2146.57 2993.82 3488.26 3599.52
threshold=4.5000000000000009 19.500000000000004 10.500000000000002 1.0000000180025095e-35 1.5000000000000002 10.500000000000002 24.500000000000004 12.500000000000002 11.500000000000002 3.5000000000000004 2719.5000000000005 9.5000000000000018 23.000000000000004 32.000000000000007 53.500000000000007 1.0000000180025095e-35 59.500000000000007 30.500000000000004 28.500000000000004 1.0000000180025095e-35 1.0000000180025095e-35 30.500000000000004 32.000000000000007
decision_type=2 2 2 2 2 2 2 2 2 2 2 2 2 2 2 2 2 2 2 2 2 2 2
left_child=1 15 5 12 11 -2 7 -7 -4 -6 -9 -5 -3 17 -15 19 -17 18 -14 20 21 22 -1
right_child=2 3 8 4 9 6 -8 10 -10 -11 -12 -13 13 14 -16 16 -18 -19 -20 -21 -22 -23 -24
leaf_value=0.043355649625538721 0.030898877520201918 0.012895360987285158 0.17811904040485121 -0.0045596135120234988 0.027436135007497184 0.10316953881456761 0.030667958458895542 0.047537189697232932 0.37811880489542138 0.077092844884668998 0.23577421892319883 0.009841318267178073 0.13819880373125082 0.017837868608199681 0.091404241451878074 0.0032493993516940311 0.13401780559194404 0.24742821201428372 0.028176869180509129 -0.006117897626664438 -0.006281544209134138 0.00055546745282874751 0.0026031228271404037
leaf_weight=41079 21673 24642 3034 236419 92127 22157 9118 1193 1710 16639 5017 335408 7535 33373 9040 410724 2003 1507 2866 2430428 634352 679012 47046
leaf_count=41079 21673 24642 3034 236419 92127 22157 9118 1193 1710 16639 5017 335408 7535 33373 9040 410724 2003 1507 2866 2430428 634352 679012 47046
internal_value=0 -0.0111231 0.898267 0.123101 0.0888233 0.764436 1.02479 1.25172 2.53594 0.351373 2.01486 0.0386989 0.417184 0.545999 0.337893 -0.0351658 0.0391472 1.27702 1.08954 -0.0431962 -0.011939 0.0300013 0.217187
internal_weight=0 5.0042e+06 63902 759556 680593 59158 37485 28367 4744 108766 6210 571827 78963 54321 42413 4.24464e+06 412727 11908 10401 3.83192e+06 1.40149e+06 767137 88125
internal_count=5068102 5004200 63902 759556 680593 59158 37485 28367 4744 108766 6210 571827 78963 54321 42413 4244644 412727 11908 10401 3831917 1401489 767137 88125
shrinkage=0.1


Tree=17
num_leaves=24
num_cat=0
split_feature=3 3 21 9 18 3 18 27 8 6 36 11 17 35 25 33 24 24 20 8 21 34 4
split_gain=67642.8 23736.3 8736.37 8344.43 4582.41 4354.99 3922.22 2897.72 3404.76 3791.82 2450.2 2395.69 2864.11 3431.76 3420.11 2667.96 2536.56 6688.58 3231.11 3824.39 4415.31 3154.02 3372.18
threshold=8.5000000000000018 2.5000000000000004 69.500000000000014 1.0000000180025095e-35 4.5000000000000009 18.500000000000004 1.5000000000000002 1.0000000180025095e-35 1.0000000180025095e-35 2.5000000000000004 1.0000000180025095e-35 1.0000000180025095e-35 1.0000000180025095e-35 0.46415852010250097 35.500000000000007 1.0000000180025095e-35 13.500000000000002 12.500000000000002 1.0000000180025095e-35 11.000000000000002 40.500000000000007 1.0000000180025095e-35 1.0000000180025095e-35
decision_type=2 2 2 2 2 2 2 2 2 2 2 2 2 2 2 2 2 2 2 2 2 2 2
left_child=1 3 5 11 7 -2 10 8 -3 -10 -5 12 13 15 -15 16 17 -1 19 20 21 22 -19
right_child=2 4 -4 6 -6 -7 -8 -9 9 -11 -12 -13 -14 14 -16 -17 -18 18 -20 -21 -22 -23 -24
leaf_value=-0.0010603336531396629 0.11945494547594915 0.09411048244171194 0.35219987248863605 0.0057129747647984737 0.102533208287094 0.22781069204343951 0.030977522319334851 -0.022694746089268032 0.014715939175341315 0.057342046871648247 0.11975586178511884 -0.0049421604503316185 -0.0082650853824162308 0.10764862484155142 0.018859172121370987 -0.010193727022303324 -0.0013882038283906176 0.10803557340091943 -0.0050745790703456087 0.0045126706210926034 0.023828741375595146 0.0083669387356780003 0.036902574187676188
leaf_weight=216317 15848 11142 2405 544615 12131 5322 72229 7332 45751 39689 1880 2983380 308987 4789 52692 166582 435317 20540 25460 32579 45422 7044 10649
leaf_count=216317 15848 11142 2405 544615 12131 5322 72229 7332 45751 39689 1880 2983380 308987 4789 52692 166582 435317 20540 25460 32579 45422 7044 10649
internal_value=0 -0.0075464 1.68958 -0.0180924 0.439413 1.47356 0.0904593 0.369866 0.416246 0.346426 0.0612796 -0.0337001 0.0015867 0.0272695 0.264654 0.0129451 0.037196 0.09958 0.268475 0.339254 0.452567 0.704266 0.841079
internal_weight=0 5.04453e+06 23575 4.92848e+06 116045 21170 618724 103914 96582 85440 546495 4.30976e+06 1.32638e+06 1.01739e+06 57481 959910 793328 358011 141694 116234 83655 38233 31189
internal_count=5068102 5044527 23575 4928482 116045 21170 618724 103914 96582 85440 546495 4309758 1326378 1017391 57481 959910 793328 358011 141694 116234 83655 38233 31189
shrinkage=0.1


Tree=18
num_leaves=24
num_cat=0
split_feature=3 6 3 3 23 0 0 8 10 12 0 0 0 6 25 21 0 7 21 27 23 12 9
split_gain=55013.3 16703.7 10807.2 6526.07 4590.12 4161.35 9964.09 3739.17 3737.91 3393.36 3214.07 4779.98 5324.24 3088.35 2904.41 2886.17 2233.46 2178.05 2761.25 2755.17 2129.81 1981.99 1950.33
threshold=6.5000000000000009 2.5000000000000004 19.500000000000004 1.0000000180025095e-35 4.5000000000000009 23.500000000000004 22.500000000000004 1.0000000180025095e-35 13.500000000000002 1.5000000000000002 24.500000000000004 22.500000000000004 23.500000000000004 7.5000000000000009 26.500000000000004 33.500000000000007 23.500000000000004 2.5000000000000004 22.500000000000004 0.71246269345283519 54.500000000000007 1.0000000180025095e-35 2.5000000000000004
decision_type=2 2 2 2 2 2 2 2 2 2 2 2 2 2 2 2 2 2 2 2 2 2 2
left_child=1 3 5 21 -3 6 13 20 -8 -9 11 22 -13 17 -15 16 -4 18 -2 -20 -5 -1 -6
right_child=2 4 15 7 10 -7 8 9 -10 -11 -12 12 -14 14 -16 -17 -18 -19 19 -21 -22 -23 -24
leaf_value=-0.0037762068831786997 -0 0.0059629351373507531 0.21691831206089587 0.025329778009996251 0.031680821290389675 0.032104346779767416 0.19359295955642453 0.0019402838416686182 0.51201848868441768 0.023289369491754457 0.012824777860536429 0.21376439460310603 0.046985843737481742 0 0.17637720524057912 0.33001899964069603 0 0.039338738376428373 0.22710594169878809 -0.0066431887281406341 0.086916929789527322 0.003615422257561052 0.070584786032717201
leaf_weight=3921879 1048 35199 2692 49138 29876 7603 1003 449584 812 89555 19046 4080 3969 1106 6489 2638 662 9091 2370 534 6547 398346 24835
leaf_count=3921879 1048 35199 2692 49138 29876 7603 1003 449584 812 89555 19046 4080 3969 1106 6489 2638 662 9091 2370 534 6547 398346 24835
internal_value=0 -0.00847621 1.23096 -0.0173857 0.364871 0.979733 1.19784 0.0807682 3.45529 0.0550581 0.49494 0.604552 1.33085 0.991319 1.50919 2.46702 1.7664 0.680255 1.30967 1.80952 0.327788 -0.0309233 0.495426
internal_weight=0 5.03205e+06 36048 4.91505e+06 117005 30056 22453 594824 1815 539139 81806 62760 8049 20638 7595 5992 3354 13043 3952 2904 55685 4.32022e+06 54711
internal_count=5068102 5032054 36048 4915049 117005 30056 22453 594824 1815 539139 81806 62760 8049 20638 7595 5992 3354 13043 3952 2904 55685 4320225 54711
shrinkage=0.1


Tree=19
num_leaves=24
num_cat=0
split_feature=3 3 12 9 8 0 0 4 23 18 15 6 6 32 9 18 8 11 5 20 23 23 26
split_gain=45508.2 16882 8056.5 4350.53 4039.29 3638.84 11407.6 3540.9 3364.12 2890.02 2885.41 2486.72 2426.33 2363.84 2358.04 2144.39 1685.42 1586.87 2218.54 2792.26 4391.43 18128.4 5185.43
threshold=3.5000000000000004 11.500000000000002 1.5000000000000002 7.5000000000000009 11.000000000000002 23.500000000000004 22.500000000000004 8.5000000000000018 7.5000000000000009 1.5000000000000002 5.5000000000000009 4.5000000000000009 19.500000000000004 0.58045026659965526 3.5000000000000004 1.0000000180025095e-35 1.0000000180025095e-35 1.0000000180025095e-35 1.0000000180025095e-35 1.0000000180025095e-35 11.500000000000002 10.500000000000002 15.500000000000002
decision_type=2 2 2 2 2 2 2 2 2 2 2 2 2 2 2 2 2 2 2 2 2 2 2
left_child=2 5 7 4 13 6 10 17 -8 -4 -2 -6 -5 -3 -10 16 -9 18 19 20 21 -1 -23
right_child=1 3 9 12 11 -7 8 15 14 -11 -12 -13 -14 -15 -16 -17 -18 -19 -20 -21 -22 22 -24
leaf_value=0.012500259797496447 0.039247280485625091 0.26815251394870143 0.011861977594487861 0.1705717142705914 -0.022431656828487051 0.014072549676736965 0.066025010588901381 0.012287099058814061 0.20147203814326661 0.041278212291927206 0.10273690497595181 0.11577380888442923 0.32209739357418232 0.078815435327143413 0.40774326504246439 0.012092640222033225 -0.00060777964337005875 -0.0053404674926523406 -0.0062480727506494145 -0.0077050632805931787 -0.0012775959184341272 0.24058338739966231 0.041950691823603364
leaf_weight=199265 41127 2417 176971 2782 1799 19748 1242 111772 2193 41774 9037 3810 2477 1170 1038 188247 1078146 2283004 436477 179216 277792 4555 2043
leaf_count=199265 41127 2417 176971 2782 1799 19748 1242 111772 2193 41774 9037 3810 2477 1170 1038 188247 1078146 2283004 436477 179216 277792 4555 2043
internal_value=0 0.709685 -0.0123064 1.70094 1.25856 0.515309 0.648768 -0.020948 2.18245 0.175286 0.509205 0.697478 2.44785 2.09947 2.72916 0.0217312 0.00595251 -0.0383675 -0.00704854 0.0293015 0.0689181 0.179632 1.80903
internal_weight=0 88840 4.97926e+06 14455 9196 74385 54637 4.76052e+06 4473 218745 50164 5609 5259 3587 3231 1.37816e+06 1.18992e+06 3.38235e+06 1.09935e+06 662871 483655 205863 6598
internal_count=5068102 88840 4979262 14455 9196 74385 54637 4760517 4473 218745 50164 5609 5259 3587 3231 1378165 1189918 3382352 1099348 662871 483655 205863 6598
shrinkage=0.1


Tree=20
num_leaves=24
num_cat=0
split_feature=6 15 9 6 6 6 36 11 35 0 31 0 5 1 1 35 19 21 21 5 21 2 2
split_gain=32790.4 9336.16 7999.69 6765.09 3886.19 2903.1 3786.62 2852.24 3653.39 3337.58 4616.42 3173.38 3406.17 3192.91 5334.88 2949.94 2698.9 2396.32 5564.34 5956.64 2317.03 2292.95 2908.81
threshold=6.5000000000000009 1.5000000000000002 3.5000000000000004 19.500000000000004 2.5000000000000004 1.0000000180025095e-35 1.0000000180025095e-35 1.0000000180025095e-35 0.46415852010250097 23.500000000000004 0.50049886107444774 19.500000000000004 11.000000000000002 6957.5000000000009 7834.5000000000009 0.61206734180450451 6.5000000000000009 21.500000000000004 19.500000000000004 1.0000000180025095e-35 28.500000000000004 53.500000000000007 54.500000000000007
decision_type=2 2 2 2 2 2 2 2 2 2 2 2 2 2 2 2 2 2 2 2 2 2 2
left_child=1 5 -2 16 -3 7 -7 8 21 10 15 13 20 -12 -15 17 -4 18 -10 -20 -13 -1 -23
right_child=2 4 3 -5 -6 6 -8 -9 9 -11 11 12 -14 14 -16 -17 -18 -19 19 -21 -22 22 -24
leaf_value=-0.0013918897240893606 0.037237528481702246 0.012965572567939898 0.074407068292144274 0.25322630686628028 0.047409019967660074 0.004705734842337897 0.13740281488688871 -0.004205764960369042 0.025639932906074872 -0.019140034815208762 0.0005403535095269903 0.40345181841681255 0.070315046669805745 0.33084588294306227 -0.025578284843505678 -0.00099588886763536362 0.15877924697700241 0.007715828466629833 0.2971417913571589 0.053425397532912804 0.15332214977784919 0.046078375529657149 0.0059320336812275672
leaf_weight=1092772 15220 191203 11400 3936 39984 544840 2145 2952025 7606 14305 4340 784 2105 876 695 25968 6420 8545 1985 2271 1140 21570 115967
leaf_count=1092772 15220 191203 11400 3936 39984 544840 2145 2952025 7606 14305 4340 784 2105 876 695 25968 6420 8545 1985 2271 1140 21570 115967
internal_value=0 -0.0065484 0.938353 1.329 0.189694 -0.0160219 0.0524939 -0.0248577 0.0140951 0.23526 0.345443 0.966018 1.6588 0.472948 1.68541 0.209915 1.05508 0.494337 0.785808 1.70292 2.63492 0.0013153 0.123067
internal_weight=0 5.03113e+06 36976 21756 231187 4.79994e+06 546985 4.25295e+06 1.30093e+06 70620 56315 9940 4029 5911 1571 46375 17820 20407 11862 4256 1924 1.23031e+06 137537
internal_count=5068102 5031126 36976 21756 231187 4799939 546985 4252954 1300929 70620 56315 9940 4029 5911 1571 46375 17820 20407 11862 4256 1924 1230309 137537
shrinkage=0.1


Tree=21
num_leaves=24
num_cat=0
split_feature=6 4 15 18 7 23 15 21 19 22 27 25 21 24 30 21 23 24 24 24 14 8 36
split_gain=26692.8 7346.51 7243.98 4857.5 4660.68 3732.5 3725.6 3171.59 3102.68 2106.04 2008.29 2474.67 3158.39 2245.66 1856.21 1669.38 1511.7 1456.96 2176.46 5274.35 2471.85 3285.58 3691.76
threshold=5.5000000000000009 19.500000000000004 10.500000000000002 3.5000000000000004 1.0000000180025095e-35 10.500000000000002 1.0000000180025095e-35 30.500000000000004 19.500000000000004 9.5000000000000018 0.58008471131324779 29.500000000000004 30.500000000000004 25.500000000000004 0.52493566274642955 75.500000000000014 4.5000000000000009 25.500000000000004 13.500000000000002 12.500000000000002 11.000000000000002 11.000000000000002 1.0000000180025095e-35
decision_type=2 2 2 2 2 2 2 2 2 2 2 2 2 2 2 2 2 2 2 2 2 2 2
left_child=1 17 5 4 10 -2 -6 -7 -4 -9 11 12 -3 -14 -13 -11 -8 18 19 -1 21 22 -21
right_child=2 3 8 -5 6 7 16 9 -10 15 -12 14 13 -15 -16 -17 -18 -19 -20 20 -22 -23 -24
leaf_value=-0.0050212256884962295 0.01591669155565666 0.28527847625766795 0.10858531415077613 0.04511193067965788 -0.0011113527193450854 0.056906927227030793 0.0026756255828107619 0.2591746463125037 0.25090718727360195 0.090573954567907192 -0.0052321142448120139 0.017865564349195822 0.044877200718812113 0.1524372793151495 0.10312372613401262 0.28833226858239092 0.021471177378329487 0.0026398948118007567 -0.0057824833164401455 0.030129605336468763 0.0017513678851327624 -0.0007394123368939568 -0.011638923531384862
leaf_weight=1262857 14321 640 4217 34346 459431 18390 65248 1260 2889 5878 13294 42484 17465 2298 2771 512 131944 521497 1599829 123053 623157 95161 25160
leaf_count=1262857 14321 640 4217 34346 459431 18390 65248 1260 2889 5878 13294 42484 17465 2298 2771 512 131944 521497 1599829 123053 623157 95161 25160
internal_value=0 -0.00670798 0.746567 0.0831439 0.0658143 0.578306 0.0380335 0.804681 1.68393 1.35507 0.295526 0.367473 0.659213 0.58031 0.233501 1.0883 0.153036 -0.0230065 -0.0299423 -0.00894654 0.0510773 0.136597 0.229711
internal_weight=0 5.02064e+06 47467 769921 735575 40361 656623 26040 7106 7650 78952 65658 20403 19763 45255 6390 197192 4.25071e+06 3.72922e+06 2.12939e+06 866531 243374 148213
internal_count=5068102 5020635 47467 769921 735575 40361 656623 26040 7106 7650 78952 65658 20403 19763 45255 6390 197192 4250714 3729217 2129388 866531 243374 148213
shrinkage=0.1


Tree=22
num_leaves=24
num_cat=0
split_feature=3 9 21 3 36 23 6 0 0 1 7 23 0 3 21 27 3 0 0 0 0 6 21
split_gain=29579.4 10965.6 4545.51 3859.29 4060.03 2963.59 2995.65 2773.41 3048.11 2740.18 2493.61 2500.71 1946.64 1935.73 1799.29 1717.73 1766.73 1702.84 1686.62 3026.05 2764.21 1651.12 1598.23
threshold=8.5000000000000018 2.5000000000000004 69.500000000000014 1.0000000180025095e-35 1.0000000180025095e-35 10.500000000000002 6.5000000000000009 24.500000000000004 15.500000000000002 2796.5000000000005 1.0000000180025095e-35 4.5000000000000009 14.500000000000002 14.500000000000002 30.500000000000004 0.58008471131324779 1.5000000000000002 24.500000000000004 24.500000000000004 22.500000000000004 23.500000000000004 1.0000000180025095e-35 27.500000000000004
decision_type=2 2 2 2 2 2 2 2 2 2 2 2 2 2 2 2 2 2 2 2 2 2 2
left_child=1 3 7 -1 10 -3 18 8 12 -10 15 -12 -2 -11 -9 16 -5 -8 19 -7 -21 -13 -18
right_child=2 5 -4 4 -6 6 17 14 9 13 11 21 -14 -15 -16 -17 22 -19 -20 20 -22 -23 -24
leaf_value=-0.0022956461003267791 0.082455143008403384 0.0099175256264766934 0.24439956361595927 0.017057255080148506 0.12953115256709943 0.031995617332394456 0.116243397324477 -0.082829524582285916 0.0054602665975998829 0.11965857373711759 -0.0032677910971499174 0.0025579855601351566 -0.0433966855334545 0.21776209149555045 0.084096571971281495 -0.0095708022877884144 0.010816923865652698 0.018839983439364924 0.0032760193838717402 0.17033010648653635 0.03473085746140793 0.018076729769594319 0.076589444743900892
leaf_weight=4310173 5903 52786 2405 26769 2646 43435 7593 1312 1427 5823 269092 140892 1424 4049 1232 10743 5629 2701 15395 3328 3156 136795 13394
leaf_count=4310173 5903 52786 2405 26769 2646 43435 7593 1312 1427 5823 269092 140892 1424 4049 1232 10743 5629 2701 15395 3328 3156 136795 13394
internal_value=0 -0.00487923 1.11739 -0.0124339 0.0622456 0.283565 0.410915 0.9598 1.09346 1.42516 0.0566291 0.0357392 0.565832 1.61266 -0 0.256814 0.341706 0.917418 0.329299 0.418699 1.06176 0.102396 0.57684
internal_weight=0 5.04453e+06 23575 4.91613e+06 605960 128394 75608 21170 18626 11299 603314 546779 7327 9872 2544 56535 45792 10294 65314 49919 6484 277687 19023
internal_count=5068102 5044527 23575 4916133 605960 128394 75608 21170 18626 11299 603314 546779 7327 9872 2544 56535 45792 10294 65314 49919 6484 277687 19023
shrinkage=0.1


Tree=23
num_leaves=24
num_cat=0
split_feature=3 9 15 18 21 7 1 9 0 0 6 36 14 3 23 5 21 21 21 31 0 25 0
split_gain=24224.6 9481.08 3297.95 3131.47 2847.28 2142.24 4317.06 4292.68 1922.44 2366.09 1805.01 1792.19 1718.25 2634.81 2819.49 1767.92 2495.25 2695.32 13341.1 3951.99 3559.15 3519.28 3427.62
threshold=9.5000000000000018 2.5000000000000004 1.0000000180025095e-35 3.5000000000000004 69.500000000000014 2.5000000000000004 3320.5000000000005 3.5000000000000004 24.500000000000004 21.500000000000004 11.500000000000002 1.0000000180025095e-35 1.0000000180025095e-35 1.0000000180025095e-35 36.500000000000007 1.0000000180025095e-35 30.500000000000004 19.500000000000004 20.500000000000004 0.5516725778579713 14.500000000000002 62.500000000000007 22.500000000000004
decision_type=2 2 2 2 2 2 2 2 2 2 2 2 2 2 2 2 2 2 2 2 2 2 2
left_child=1 2 12 10 5 6 -2 -7 9 -9 -3 -4 13 15 -15 16 17 -1 21 -20 -21 -19 -22
right_child=4 3 11 -5 -6 7 -8 8 -10 -11 -12 -13 -14 14 -16 -17 -18 18 19 20 22 -23 -24
leaf_value=-0.006800190342550326 -0.010879543696574758 0.017301306120549111 0.005633289926746326 0.064699519510623901 0.22207350545228211 0.008351364544923778 0.20988318290759997 0.11016481605552358 0 0.27103056884268523 0.088163854707151865 0.10357366683445322 -0.0034949701651862211 0.0062691673800722107 0.040597539519517944 -0.0041897275507396933 0.00080088525677336677 0.22959124644964113 -0.0018244716904576965 -0.018929367598962323 0.15397011885782555 0.031518169415093014 0.018752417954341655
leaf_weight=24110 1066 108180 578492 18376 2165 5875 3526 4703 1102 1321 3784 1867 2847782 119570 30246 699484 566360 4022 33157 3335 4941 1320 3318
leaf_count=24110 1066 108180 578492 18376 2165 5875 3526 4703 1102 1321 3784 1867 2847782 119570 30246 699484 566360 4022 33157 3335 4941 1320 3318
internal_value=0 -0.00398374 -0.0110588 0.262165 1.1049 0.959539 1.56641 0.735432 1.25717 1.47876 0.198008 0.0596915 -0.0205481 0.00691253 0.132709 -0.00707852 0.030787 0.203246 0.33577 0.154654 0.656908 1.82813 1.01032
internal_weight=0 5.04834e+06 4.918e+06 130340 19758 17593 4592 13001 7126 6024 111964 580359 4.33764e+06 1.48986e+06 149816 1.34005e+06 640563 74203 50093 44751 11594 5342 8259
internal_count=5068102 5048344 4918004 130340 19758 17593 4592 13001 7126 6024 111964 580359 4337645 1489863 149816 1340047 640563 74203 50093 44751 11594 5342 8259
shrinkage=0.1


Tree=24
num_leaves=24
num_cat=0
split_feature=3 3 12 0 0 1 23 18 21 31 0 0 15 36 25 7 0 32 21 7 31 21 36
split_gain=19919.7 7617.77 4574.97 3278.67 10264.6 2734.88 4666.22 2564.81 2376.67 2330.82 2218.2 2662.06 1990.36 1708.07 1528.76 2356.42 2161.17 1350.44 1320.19 1431.94 2258.94 1984.62 1270.28
threshold=3.5000000000000004 14.500000000000002 1.0000000180025095e-35 23.500000000000004 22.500000000000004 3320.5000000000005 7.5000000000000009 1.5000000000000002 30.500000000000004 0.44243226945400244 23.500000000000004 22.500000000000004 7.5000000000000009 1.0000000180025095e-35 46.500000000000007 1.0000000180025095e-35 18.500000000000004 0.72389146685600292 73.500000000000014 2.5000000000000004 0.50049886107444774 39.500000000000007 1.0000000180025095e-35
decision_type=2 2 2 2 2 2 2 2 2 2 2 2 2 2 2 2 2 2 2 2 2 2 2
left_child=2 3 22 4 12 -6 -7 13 10 -8 11 17 18 -4 15 -10 -17 -3 19 20 21 -2 -1
right_child=1 8 7 -5 5 6 9 -9 14 -11 -12 -13 -14 -15 -16 16 -18 -19 -20 -21 -22 -23 -24
leaf_value=-0.0014538095969762598 -0.0084078744960606085 0.10714446175549533 0.0042339214969862775 0.001898210751912707 0.024540346453159147 0.053653247611045118 0.36571577745479966 0.023299256013227979 0.2696920298343945 0.1219001673026916 -0.040472082494077161 0.33429582257113122 0.086018799951104161 0.096879498577647494 0.25428812503299297 -0.063452157989485086 0.15570315602387674 -0.045782611985833582 0.14040333850221393 0.016518638522943305 0.20706016062628999 0.096225493686601618 -0.00768810319269348
leaf_weight=3982279 3507 3285 552842 20882 940 1198 1878 84915 755 704 1066 495 7035 1988 2049 789 898 587 1040 37340 984 3408 357238
leaf_count=3982279 3507 3285 552842 20882 940 1198 1878 84915 755 704 1066 495 7035 1988 2049 789 898 587 1040 37340 984 3408 357238
internal_value=0 0.469633 -0.00803712 0.363825 0.486136 1.90146 2.28351 0.0708734 1.29854 3.04529 0.815206 1.13628 0.358293 0.0458738 1.85488 1.22102 0.478047 0.81275 0.2795 0.25083 0.641615 0.418466 -0.0196937
internal_weight=0 88840 4.97926e+06 78916 58034 4720 3780 639745 9924 2582 5433 4367 53314 554830 4491 2442 1687 3872 46279 45239 7899 6915 4.33952e+06
internal_count=5068102 88840 4979262 78916 58034 4720 3780 639745 9924 2582 5433 4367 53314 554830 4491 2442 1687 3872 46279 45239 7899 6915 4339517
shrinkage=0.1


Tree=25
num_leaves=24
num_cat=0
split_feature=3 9 18 1 27 7 9 25 25 4 0 0 0 36 18 7 3 2 2 25 25 0 0
split_gain=16536.2 6890.54 2962.82 2312.47 2486.21 3122.89 3356.69 2608.93 3310.74 2234.87 1889.57 2487.33 1655.31 1653.27 1530.1 1743.36 2050.23 2311.72 2192.45 1529.1 1402.73 1766.43 2470.74
threshold=9.5000000000000018 1.5000000000000002 5.5000000000000009 3320.5000000000005 0.71246269345283519 1.5000000000000002 4.5000000000000009 42.500000000000007 50.500000000000007 7.5000000000000009 24.500000000000004 20.500000000000004 23.500000000000004 1.0000000180025095e-35 1.0000000180025095e-35 1.0000000180025095e-35 1.5000000000000002 24.500000000000004 32.000000000000007 34.500000000000007 25.500000000000004 24.500000000000004 22.500000000000004
decision_type=2 2 2 2 2 2 2 2 2 2 2 2 2 2 2 2 2 2 2 2 2 2 2
left_child=1 9 13 -2 5 7 -7 -5 -9 -1 11 19 -13 20 15 16 -11 -18 -19 -8 -3 22 -22
right_child=3 2 -4 4 -6 6 10 8 -10 14 -12 12 -14 -15 -16 -17 17 18 -20 -21 21 -23 -24
leaf_value=-0.0026592995013790099 0.01595090327714754 -0.0024101485950179576 0.056937136333821227 0.29311367307580632 -0.082879529200679022 0.028121302524206495 -0.01166392088971057 -0.0950832678026306 0.20581367292365804 0.0057690556971828413 0.016887639154065184 0.34880229727689394 0.12208300659868432 0.10889984230149552 0.0098886318676885323 -0.00047377936454839502 -0.0058186695434470428 0.11233560754943549 0.031601306979626785 0.13978507118232367 0.01639002077680551 -0.002095270318409104 0.057025103653441905
leaf_weight=3255745 3643 51065 16472 1709 585 5279 683 507 986 105026 1275 1054 750 1785 210400 1201941 7399 5493 10035 3287 125386 40285 17312
leaf_count=3255745 3643 51065 16472 1709 585 5279 683 507 986 105026 1275 1054 750 1785 210400 1201941 7399 5493 10035 3287 125386 40285 17312
internal_value=0 -0.00323884 0.157803 0.912929 1.07664 1.15582 0.909922 2.06 0.971181 -0.0117322 1.36449 1.60975 2.624 0.128587 0.0196142 0.00699625 0.117986 0.389545 0.609118 1.11296 0.120742 0.161709 0.213972
internal_weight=0 5.04834e+06 252305 19758 16115 15530 12328 3202 1493 4.79604e+06 7049 5774 1804 235833 1.54029e+06 1.32989e+06 127953 22927 15528 3970 234048 182983 142698
internal_count=5068102 5048344 252305 19758 16115 15530 12328 3202 1493 4796039 7049 5774 1804 235833 1540294 1329894 127953 22927 15528 3970 234048 182983 142698
shrinkage=0.1


Tree=26
num_leaves=24
num_cat=0
split_feature=6 18 9 6 12 4 7 0 0 2 15 26 0 0 21 23 0 21 23 2 2 2 2
split_gain=12740.2 4363.39 3543.81 2759.6 2283.99 2157.77 2208.33 1687.41 3163.18 1645.28 1642.68 1292.61 1278.92 2618.85 2754.93 1238.15 1228.62 1154.71 1060.38 1006.54 5431.53 1119.67 1026.49
threshold=7.5000000000000009 1.5000000000000002 4.5000000000000009 17.500000000000004 3.5000000000000004 7.5000000000000009 1.0000000180025095e-35 24.500000000000004 16.500000000000004 53.500000000000007 1.0000000180025095e-35 3.5000000000000004 12.500000000000002 14.500000000000002 30.500000000000004 5.5000000000000009 24.500000000000004 48.000000000000007 9.5000000000000018 32.000000000000007 24.500000000000004 41.500000000000007 30.500000000000004
decision_type=2 2 2 2 2 2 2 2 2 2 2 2 2 2 2 2 2 2 2 2 2 2 2
left_child=1 5 17 7 -3 -1 9 8 -4 12 -8 -11 -7 14 -14 -5 -17 -2 -10 20 -15 -21 -22
right_child=2 4 3 15 -6 6 10 -9 18 11 -12 -13 13 19 -16 16 -18 -19 -20 21 22 -23 -24
leaf_value=-0.0024634080595585949 0.011289710012377496 0.010510493059386641 0.028758338360836428 0 0.047397871865573829 -0.016985620481846042 -0.000888292698630306 -0 0.035587676095943342 0.13612247670108865 0.0070578954408039678 0.034924074938278975 0.20798866671899641 -0.0011186767819175334 0.042101344993013372 0.2143702331329522 0.067193240751374034 0.094435502263662943 0.17151028530652049 -0.016659031518792052 0.060343162014251044 0.013860745161861874 0.14387518075178085
leaf_weight=3212798 11021 186796 4816 504 18673 14691 1151353 2526 922 1488 335603 13352 1235 34101 6598 3107 990 2051 3781 22822 11604 25305 1965
leaf_count=3212798 11021 186796 4816 504 18673 14691 1151353 2526 922 1488 335603 13352 1235 34101 6598 3107 990 2051 3781 22822 11604 25305 1965
internal_value=0 -0.00352792 0.652934 0.960921 0.139158 -0.00961536 0.0201059 0.692703 0.885323 0.143519 0.00898492 0.459137 0.103018 0.142692 0.699927 1.63541 1.81734 0.252235 1.47244 0.0959484 0.198962 -0.00405056 0.733697
internal_weight=0 5.03838e+06 29718 16646 205469 4.83292e+06 1.62012e+06 12045 9519 133161 1.48696e+06 14840 118321 103630 7833 4601 4097 13072 4703 95797 47670 48127 13569
internal_count=5068102 5038384 29718 16646 205469 4832915 1620117 12045 9519 133161 1486956 14840 118321 103630 7833 4601 4097 13072 4703 95797 47670 48127 13569
shrinkage=0.1


Tree=27
num_leaves=24
num_cat=0
split_feature=3 3 6 0 0 36 21 23 4 0 0 10 15 23 25 27 8 21 0 21 35 24 6
split_gain=11880.7 4874.79 3029.12 2787.37 9197.45 2510.36 2160.51 1981.16 2154.72 1984.49 7688.34 1959.04 1872.15 1777.08 1395.42 1267.22 1679.82 3133.48 1310.78 1226.38 1144.22 1281.35 1135.91
threshold=3.5000000000000004 19.500000000000004 1.0000000180025095e-35 23.500000000000004 22.500000000000004 0.32850243151187902 75.500000000000014 4.5000000000000009 19.500000000000004 23.500000000000004 22.500000000000004 13.500000000000002 5.5000000000000009 7.5000000000000009 58.500000000000007 0.58008471131324779 11.000000000000002 27.500000000000004 21.500000000000004 29.500000000000004 0.5170666277408601 12.500000000000002 2.5000000000000004
decision_type=2 2 2 2 2 2 2 2 2 2 2 2 2 2 2 2 2 2 2 2 2 2 2
left_child=2 3 -1 4 6 7 12 -4 -9 10 -10 14 15 -13 -6 16 17 -2 20 -5 21 -19 -18
right_child=1 -3 5 19 11 -7 -8 8 9 -11 -12 13 -14 -15 -16 -17 22 18 -20 -21 -22 -23 -24
leaf_value=-0.0015694016284137022 -0.025780595337828557 0.12376928154016019 -0.00029733207850804043 -0.031652971839858671 0.14414250420966576 0.10146837166119527 0.2316817140558993 0.0014929277859655908 0.017248731797826523 0.0011514233695226438 0.10673031212115476 0.039161278156483015 0.064984810163206286 0.27845503808935068 -0.014035627607213842 -0.045163174479155327 -0.0081119387075990357 -0.003331657658749133 -0.021358978509567608 0.017325721179529314 0.26676261235621296 0.13607535532516202 0.027973583796529422
leaf_weight=4332703 2216 5992 314775 8107 1814 2721 514 143533 122898 52163 10469 494 10578 2027 640 2888 14350 684 491 13722 643 2748 20932
leaf_count=4332703 2216 5992 314775 8107 1814 2721 514 143533 122898 52163 10469 494 10578 2027 640 2888 14350 684 491 13722 643 2748 20932
internal_value=0 0.362751 -0.00614784 0.297981 0.407684 0.0576666 0.289534 0.0534353 0.107695 0.178915 0.243627 1.71215 0.268141 2.36177 0.990678 0.175846 0.221497 0.680116 1.15626 -0.0041895 1.34597 1.05536 0.130172
internal_weight=0 88840 4.97926e+06 82848 61019 646559 56044 643838 329063 185530 133367 4975 55530 2521 2454 44952 42064 6782 4566 21829 4075 3432 35282
internal_count=5068102 88840 4979262 82848 61019 646559 56044 643838 329063 185530 133367 4975 55530 2521 2454 44952 42064 6782 4566 21829 4075 3432 35282
shrinkage=0.1


Tree=28
num_leaves=24
num_cat=0
split_feature=9 18 2 2 2 2 10 10 19 36 8 22 2 2 19 36 8 22 25 0 0 0 14
split_gain=8028.85 3373.78 2235.38 9170.2 6312.48 4542.44 2967.1 2828.33 2809.12 3351.8 3334.12 3876.07 2555.7 2931.39 2549.99 2763.13 2762.13 2213.84 1922.24 1887.04 2301.54 2511.88 1836.86
threshold=3.5000000000000004 7.5000000000000009 24.500000000000004 32.000000000000007 30.500000000000004 25.500000000000004 1.0000000180025095e-35 1.0000000180025095e-35 1.0000000180025095e-35 1.0000000180025095e-35 11.000000000000002 11.500000000000002 53.500000000000007 54.500000000000007 1.0000000180025095e-35 1.0000000180025095e-35 11.000000000000002 11.500000000000002 25.500000000000004 24.500000000000004 22.500000000000004 23.500000000000004 11.000000000000002
decision_type=2 2 2 2 2 2 2 2 2 2 2 2 2 2 2 2 2 2 2 2 2 2 2
left_child=2 18 -1 4 5 6 14 8 9 10 11 -6 -5 22 15 16 17 -4 -2 20 -20 -22 -14
right_child=1 -3 3 12 7 -7 -8 -9 -10 -11 -12 -13 13 -15 -16 -17 -18 -19 19 -21 21 -23 -24
leaf_value=-0.0033199609272181827 -0.0082250846626605208 0.090104357000931945 0.168362869342564 -0.003555874927067998 0.19480427473776746 0.0035354534545730017 0.016484697779179401 0.024444591893510406 0.010452566602771518 -0.0060954943111857533 0.0360068415905049 0.065712085914992974 0.041530438009232493 0.00081968884514404302 0.0056381256279068627 -0.0058542164297973589 0.031755438525650583 0.068770150374026104 0.031674986431377457 -0 0.16830936166478849 0.034353918939979362 0.010912153680582418
leaf_weight=1801773 15302 8450 5552 1881053 5552 494452 71804 69138 7497 3160 5180 4558 27893 509182 7497 3160 5180 4558 45005 15302 2809 3260 70785
leaf_count=1801773 15302 8450 5552 1881053 5552 494452 71804 69138 7497 3160 5180 4558 27893 509182 7497 3160 5180 4558 45005 15302 2809 3260 70785
internal_value=0 0.296073 -0.00505067 0.0108861 0.113155 0.0745331 0.271639 0.352583 0.636463 0.84685 1.04083 1.37836 -0.017315 0.0389758 0.562961 0.763107 0.939305 1.24674 0.232056 0.306024 0.398284 0.983459 0.196749
internal_weight=0 90128 4.97797e+06 3.1762e+06 687288 592203 97751 95085 25947 18450 15290 10110 2.48891e+06 607860 25947 18450 15290 10110 81678 66376 51074 6069 98678
internal_count=5068102 90128 4977974 3176201 687288 592203 97751 95085 25947 18450 15290 10110 2488913 607860 25947 18450 15290 10110 81678 66376 51074 6069 98678
shrinkage=0.1


Tree=29
num_leaves=24
num_cat=0
split_feature=3 6 23 1 7 6 18 23 35 1 1 1 11 3 23 26 8 20 2 2 2 2 23
split_gain=9006.33 4189.81 2343.85 1781.1 1709.38 3260.13 1671.18 1344.49 1317.24 1282.14 2813.18 1389.03 1226.37 1891.77 2356.59 1538.24 1689.32 1798.79 1695.25 2797.65 1838.15 6536.34 2289.49
threshold=9.5000000000000018 2.5000000000000004 10.500000000000002 3320.5000000000005 1.5000000000000002 10.500000000000002 1.0000000180025095e-35 11.500000000000002 0.57654651999473583 3958.5000000000005 6761.5000000000009 16954.500000000004 1.0000000180025095e-35 1.0000000180025095e-35 36.500000000000007 4.5000000000000009 1.0000000180025095e-35 1.0000000180025095e-35 53.500000000000007 54.500000000000007 32.000000000000007 24.500000000000004 18.500000000000004
decision_type=2 2 2 2 2 2 2 2 2 2 2 2 2 2 2 2 2 2 2 2 2 2 2
left_child=1 6 -3 -2 9 -6 12 -7 -4 -5 -11 -12 13 15 -15 16 17 18 20 -20 21 -1 -23
right_child=3 2 8 4 5 7 -8 -9 -10 10 11 -13 -14 14 -16 -17 -18 -19 19 -21 -22 22 -24
leaf_value=0.010345083738411087 0.0013743373568204352 0.00084444293599538573 0.037469513541496094 0.29981930374644222 0.007988195808202609 0.04398434101380088 0.0048004496163913208 0.1468399143020381 0.0082677712513073657 -0.064094838967721446 0.21530384174526904 0.033834313668672497 -0.0023956204519643247 0.0068387687880060305 0.045996440779090375 -0.0012539308169077069 -0.0051159567101204239 -0.0059773817242580003 0.21436619330132675 0.042015773235941037 0.0033171359991513816 0.14126879264102205 0.015475253333070267
leaf_weight=26418 3643 50872 53231 524 6048 2323 496112 4179 23138 620 1656 765 3119422 81421 19214 1043672 53640 26237 1128 7150 38148 6429 2112
leaf_count=26418 3643 50872 53231 524 6048 2323 496112 4179 23138 620 1656 765 3119422 81421 19214 1043672 53640 26237 1128 7150 38148 6429 2112
internal_value=0 -0.00233473 0.176781 0.673796 0.816609 0.626976 -0.00698699 1.11873 0.287575 1.44907 1.13162 1.62806 -0.0131752 0.0125074 0.144221 0.00142167 0.0923862 0.164856 0.238498 0.671662 0.187912 0.353795 1.1144
internal_weight=0 5.04834e+06 127241 19758 16115 12550 4.9211e+06 6502 76369 3565 3041 2421 4.42499e+06 1.30557e+06 100635 1.20493e+06 161262 107622 81385 8278 73107 34959 8541
internal_count=5068102 5048344 127241 19758 16115 12550 4921103 6502 76369 3565 3041 2421 4424991 1305569 100635 1204934 161262 107622 81385 8278 73107 34959 8541
shrinkage=0.1


Tree=30
num_leaves=24
num_cat=0
split_feature=6 15 11 0 0 25 4 6 24 24 7 0 0 6 24 7 14 32 21 1 1 25 35
split_gain=7337.6 3529.56 1867.06 1761.02 2959.91 1534.38 1520.58 1436.91 1432.87 1795.04 2389.98 1219.37 1887.1 1061.75 1025.14 1231.5 884.745 2090.56 6337.77 3516.59 4091.13 1459.96 1216.87
threshold=10.500000000000002 2.5000000000000004 1.0000000180025095e-35 24.500000000000004 21.500000000000004 30.500000000000004 6.5000000000000009 4.5000000000000009 11.500000000000002 13.500000000000002 1.0000000180025095e-35 24.500000000000004 22.500000000000004 19.500000000000004 18.500000000000004 1.0000000180025095e-35 1.0000000180025095e-35 0.97148165106773388 19.500000000000004 4246.5000000000009 4807.5000000000009 11.500000000000002 0.46415852010250097
decision_type=2 2 2 2 2 2 2 2 2 2 2 2 2 2 2 2 2 2 2 2 2 2 2
left_child=1 6 -2 4 5 -4 16 -3 -8 10 -10 12 -9 -7 -11 -16 17 21 -19 -20 -21 -1 -23
right_child=2 7 3 -5 -6 13 8 11 9 14 -12 -13 -14 -15 15 -17 -18 18 19 20 -22 22 -24
leaf_value=0.020051693398083902 0.0062098300320034116 0.011986651977136394 -0 0.013196750720410533 0.23159232386361542 0.066993463768645498 -0.0027773401437747305 0.041281035193685041 0.036782019532368669 -0.0044287212104448968 0.0068664424289748673 -0.0089159439259674407 0.15564953104995327 0.159861142336717 0.017834070410821613 0.0017936325363220491 -0.0032059247474384963 0.0068537654866191013 0.40459811788006039 -0.053222991787104726 0.28619122539191416 -0.0015360263133858795 0.014800414081719402
leaf_weight=34710 4412 106756 1769 3015 1604 4308 514645 12337 29048 250498 362568 3281 1730 2242 52204 609498 2011107 8870 624 698 622 1003875 47681
leaf_count=34710 4412 106756 1769 3015 1604 4308 514645 12337 29048 250498 362568 3281 1730 2242 52204 609498 2011107 8870 624 698 622 1003875 47681
internal_value=0 -0.00192558 0.649134 0.841198 1.04593 0.784106 -0.0061411 0.16459 0.0167976 0.0344676 0.0911272 0.433593 0.562573 1.00693 0.010032 0.0307473 -0.0195937 0.00316646 0.440292 2.06763 1.01135 -0.00110118 -0.00785502
internal_weight=0 5.05075e+06 17350 12938 9923 8319 4.92665e+06 124104 1.81846e+06 1.30382e+06 391616 17348 14067 6550 912200 661702 3.10819e+06 1.09708e+06 10814 1944 1320 1.08627e+06 1.05156e+06
internal_count=5068102 5050752 17350 12938 9923 8319 4926648 124104 1818461 1303816 391616 17348 14067 6550 912200 661702 3108187 1097080 10814 1944 1320 1086266 1051556
shrinkage=0.1


Tree=31
num_leaves=24
num_cat=0
split_feature=3 12 0 0 25 32 21 6 2 2 2 2 11 2 2 19 36 8 21 11 19 23 8
split_gain=6411.88 3271.12 1589.41 4401.38 2296.89 1681.02 1638.59 1541.65 1395.83 5857.64 4479.33 3357.53 1969.14 1830.77 1985.11 1748.27 2003.24 2035.76 1791.52 1733.88 1830.45 2490.49 3145.84
threshold=10.500000000000002 2.5000000000000004 23.500000000000004 22.500000000000004 52.500000000000007 0.58045026659965526 30.500000000000004 4.5000000000000009 24.500000000000004 32.000000000000007 30.500000000000004 25.500000000000004 11.000000000000002 41.500000000000007 42.500000000000007 1.0000000180025095e-35 1.0000000180025095e-35 11.000000000000002 55.500000000000007 11.000000000000002 1.0000000180025095e-35 15.000000000000002 11.000000000000002
decision_type=2 2 2 2 2 2 2 2 2 2 2 2 2 2 2 2 2 2 2 2 2 2 2
left_child=1 8 3 5 -5 -2 -4 -3 -1 10 11 12 15 -11 -15 16 17 18 -10 20 21 22 -12
right_child=2 7 6 4 -6 -7 -8 -9 9 13 19 -13 -14 14 -16 -17 -18 -19 -20 -21 -22 -23 -24
leaf_value=-0.0028242125513231161 0.078505041824321012 0.010304089525890386 -0.058125425397630895 0.39471958307676164 0.081011986195442892 -0.013656775266800997 0.06720530543373697 0.039186339784214264 0.13955936296056318 -0.0059679322582629635 0.15943887809966592 0.0023502552191528429 0.014056829148261863 0.01391506828306281 -0.00069198100722307851 0.0049412687269678457 -0.0050551842079011857 0.024116847452555951 0.044852969600269209 0.020846492801613686 0.0091505968816676161 0.03572420948283956 0.01795377698547922
leaf_weight=1786216 9153 108320 1957 641 528 2293 2153 22808 6219 684997 5058 486136 68926 98460 1680076 7448 3159 4855 3520 65148 7449 10053 2529
leaf_count=1786216 9153 108320 1957 641 528 2293 2153 22808 6219 684997 5058 486136 68926 98460 1680076 7448 3159 4855 3520 65148 7449 10053 2529
internal_value=0 -0.00174691 0.618075 0.794494 2.65184 0.591783 0.0511457 0.154092 -0.00592107 0.00676882 0.0896582 0.0572073 0.230178 -0.0157511 0.00111192 0.470993 0.641979 0.79859 1.06516 0.297164 0.523155 0.699459 1.13763
internal_weight=0 5.05138e+06 16725 12615 1169 11446 4110 131128 4.92025e+06 3.13403e+06 670500 580263 94127 2.46353e+06 1.77854e+06 25201 17753 14594 9739 90237 25089 17640 7587
internal_count=5068102 5051377 16725 12615 1169 11446 4110 131128 4920249 3134033 670500 580263 94127 2463533 1778536 25201 17753 14594 9739 90237 25089 17640 7587
shrinkage=0.1


Tree=32
num_leaves=24
num_cat=0
split_feature=6 18 9 15 15 36 0 0 25 3 7 25 0 17 24 24 24 24 8 20 36 31 25
split_gain=5307.18 2612.6 1727.26 1546.06 1296.41 1331.77 1283.87 2237 1100.18 1065.79 2529.47 1315.77 880.202 867.634 1478.76 1986.47 1944.48 3307.93 2661.8 2996.26 3961.49 5905.41 2340.72
threshold=10.500000000000002 2.5000000000000004 1.5000000000000002 5.5000000000000009 1.0000000180025095e-35 1.0000000180025095e-35 24.500000000000004 21.500000000000004 30.500000000000004 19.500000000000004 1.5000000000000002 31.500000000000004 20.500000000000004 1.0000000180025095e-35 25.500000000000004 26.500000000000004 13.500000000000002 12.500000000000002 11.000000000000002 1.0000000180025095e-35 1.0000000180025095e-35 0.44243226945400244 11.500000000000002
decision_type=2 2 2 2 2 2 2 2 2 2 2 2 2 2 2 2 2 2 2 2 2 2 2
left_child=1 4 -2 -3 9 -6 7 8 -4 13 11 -11 -13 14 16 -16 17 -1 19 20 21 22 -19
right_child=2 3 6 -5 5 -7 -8 -9 -10 10 -12 12 -14 -15 15 -17 -18 18 -20 -21 -22 -23 -24
leaf_value=-0.0023134149365311883 0.0069587223131977868 0.011302590533800044 -0 0.054688607805213556 0.0035742010168495196 0.078639646335900246 0.012549240781231331 0.20912068907074094 0.089818933685527971 0.27064927802016997 -0.085296397888708242 0.15763494220509111 -1.1857479430480506e-05 -0.0022679793372569449 0.032241094899070316 0.0043631530671784475 -0.0041784612191320359 0.10212012016483066 0.0016661900682924608 -0.0077214892788334578 -0.010218542003122298 0.16665947035451192 0.027306595619437147
leaf_weight=465181 5520 103336 1539 9092 586225 2367 2750 1510 6031 510 697 523 675 2660146 30817 157645 717936 4475 157493 30625 23141 3323 96545
leaf_count=465181 5520 103336 1539 9092 586225 2367 2750 1510 6031 510 697 523 675 2660146 30817 157645 717936 4475 157493 30625 23141 3323 96545
internal_value=0 -0.00159892 0.552102 0.149092 -0.00505046 0.0389572 0.768312 0.951305 0.705841 -0.0110286 0.651027 1.32541 0.620587 -0.0114208 0.00627172 0.089777 -0.0041633 0.0303019 0.109377 0.201085 0.268726 0.351948 0.307392
internal_weight=0 5.05075e+06 17350 112428 4.93832e+06 588592 11830 9080 7570 4.34973e+06 2405 1708 1198 4.34733e+06 1.68718e+06 188462 1.49872e+06 780783 315602 158109 127484 104343 101020
internal_count=5068102 5050752 17350 112428 4938324 588592 11830 9080 7570 4349732 2405 1708 1198 4347327 1687181 188462 1498719 780783 315602 158109 127484 104343 101020
shrinkage=0.1


Tree=33
num_leaves=24
num_cat=0
split_feature=3 27 0 0 1 23 0 0 21 31 8 12 6 3 0 21 36 26 21 21 2 8 21
split_gain=4435.24 2458.6 2565.61 8385.06 3274.09 2344.21 2258.7 2029.8 2360.8 1882.8 1847.54 1750.76 1624.94 1613.82 1541.66 1407.49 1221.99 1174.28 1571.86 1213.68 1138.95 1800.18 2948.32
threshold=3.5000000000000004 0.58008471131324779 23.500000000000004 22.500000000000004 3320.5000000000005 5.5000000000000009 16.500000000000004 19.500000000000004 69.500000000000014 0.44243226945400244 11.000000000000002 1.0000000180025095e-35 19.500000000000004 10.500000000000002 18.500000000000004 29.500000000000004 1.0000000180025095e-35 24.500000000000004 29.500000000000004 19.500000000000004 24.500000000000004 11.000000000000002 27.500000000000004
decision_type=2 2 2 2 2 2 2 2 2 2 2 2 2 2 2 2 2 2 2 2 2 2 2
left_child=11 2 3 6 -5 -6 12 10 17 -7 13 -1 20 -8 -12 -4 -13 18 19 -9 -2 22 -22
right_child=1 -3 15 4 5 9 7 8 -10 -11 14 16 -14 -15 -16 -17 -18 -19 -20 -21 21 -23 -24
leaf_value=-0.0010880645460564686 -0.034126907134843905 -0.049133555080442946 -0.03469596283932129 0.0014949305173651143 0.051802662302749138 0.29590778549969959 0.091259671832994937 0.016427850302162563 0.15994052388701052 0.097651321481858483 0.030707342924493938 0.0042262151166742694 0.089145432505458838 0.32050043650407239 0.11261571178863178 0.016906154565742747 0.075146400037406025 0.13988830155512635 0.028321845328811063 -0.08392861099711503 -0.066980475896141603 9.2642970856832629e-05 0.15715486019270525
leaf_weight=4339517 7287 4476 8613 1169 990 2202 1129 1733 1073 863 7409 637308 2179 556 3709 13464 2437 599 7094 3058 763 18597 1877
leaf_count=4339517 7287 4476 8613 1169 990 2202 1129 1733 1073 863 7409 637308 2179 556 3709 13464 2437 599 7094 3058 763 18597 1877
internal_value=0 0.221732 0.260857 0.364772 1.57863 2.00259 0.25138 0.466599 0.186605 2.44322 0.75453 -0.00366233 0.0631668 1.7564 0.590832 -0.0278625 0.0451435 0.054813 -0.00676408 -0.456317 -0 0.116386 0.886004
internal_weight=0 88840 84364 62287 5224 4055 57063 26360 13557 3065 12803 4.97926e+06 30703 1685 11118 22077 639745 12484 11885 4791 28524 21237 2640
internal_count=5068102 88840 84364 62287 5224 4055 57063 26360 13557 3065 12803 4979262 30703 1685 11118 22077 639745 12484 11885 4791 28524 21237 2640
shrinkage=0.1


Tree=34
num_leaves=24
num_cat=0
split_feature=6 25 0 0 11 6 4 2 2 2 2 8 3 0 0 1 2 35 25 0 0 13 0
split_gain=3978.92 2562.33 2185.51 2013.6 2684.42 1308.07 1272.92 1294.12 2920.58 2027.77 1698.48 2196.4 1411.9 1264.6 1616.96 1138.82 960.807 855.174 1274.67 820.006 1300.2 1116.06 1179.6
threshold=3.5000000000000004 26.500000000000004 24.500000000000004 21.500000000000004 11.000000000000002 14.500000000000002 7.5000000000000009 24.500000000000004 32.000000000000007 30.500000000000004 28.500000000000004 11.000000000000002 4.5000000000000009 23.500000000000004 22.500000000000004 3320.5000000000005 27.500000000000004 0.46415852010250097 49.500000000000007 16.500000000000004 19.500000000000004 19.500000000000004 18.500000000000004
decision_type=2 2 2 2 2 2 2 2 2 2 2 2 2 2 2 2 2 2 2 2 2 2 2
left_child=6 -2 3 5 -5 19 -1 -8 9 10 11 12 -9 14 -6 -16 -14 -7 -19 -3 21 -21 -23
right_child=1 2 -4 4 13 17 7 8 -10 -11 -12 -13 16 -15 15 -17 -18 18 -20 20 -22 22 -24
leaf_value=-0.0014967014675897809 -0.014393571735726403 0.0087042524635173105 -0.0036269987546808172 -0 0.069136196747876438 0.11188626593625735 -0.0017528321109814213 0.040908246862955168 0.0012768786311414641 0.039224300633614165 -0.0024180169682084629 0.01324296870226343 0.083360566087670659 0.046650020749577331 0.025413495758102631 0.21375920647127999 0.25471440283566016 0.1053818292313336 -0.035308733061760293 0.010827019478987511 0.0046944572534200722 0.050293030082238212 0.14593819169101876
leaf_weight=3286396 16447 23459 15687 3266 2684 2963 618688 7816 847508 28352 66705 120571 1527 3118 518 2484 577 1118 1329 3241 7222 4106 2320
leaf_count=3286396 16447 23459 15687 3266 2684 2963 618688 7816 847508 28352 66705 120571 1527 3118 518 2484 577 1118 1329 3241 7222 4106 2320
internal_value=0 0.208697 0.288966 0.378904 0.747028 0.279332 -0.00347717 0.0187839 0.0398134 0.140982 0.104313 0.170757 0.625332 1.03384 1.32469 1.84952 1.37017 0.74779 0.252505 0.213703 0.38341 0.623837 0.867211
internal_weight=0 89962 73515 57828 12070 45758 4.97814e+06 1.69174e+06 1.07306e+06 225548 197196 130491 9920 8804 5686 3002 2104 5410 2447 40348 16889 9667 6426
internal_count=5068102 89962 73515 57828 12070 45758 4978140 1691744 1073056 225548 197196 130491 9920 8804 5686 3002 2104 5410 2447 40348 16889 9667 6426
shrinkage=0.1


Tree=35
num_leaves=24
num_cat=0
split_feature=6 18 19 15 1 2 2 2 2 11 11 16 36 8 21 20 4 2 2 16 36 8 20
split_gain=3434.77 1819.74 1436.28 1190.76 1058.8 1046.39 4167.45 3490.48 2695.29 1765.75 1668.16 1652.95 1965.05 1822.32 2718.82 2675.83 1674.01 1376.96 1598.72 1368.57 1401.57 1452.27 1533.78
threshold=9.5000000000000018 1.5000000000000002 6.5000000000000009 4.5000000000000009 4150.5000000000009 24.500000000000004 32.000000000000007 30.500000000000004 25.500000000000004 11.000000000000002 11.000000000000002 1.0000000180025095e-35 0.32850243151187902 11.000000000000002 55.500000000000007 1.0000000180025095e-35 1.0000000180025095e-35 41.500000000000007 42.500000000000007 1.0000000180025095e-35 0.32850243151187902 11.000000000000002 1.0000000180025095e-35
decision_type=2 2 2 2 2 2 2 2 2 2 2 2 2 2 2 2 2 2 2 2 2 2 2
left_child=1 5 -2 -3 -4 -1 7 8 10 11 19 12 13 14 15 16 -9 -8 -19 20 21 22 -7
right_child=2 3 4 -5 -6 6 17 9 -10 -11 -12 -13 -14 -15 -16 -17 -18 18 -20 -21 -22 -23 -24
leaf_value=-0.0024763665305844837 0.024193017835784796 0.0068923272163414519 0 0.036919104776752504 0.11084847305826334 0.10434410124744301 -0.0051433079631332795 0.21298215431855977 0.0017891237165848528 0.017141901950441702 0.012077643813098967 0.0021478814476428815 -0.0082498180677432337 0.022305079565331867 0.02746468820825896 0 0.09586184440408782 0.012686665835090025 -0.00056792063655034214 0.00041461277179055054 -0.00415876087442529 0.01840729112981598 0
leaf_weight=1762824 15127 193431 1249 14387 4077 9317 679484 3405 474510 60648 65201 6035 2908 4598 3743 1294 2638 96266 1651472 6166 2908 4642 1772
leaf_count=1762824 15127 193431 1249 14387 4077 9317 679484 3405 474510 60648 65201 6035 2908 4598 3743 1294 2638 96266 1651472 6166 2908 4642 1772
internal_value=0 -0.00137255 0.409052 0.0902251 0.862329 -0.00532669 0.00577639 0.0769258 0.0482195 0.265745 0.206959 0.493708 0.641482 0.782072 1.00423 1.36107 1.63989 -0.0132301 0.00156562 0.429186 0.56428 0.682539 0.881495
internal_weight=0 5.04765e+06 20453 207818 5326 4.83983e+06 3.07701e+06 649785 564516 85269 90006 24621 18586 15678 11080 7337 6043 2.42722e+06 1.74774e+06 24805 18639 15731 11089
internal_count=5068102 5047649 20453 207818 5326 4839831 3077007 649785 564516 85269 90006 24621 18586 15678 11080 7337 6043 2427222 1747738 24805 18639 15731 11089
shrinkage=0.1


Tree=36
num_leaves=24
num_cat=0
split_feature=3 9 36 4 0 0 0 23 3 31 23 2 9 0 0 0 15 22 0 0 36 3 11
split_gain=2864.27 1761.92 1719.46 1135.16 1783.35 2672.51 4382.28 2821.52 1663.18 1545.55 1321.39 1075.07 1149.27 1035.13 1174.19 1037.05 790.574 771.447 748.603 1029.89 726.276 1901.8 987.895
threshold=10.500000000000002 1.0000000180025095e-35 1.0000000180025095e-35 19.500000000000004 24.500000000000004 22.500000000000004 23.500000000000004 7.5000000000000009 1.5000000000000002 0.36953921616077429 4.5000000000000009 24.500000000000004 15.500000000000002 24.500000000000004 15.500000000000002 13.500000000000002 5.5000000000000009 8.5000000000000018 16.500000000000004 19.500000000000004 1.0000000180025095e-35 1.0000000180025095e-35 1.0000000180025095e-35
decision_type=2 2 2 2 2 2 2 2 2 2 2 2 2 2 2 2 2 2 2 2 2 2 2
left_child=1 20 3 -3 5 10 7 -7 -9 -10 -5 12 -2 14 15 -13 -12 -17 -18 -20 22 -22 -1
right_child=11 2 -4 4 -6 6 -8 8 9 -11 16 13 -14 -15 -16 17 18 -19 19 -21 21 -23 -24
leaf_value=0.0019755231547008765 -0.037537517923942526 0.00063404286969237587 0.076078063326460041 -0.0031974466180353885 -0.0066241642419510131 0.012590968780838022 0.0066345033713345342 0.069770899814277199 0.19317011276982202 0.051056340134289481 0.010930005390843243 0.062960598829765402 0.09180080906808144 -0.012945819755251834 0.091787703450385394 -0.09481514110696504 0.011841339633784496 0.031696575181916931 0.08577726356499106 0.0079507869393445878 -0.0056829063309293036 0.10552605384503598 -0.0014782100734979662
leaf_weight=1168935 2816 390951 3343 67152 58932 4996 20514 6392 3184 1310 120455 2610 876 1703 6982 978 8051 760 4883 3074 355834 1516 2831855
leaf_count=1168935 2816 390951 3343 67152 58932 4996 20514 6392 3184 1310 120455 2610 876 1703 6982 978 8051 760 4883 3074 355834 1516 2831855
internal_value=0 -0.00108373 0.04572 0.0420881 0.0885001 0.126914 0.377192 0.771821 1.05831 1.54369 0.0816535 0.413182 -0.0382621 0.548591 0.659367 0.219057 0.138298 -0.340741 0.349848 0.570598 -0.00855179 -0.0517726 -0.00466608
internal_weight=0 5.05138e+06 693237 689894 298943 240011 36396 15882 10886 4494 203615 16725 3692 13033 11330 4348 136463 1738 16008 7957 4.35814e+06 357350 4.00079e+06
internal_count=5068102 5051377 693237 689894 298943 240011 36396 15882 10886 4494 203615 16725 3692 13033 11330 4348 136463 1738 16008 7957 4358140 357350 4000790
shrinkage=0.1


Tree=37
num_leaves=24
num_cat=0
split_feature=6 15 6 10 0 0 26 0 0 0 1 1 35 0 35 0 0 21 0 0 33 10 16
split_gain=2490.03 1342.43 1260.82 1049.52 879.522 1887.01 824.84 907.101 1286.72 944.273 1109.35 1237.45 812.551 790.065 774.027 747.882 725.249 805.294 695.686 654.216 681.439 637.884 1411.02
threshold=10.500000000000002 1.0000000180025095e-35 3.5000000000000004 11.500000000000002 24.500000000000004 22.500000000000004 3.5000000000000004 24.500000000000004 21.500000000000004 13.500000000000002 9314.5000000000018 3014.5000000000005 0.57654651999473583 16.500000000000004 0.57654651999473583 23.500000000000004 19.500000000000004 30.500000000000004 18.500000000000004 13.500000000000002 0.50317418575286876 1.0000000180025095e-35 1.0000000180025095e-35
decision_type=2 2 2 2 2 2 2 2 2 2 2 2 2 2 2 2 2 2 2 2 2 2 2
left_child=1 21 -3 -2 5 13 -5 8 9 10 11 -8 -11 19 -9 -7 18 -18 -15 20 -4 22 -1
right_child=3 2 4 6 -6 15 7 14 -10 12 -12 -13 -14 16 -16 -17 17 -19 -20 -21 -22 -23 -24
leaf_value=0.002795908521964291 -0.00010509749295656806 0.0030077943546491198 0.011932050179329891 -0.029297343463227866 -0.0067508825984648859 0.14706497253153963 0.020567164150703057 0.042952886663542522 0.16522306941456555 0.057336277919141643 -0 0.21286161323993241 -0.025859214724207519 0.034308662569324008 -0.072162433464916437 0.04508881531615519 -0.01221417070594598 0.058864419103446468 0.11180103843171128 -0.013496521574503552 0.10983965516144355 -0.0015360334482993094 -0.0050096583495517757
leaf_weight=1052193 4764 616769 4552 951 7969 1762 651 1964 1462 3405 650 1140 1579 3857 784 1888 4064 2452 2125 8630 912 3047229 296350
leaf_count=1052193 4764 616769 4552 951 7969 1762 651 1964 1462 3405 650 1140 1579 3857 784 1888 4064 2452 2125 8630 912 3047229 296350
internal_value=0 -0.00102067 0.0411905 0.378245 0.217835 0.296324 0.529521 0.605716 0.762055 0.569377 1.09254 1.49486 0.289824 0.198646 0.0621385 0.975747 0.382216 0.131013 0.637834 0.0284675 0.304383 -0.00733314 0.0107313
internal_weight=0 5.05075e+06 654980 17350 38211 30242 12586 11635 8887 7425 2441 1791 4984 26592 2748 3650 12498 6516 5982 14094 5464 4.39577e+06 1.34854e+06
internal_count=5068102 5050752 654980 17350 38211 30242 12586 11635 8887 7425 2441 1791 4984 26592 2748 3650 12498 6516 5982 14094 5464 4395772 1348543
shrinkage=0.1


Tree=38
num_leaves=24
num_cat=0
split_feature=18 3 9 36 22 12 0 0 12 25 7 6 25 4 0 0 0 15 35 36 3 14 7
split_gain=2151.65 1467.58 1141.77 1348.85 1090.66 1083.88 960.938 965.442 1250.84 705.68 627.248 1637.48 1100.54 607.978 649.906 872.806 860.722 939.618 694.208 573.574 1802.8 742.983 1588.83
threshold=8.5000000000000018 19.500000000000004 1.0000000180025095e-35 1.0000000180025095e-35 15.500000000000002 8.5000000000000018 26.500000000000004 16.500000000000004 2.5000000000000004 61.500000000000007 1.0000000180025095e-35 10.500000000000002 42.500000000000007 19.500000000000004 23.500000000000004 22.500000000000004 19.500000000000004 16.500000000000004 0.64058494567871105 1.0000000180025095e-35 1.0000000180025095e-35 1.0000000180025095e-35 1.0000000180025095e-35
decision_type=2 2 2 2 2 2 2 2 2 2 2 2 2 2 2 2 2 2 2 2 2 2 2
left_child=1 2 19 4 6 -2 7 -4 -9 -7 12 -12 -3 -10 15 16 17 -15 -18 21 -21 22 -1
right_child=5 10 3 -5 -6 9 -8 8 13 -11 11 -13 -14 14 -16 -17 18 -19 -20 20 -22 -23 -24
leaf_value=0.0046367312904126434 0.02140970761147416 0.19584611703219898 -0.00096803329347432815 0.066453072310830669 0.10577264548478467 0.04792579868769014 -0.012057656001545066 0.0048159941301025109 0.0014054700544064887 0.16196995762817809 -0.078393206763866047 0.072038543248779452 0.020225640657674713 0.037616090669933343 0.0063982338412573092 0.080882809529818592 0.019518826307292365 0.15580984277229543 -0.04159776795692649 -0.0051045588729950343 0.10147580644317983 -0.0013448739718725277 -0.0025349948005200474
leaf_weight=726682 18377 750 237093 3397 1023 2227 38947 350990 12822 962 981 2325 950 12793 11870 3862 9635 765 2220 355829 1566 2736609 535427
leaf_count=726682 18377 750 237093 3397 1023 2227 38947 350990 12822 962 981 2325 950 12793 11870 3862 9635 765 2220 355829 1566 2736609 535427
internal_value=0 -0.0010834 -0.00164161 0.0362709 0.0329756 0.315305 0.0312584 0.040628 0.0703283 0.862399 0.538956 0.241909 1.04896 0.212583 0.271984 0.352807 0.278992 0.452413 0.0718108 -0.00763008 -0.0460392 -0.00417195 0.0158634
internal_weight=0 5.04654e+06 5.04153e+06 685417 682020 21566 680997 642050 404957 3189 5006 3306 1700 53967 41145 29275 25413 13558 11855 4.35611e+06 357395 3.99872e+06 1.26211e+06
internal_count=5068102 5046536 5041530 685417 682020 21566 680997 642050 404957 3189 5006 3306 1700 53967 41145 29275 25413 13558 11855 4356113 357395 3998718 1262109
shrinkage=0.1


Tree=39
num_leaves=24
num_cat=0
split_feature=9 6 18 0 6 0 15 0 0 3 21 21 1 4 21 21 25 13 35 25 8 0 21
split_gain=1825.3 1209.36 1190.09 956.973 883.151 806.045 912.546 738.65 2903.81 4095.7 1866.48 2360.1 2162.68 1645.86 1242.08 1570.66 998.748 954.544 915.866 3479.81 5982.89 3002.28 1478.53
threshold=8.5000000000000018 19.500000000000004 1.0000000180025095e-35 15.500000000000002 3.5000000000000004 24.500000000000004 4.5000000000000009 23.500000000000004 22.500000000000004 1.5000000000000002 60.500000000000007 24.500000000000004 3320.5000000000005 13.500000000000002 24.500000000000004 60.500000000000007 58.500000000000007 1.5000000000000002 0.43607778847217565 31.500000000000004 1.0000000180025095e-35 19.500000000000004 27.500000000000004
decision_type=2 2 2 2 2 2 2 2 2 2 2 2 2 2 2 2 2 2 2 2 2 2 2
left_child=2 3 7 -2 -4 6 -5 8 18 13 11 12 16 -10 -15 -16 -11 -12 -1 20 21 22 -20
right_child=1 -3 4 5 -6 -7 -8 -9 9 10 17 -13 -14 14 15 -17 -18 -19 19 -21 -22 -23 -24
leaf_value=-0.0012498201010424871 -0.01193536938994001 0.082542708458117203 0.0035220118761421526 0.021254455406230274 0.024654088333852492 -0 0.086921032056753292 -0.0030247482443762556 0.0037941658158334134 0.099138685960687048 0.2580543386201451 0.012440921963820468 0.19110628738894117 0.05816853405831679 0.0046671730834136442 0.054647337230600425 -0.088817358847999225 0.084422749507327921 0 0.0032207896692656706 0.013516635515704718 0.39678204714737975 0.21803277227540663
leaf_weight=3017023 6924 3462 510367 5829 20766 4650 3910 1005932 231144 578 756 6023 1805 9055 28817 8234 502 1008 593 194658 4723 684 659
leaf_count=3017023 6924 3462 510367 5829 20766 4650 3910 1005932 231144 578 756 6023 1805 9055 28817 8234 502 1008 593 194658 4723 684 659
internal_value=0 0.270915 -0.00106938 0.175466 0.0436795 0.324242 0.48767 -0.00635913 0.000465957 0.0967038 0.705115 0.500528 1.24506 0.0728748 0.245746 0.160677 0.0265661 1.665 -0.00811324 0.0570998 0.767499 2.24184 1.17271
internal_weight=0 24775 5.04333e+06 21313 531133 14389 9739 4.51219e+06 3.50626e+06 287922 10672 8908 2885 277250 46106 37051 1080 1764 3.21834e+06 201317 6659 1936 1252
internal_count=5068102 24775 5043327 21313 531133 14389 9739 4512194 3506262 287922 10672 8908 2885 277250 46106 37051 1080 1764 3218340 201317 6659 1936 1252
shrinkage=0.1


Tree=40
num_leaves=24
num_cat=0
split_feature=18 6 3 2 2 2 2 11 19 8 23 26 2 2 0 8 19 23 17 26 17 4 32
split_gain=1623.18 1281.77 987.421 893.082 3581.1 3053.63 2254.59 1988.17 2172.32 2031.52 3094.06 2364.53 1383.21 1694.24 1496.32 1283.96 1940.86 2975.54 1830.23 1788.1 1243.32 1296.81 1615.48
threshold=4.5000000000000009 5.5000000000000009 19.500000000000004 24.500000000000004 32.000000000000007 30.500000000000004 28.500000000000004 11.000000000000002 1.0000000180025095e-35 11.000000000000002 18.500000000000004 3.5000000000000004 53.500000000000007 54.500000000000007 26.500000000000004 11.000000000000002 1.0000000180025095e-35 12.500000000000002 11.000000000000002 3.5000000000000004 11.000000000000002 1.0000000180025095e-35 1.0000000180025095e-35
decision_type=2 2 2 2 2 2 2 2 2 2 2 2 2 2 2 2 2 2 2 2 2 2 2
left_child=2 -2 3 -1 5 6 7 8 9 10 11 -5 -6 14 15 16 17 18 19 -14 21 22 -13
right_child=1 -3 -4 4 12 -7 -8 -9 -10 -11 -12 20 13 -15 -16 -17 -18 -19 -20 -21 -22 -23 -24
leaf_value=-0.0019832637455141351 0.01059880008083121 0.054729828502528846 0.044818495400097101 0.15854426989772119 -0.002308321548401264 0.023537088323292387 -0.0043745454563998342 0.0045732035043377578 -0.00179297262745079 0.0057696529241257405 0.016761210382963569 0.070489045515281887 0.31236833224520028 0.00080965382919047585 -0.035899621362065308 0.011484451500524195 -0 0.021213212285943157 -0 0.1147555747004335 -0.01906553812189056 0.031340959820613516 0.19564445723038157
leaf_weight=1809241 46810 7880 4854 2654 1889378 97861 194421 301965 29568 24102 25147 9736 601 512893 5309 73226 7770 8118 1032 4162 1816 8274 1284
leaf_count=1809241 46810 7880 4854 2654 1889378 97861 194421 301965 29568 24102 25147 9736 601 512893 5309 73226 7770 8118 1032 4162 1816 8274 1284
internal_value=0 0.171579 -0.00160224 -0.00205991 0.00795953 0.0713776 0.04441 0.0870239 0.207566 0.300234 0.417634 0.677639 -0.00965995 0.0315418 0.150506 0.18013 0.395689 0.619018 1.16912 1.42983 0.557382 0.633092 0.863054
internal_weight=0 54690 5.01341e+06 5.00856e+06 3.19932e+06 696828 598967 404546 102581 73013 48911 23764 2.50249e+06 613111 100218 94909 21683 13913 5795 4763 21110 19294 11020
internal_count=5068102 54690 5013412 5008558 3199317 696828 598967 404546 102581 73013 48911 23764 2502489 613111 100218 94909 21683 13913 5795 4763 21110 19294 11020
shrinkage=0.1


Tree=41
num_leaves=24
num_cat=0
split_feature=18 4 0 0 3 1 21 21 21 21 3 1 25 21 2 2 3 3 15 2 4 2 21
split_gain=1405.3 983.985 1054.96 6246.94 4738.96 1566.24 2830.21 2226.76 1297.5 1582.18 1195.23 980.985 903.379 698.537 687.065 961.815 1059.38 593.396 593.148 584.938 578.254 501.95 489.155
threshold=11.500000000000002 5.5000000000000009 23.500000000000004 22.500000000000004 1.5000000000000002 3320.5000000000005 24.500000000000004 60.500000000000007 24.500000000000004 60.500000000000007 4.5000000000000009 6517.5000000000009 54.500000000000007 70.500000000000014 24.500000000000004 32.000000000000007 10.500000000000002 1.0000000180025095e-35 5.5000000000000009 30.500000000000004 19.500000000000004 28.500000000000004 23.500000000000004
decision_type=2 2 2 2 2 2 2 2 2 2 2 2 2 2 2 2 2 2 2 2 2 2 2
left_child=1 -1 3 14 8 12 10 11 20 -10 -7 -8 -6 -9 -3 16 19 -11 -2 21 -5 -16 -4
right_child=18 2 22 4 5 6 7 13 9 17 -12 -13 -14 -15 15 -17 -18 -19 -20 -21 -22 -23 -24
leaf_value=-0.0012502302407687909 0.01677609328483563 -0.0018428197915358116 -0.0097921266101542032 0.021642086884070679 0.060002416187770274 0.13512957014179874 0.10418384997984248 0.18339781849719594 0.0057426908441482859 0.028284250002823474 0.31180034125008199 0.01166151784293705 -0.05701307458494928 0.031227440844704569 0.0091487958937995738 0.00087013503025768423 0.061008667013785281 0.075714347672099891 0.064699157360492032 0.020947697621977391 0.061040215073029994 -0.0019150679909221383 -0.00103476371535768
leaf_weight=2928832 9314 541467 75170 8342 1402 2212 1555 1722 78951 16955 654 5502 1189 582 118571 718150 3816 3591 4123 28580 8797 60640 447985
