tree
version=v3
num_class=1
num_tree_per_iteration=1
label_index=0
max_feature_idx=36
objective=regression
feature_names=date_block_num item_id shop_id target_lag_1 target_item_lag_1 target_shop_lag_1 target_lag_2 target_item_lag_2 target_shop_lag_2 target_lag_3 target_item_lag_3 target_shop_lag_3 target_lag_4 target_item_lag_4 target_shop_lag_4 target_lag_5 target_item_lag_5 target_shop_lag_5 target_lag_12 target_item_lag_12 target_shop_lag_12 item_category_id type_code subtype_code city_code item_name_len item_name_wc item_name_tfidf_0 item_name_tfidf_1 item_name_tfidf_2 item_name_tfidf_3 item_name_tfidf_4 item_name_tfidf_5 item_name_tfidf_6 item_name_tfidf_7 item_name_tfidf_8 item_name_tfidf_9
feature_infos=[12:26] [0:22169] [2:59] [0:20] [0:20] [0:20] [0:20] [0:20] [0:20] [0:20] [0:20] [0:20] [0:20] [0:20] [0:20] [0:20] [0:20] [0:20] [0:20] [0:20] [0:20] [2:83] [1:19] [0:64] [0:30] [2:150] [1:47] [0:1] [0:1] [0:1] [0:1] [0:1] [0:1] [0:1] [0:1] [0:1] [0:1]
tree_sizes=4367 4373 4422 4420 4375 4417 4400 4374 4370 4315 4359 4299 4344 4369 4366 4361 4426 4318 4379 4518 4350 4297 4435 4410 4249 4299 4390 4441 4359 4452 4269 4380 4245 4428 4333 4383 4332 4255 4217 4330 4285 4361 4398 4281 4335 4407 4291 4485 4319 4348 4217 4352 4345 4247 4466 4464 4347 4213 4248 4324 4288 4215 4343 4198 4296 4330 4562 4464 4403 4480 4293 4259 4468 4433 4252 4320 4321 4376 4296 4500 4281 4286 4355 4442 4324 4282 4260 4448 4346 4336 4289 4360 4445 4402 4543 4438 4326 4249 4364 4267

Tree=0
num_leaves=46
num_cat=0
split_feature=6 6 6 12 12 12 12 13 22 10 6 23 23 8 26 22 10 20 22 23 31 8 31 8 26 24 6 18 6 6 6 24 24 18 31 18 12 24 24 23 26 0 23 26 6
split_gain=994897 220242 202342 101491 70665.7 37511.7 33938.4 28806.7 30107.5 23055.1 20284.8 18219.6 41304.1 35220.1 17400.6 15509.8 15221.9 12604.5 15740.9 22457.9 85648.1 21234.3 23313.2 11853.3 11683.5 11386.8 9328.55 9060.55 8262.09 8077.06 7038.63 6605.91 6583.91 6576.73 6329.93 5852.4 5521.16 5505.44 10578.7 4768.95 4454.1 4927.83 4105.83 3959.66 3956.86
threshold=4.5000000000000009 15.500000000000002 1.5000000000000002 7.5000000000000009 4.5000000000000009 1.5000000000000002 2.5000000000000004 1.0000000180025095e-35 5.5000000000000009 16.500000000000004 8.5000000000000018 12.500000000000002 10.500000000000002 1.0000000180025095e-35 15.500000000000002 8.5000000000000018 1.0000000180025095e-35 1.0000000180025095e-35 11.500000000000002 60.500000000000007 0.5516725778579713 1.0000000180025095e-35 0.59347611665725719 1.0000000180025095e-35 3.5000000000000004 13.500000000000002 2.5000000000000004 2.5000000000000004 8.5000000000000018 1.0000000180025095e-35 1.0000000180025095e-35 25.500000000000004 26.500000000000004 2.5000000000000004 0.44243226945400244 3.5000000000000004 1.5000000000000002 13.500000000000002 12.500000000000002 41.500000000000007 11.500000000000002 20.500000000000004 2.5000000000000004 9.5000000000000018 2.5000000000000004
decision_type=2 2 2 2 2 2 2 2 2 2 2 2 2 2 2 2 2 2 2 2 2 2 2 2 2 2 2 2 2 2 2 2 2 2 2 2 2 2 2 2 2 2 2 2 2
left_child=2 4 5 39 28 7 26 8 11 30 35 12 -1 14 -14 -5 17 18 19 20 23 22 25 24 31 -22 -4 44 36 -11 -9 37 -33 -7 -26 -6 -2 38 -10 -3 -27 -42 -20 -24 -8
right_child=1 3 6 15 10 33 27 9 16 29 -12 -13 13 -15 -16 -17 -18 -19 42 -21 21 -23 43 -25 34 40 -28 -29 -30 -31 -32 32 -34 -35 -36 -37 -38 -39 -40 -41 41 -43 -44 -45 -46
leaf_value=0.32595196264764381 0.47597680933308528 0.82544987853206575 0.35249930647202576 1.2965384779735289 0.65223467496735577 0.33037912224012467 0.40970532749817196 0.27438953664559362 0.34165090240477053 0.29191727874477985 0.94122000544515794 0.31108538702824484 0.69034821608113228 0.3161780368647279 0.43571131424817 1.8298378736629881 0.27554372119290566 0.27194815955580914 0.31299143884250785 0.27177218303129264 0.90698530945289257 0.32918948557374184 0.29723842527729344 0.2856765710620216 0.31730633132066133 0.76597905256300214 0.40507559918862796 0.56145377056736212 0.62318674674675467 0.3207901431054358 0.29492217120887831 0.80226463702556772 0.44643550755737416 0.40049377634526789 0.43338144139991963 0.82513036246123428 0.57494777679835474 0.32665830035320298 0.5110661868142411 1.0709565939807952 0.39330972601697606 0.69212688080002849 0.28516523868325599 0.51101837754986823 0.48244694869489202
leaf_weight=39548 17813 4322 98905 1537 7760 126169 14799 2296200 8974 407038 5805 83988 8114 6407 4115 1733 377204 139709 64096 79577 2670 3369 1024 78715 165470 1419 51403 9217 8648 127101 180065 601 3058 14938 4788 3084 8695 15298 6249 1392 1270 992 305883 5627 15941
leaf_count=39548 17813 4322 98905 1537 7760 126169 14799 2296200 8974 407038 5805 83988 8114 6407 4115 1733 377204 139709 64096 79577 2670 3369 1024 78715 165470 1419 51403 9217 8648 127101 180065 601 3058 14938 4788 3084 8695 15298 6249 1392 1270 992 305883 5627 15941
internal_value=0 4.01823 -0.0514664 8.57988 3.21962 -0.093632 0.95878 -0.109843 0.00821377 -0.165065 4.91696 0.444465 0.87432 2.09961 3.09135 13.0158 -0.0407924 0.0306428 0.0820762 0.22527 0.350715 2.57108 3.14891 0.221906 0.34884 4.5162 0.74057 1.77765 2.40993 0.0233582 -0.205709 0.882011 2.14486 0.413833 0.241571 4.07162 2.12454 0.727322 1.15224 5.95022 3.29691 2.33669 -0.0646558 1.81917 1.51218
internal_weight=0 60789 4.74994e+06 8984 51805 4.55968e+06 190265 4.41857e+06 1.40816e+06 3.0104e+06 16649 142172 58184 18636 12229 3270 1.26599e+06 888789 749080 379101 299524 16371 13002 283153 204438 6351 150308 39957 35156 534139 2.47626e+06 34180 3659 141107 170258 10844 26508 30521 15223 5714 3681 2262 369979 6651 30740
internal_count=4810730 60789 4749941 8984 51805 4559676 190265 4418569 1408165 3010404 16649 142172 58184 18636 12229 3270 1265993 888789 749080 379101 299524 16371 13002 283153 204438 6351 150308 39957 35156 534139 2476265 34180 3659 141107 170258 10844 26508 30521 15223 5714 3681 2262 369979 6651 30740
shrinkage=1


Tree=1
num_leaves=46
num_cat=0
split_feature=6 4 6 6 7 13 6 13 18 18 31 6 6 33 7 22 20 23 23 26 5 23 23 23 23 17 18 6 0 0 18 23 23 4 0 6 20 22 23 31 31 4 0 26 0
split_gain=808079 262905 181218 59963.4 74915.6 55257.8 43697.4 25015.4 20577.1 17124.1 15106.9 14320.8 14199.3 14122.3 10620.7 13979.8 10483.7 13147.1 33931.4 15786.7 17046.4 10431.7 9716.82 8390.07 7855.74 6931.06 6337.6 5287.34 5151.69 7508.83 5104.81 5009.05 8391.87 4936.01 4926.47 4470.88 4455.75 6440.56 9184.55 43336.5 15283.2 11976.8 5265.39 6143.82 6095.21
threshold=4.5000000000000009 19.500000000000004 19.500000000000004 1.5000000000000002 1.0000000180025095e-35 15.500000000000002 9.5000000000000018 19.500000000000004 3.5000000000000004 3.5000000000000004 0.44243226945400244 1.0000000180025095e-35 1.0000000180025095e-35 0.51456919312477123 1.0000000180025095e-35 5.5000000000000009 1.0000000180025095e-35 12.500000000000002 10.500000000000002 18.500000000000004 1.0000000180025095e-35 57.500000000000007 60.500000000000007 4.5000000000000009 4.5000000000000009 1.0000000180025095e-35 2.5000000000000004 2.5000000000000004 24.500000000000004 21.500000000000004 1.5000000000000002 11.500000000000002 2.5000000000000004 7.5000000000000009 24.500000000000004 6.5000000000000009 1.0000000180025095e-35 11.500000000000002 60.500000000000007 0.5516725778579713 0.59347611665725719 1.0000000180025095e-35 19.500000000000004 10.500000000000002 22.500000000000004
decision_type=2 2 2 2 2 2 2 2 2 2 2 2 2 2 2 2 2 2 2 2 2 2 2 2 2 2 2 2 2 2 2 2 2 2 2 2 2 2 2 2 2 2 2 2 2
left_child=1 11 6 4 10 -4 8 -8 23 24 31 14 30 -12 15 16 17 18 -1 20 -20 -7 -13 -2 -5 36 -14 -26 29 -9 -6 32 -3 -16 35 -25 37 38 39 -17 41 42 43 -41 -44
right_child=2 3 5 9 12 21 7 28 -10 -11 13 22 26 -15 33 25 -18 -19 19 -21 -22 -23 -24 34 27 -27 -28 -29 -30 -31 -32 -33 -34 -35 -36 -37 -38 -39 -40 40 -42 -43 44 -45 -46
leaf_value=0.029596229055001911 0.14027848883469554 0.083090911290720493 0.58343228758360477 0.062860077402497078 0.010109154953693798 1.0305352152819773 0.30719920047862359 0.56831139081385917 0.40469462858471045 0.21855927468112119 0.3374037073608887 0.0038188478991156684 0.043815672375011154 -0.0031460684695930191 -0.022298533597909759 0.010342650108338267 -0.022864907009880042 0.013755992260953332 0.44287512313106475 0.043201050660609114 0.0086314703087046057 1.5783650651059034 0.21601571975821288 0.23279367766903933 0.094736148465936088 -0.023545066371341988 0.11906194493732325 0.14794648138761549 0.38687072975183462 0.91210995842089337 0.05648993553376809 0.075416198467861961 0.16982689731404402 -0.012382066483048709 0.1527656482697265 0.33548592606031213 -0.022684637862412965 -0.012311465556449767 -0.02205367523778334 0.538736042852755 0.11294773243334573 -0.017040558722476628 0.70407940741044939 0.13608664472026435 0.27946438324250017
leaf_weight=17650 9989 19050 3268 37365 336975 2061 6225 5097 7275 13802 5828 335402 138002 1534 1952863 187681 26057 36072 4765 2139 1116 760 2122 11957 41633 315789 12159 34638 1430 899 25484 21152 27491 675981 4430 7398 123544 276584 68351 625 4677 638 1195 976 601
leaf_count=17650 9989 19050 3268 37365 336975 2061 6225 5097 7275 13802 5828 335402 138002 1534 1952863 187681 26057 36072 4765 2139 1116 760 2122 11957 41633 315789 12159 34638 1430 899 25484 21152 27491 675981 4430 7398 123544 276584 68351 625 4677 638 1195 976 601
internal_value=0 -0.046274 3.62147 0.512536 0.377626 8.77987 3.03975 4.59181 2.51862 1.13427 1.31039 -0.14532 0.240939 2.66888 -0.16332 -0.0792441 0.302928 0.527289 1.07357 2.77234 3.61256 12.0308 0.0518502 2.18389 1.00566 -0.113475 0.499469 1.18984 5.83662 6.26992 0.133777 1.16077 1.34454 -0.197489 2.50826 2.72814 -0.0555261 -0.0164075 0.0950703 0.204945 2.37875 3.795 4.53171 3.04889 5.73462
internal_weight=0 4.74994e+06 60789 715113 587675 6089 54700 13651 41049 127438 75055 4.03483e+06 512620 7362 3.6973e+06 1.06846e+06 87799 61742 25670 8020 5881 2821 337524 33774 113636 980661 150161 76271 7426 5996 362459 67693 46541 2.62884e+06 23785 19355 664872 541328 264744 196393 8712 4035 3397 1601 1796
internal_count=4810730 4749941 60789 715113 587675 6089 54700 13651 41049 127438 75055 4034828 512620 7362 3697304 1068460 87799 61742 25670 8020 5881 2821 337524 33774 113636 980661 150161 76271 7426 5996 362459 67693 46541 2628844 23785 19355 664872 541328 264744 196393 8712 4035 3397 1601 1796
shrinkage=0.1


Tree=2
num_leaves=46
num_cat=0
split_feature=3 3 3 3 3 3 3 12 15 15 15 15 12 10 32 32 8 15 19 8 19 36 33 33 33 0 0 26 12 3 10 26 26 0 0 8 15 32 26 8 8 19 12 33 12
split_gain=1.27784e+06 327771 223870 51193.2 41432.8 33569.6 27043.2 14472.5 12282.7 10202.9 9325.13 9089.08 8489.5 8451.84 15293.9 12378.5 10678.4 7135.64 6239.92 5588.83 5244.53 6569.22 15284.2 15688.5 12216.5 7183.25 7812.14 5970.83 4167.43 4068.34 3679.08 3247.66 3175.4 3247.46 3440.98 2842.28 2675.79 2662.03 3526.44 2974.96 2533.04 2328.44 2278.03 2197.57 2086.17
threshold=4.5000000000000009 14.500000000000002 1.5000000000000002 8.5000000000000018 1.0000000180025095e-35 19.500000000000004 2.5000000000000004 14.500000000000002 4.5000000000000009 4.5000000000000009 3.5000000000000004 1.5000000000000002 1.0000000180025095e-35 1.0000000180025095e-35 1.0000000180025095e-35 0.69250172376632702 1.0000000180025095e-35 2.5000000000000004 1.0000000180025095e-35 1.0000000180025095e-35 1.0000000180025095e-35 1.0000000180025095e-35 0.38471034169197088 0.59245800971984874 0.50317418575286876 19.500000000000004 22.500000000000004 10.500000000000002 3.5000000000000004 6.5000000000000009 10.500000000000002 4.5000000000000009 17.500000000000004 23.500000000000004 19.500000000000004 1.0000000180025095e-35 1.5000000000000002 0.97148165106773388 15.500000000000002 1.0000000180025095e-35 1.0000000180025095e-35 1.0000000180025095e-35 1.5000000000000002 0.4084122925996781 1.5000000000000002
decision_type=2 2 2 2 2 2 2 2 2 2 2 2 2 2 2 2 2 2 2 2 2 2 2 2 2 2 2 2 2 2 2 2 2 2 2 2 2 2 2 2 2 2 2 2 2
left_child=2 3 4 8 12 28 17 -7 29 -5 35 43 13 14 19 16 18 40 32 20 21 22 31 24 -24 27 -27 -26 -3 -2 -15 -1 33 34 -16 -8 -14 -17 39 41 -4 -39 -37 -6 -42
right_child=1 5 6 9 11 7 10 -9 -10 -11 -12 -13 36 30 15 37 -18 -19 -20 -21 -22 -23 23 -25 25 26 -28 -29 -30 -31 -32 -33 -34 -35 -36 42 -38 38 -40 -41 44 -43 -44 -45 -46
leaf_value=0.018900677163927918 0.23747990289204957 0.63208470525290716 0.10942330844193965 0.46320360820878825 0.010999365413035639 1.0222964404922916 0.18934429717617179 1.4423188878112816 0.40586031232335923 0.66769002797134025 0.22760875887235069 0.058138575994704768 -0.0026999840280815743 -0.020155192052915803 0.20825530357797206 -0.007027231906201011 -0.0096523665123636939 0.13213457565596098 -0.014552343117639458 -0.019918108375800339 -0.02109439124748862 -0.02295686350563831 0.061300124888170104 0.018581154505732261 0.38335955496918372 0.56915510005356984 0.17339517602598983 0.065485349086936845 0.90702213729591419 0.32182123214834085 -0.011445116303642382 -0.0036069810696020424 0.01873568649113258 0.10454277549889164 0.37513945704375162 0.1089745952665151 0.020317070929301771 0.16033124813482111 0.0017126005585398154 -0.010312035697276532 0.04802355943268314 -0.020710109342103718 0.15430514440920498 0.034277859760674649 0.085758442748302591
leaf_weight=77259 20033 2401 9661 9279 333014 4149 7611 1619 8039 3894 12252 52719 321255 1922523 3343 20143 3773 16197 1269 381911 159705 107643 4356 15077 860 1370 862 1765 1410 8952 648949 375371 697 1432 2263 36792 59877 4756 7982 1913 74409 820 16599 46156 18370
leaf_count=77259 20033 2401 9661 9279 333014 4149 7611 1619 8039 3894 12252 52719 321255 1922523 3343 20143 3773 16197 1269 381911 159705 107643 4356 15077 860 1370 862 1765 1410 8952 648949 375371 697 1432 2263 36792 59877 4756 7982 1913 74409 820 16599 46156 18370
internal_value=0 4.593 -0.0576263 3.56327 -0.102166 9.94251 1.00031 11.5159 2.95343 5.25954 1.47806 0.192514 -0.133005 -0.147471 -0.0771834 0.473006 1.31538 0.704808 1.9044 -0.100845 -0.0503744 -0.00649014 0.0438764 0.815824 1.84016 2.92307 4.23504 1.74883 7.44261 2.64041 -0.179574 0.00236273 2.23961 2.43996 2.78361 1.31603 0.00917994 0.169343 0.480605 0.971073 0.606719 1.33742 1.23201 0.138374 0.555382
internal_weight=0 59776 4.75095e+06 50197 4.55906e+06 9579 191891 5768 37024 13173 73254 431889 4.12717e+06 3.74604e+06 1.17457e+06 48391 12777 118637 9004 1.12618e+06 744268 584563 476920 24290 9213 4857 2232 2625 3811 28985 2.57147e+06 452630 7735 7038 5606 61002 381132 35614 15471 7489 102440 5576 53391 379170 92779
internal_count=4810730 59776 4750954 50197 4559063 9579 191891 5768 37024 13173 73254 431889 4127174 3746042 1174570 48391 12777 118637 9004 1126179 744268 584563 476920 24290 9213 4857 2232 2625 3811 28985 2571472 452630 7735 7038 5606 61002 381132 35614 15471 7489 102440 5576 53391 379170 92779
shrinkage=0.1


Tree=3
num_leaves=46
num_cat=0
split_feature=3 3 3 3 3 3 21 21 11 12 20 3 6 12 12 6 21 33 2 3 12 21 21 6 33 2 6 2 6 2 12 2 2 0 2 12 11 6 11 17 26 12 11 20 21
split_gain=1.04015e+06 233547 215028 37677.8 33557.9 29564.6 22609.6 14060 12660.9 10221 10123.5 9812.37 9706.27 8157.68 7535.97 6802.28 6556.79 7807.85 6076.77 5563.17 5348.91 4340.87 30144.3 4267.72 4368.84 4050.94 3928.8 3375.09 3140.24 2930.86 2550.31 2229.93 2227.38 2194.2 2175.55 2163.56 2149.06 1838.28 1831.75 2488.19 3052.1 2449.41 1806.74 1604.5 1899.4
threshold=5.5000000000000009 1.5000000000000002 15.500000000000002 3.5000000000000004 1.0000000180025095e-35 9.5000000000000018 69.500000000000014 30.500000000000004 1.0000000180025095e-35 2.5000000000000004 1.0000000180025095e-35 19.500000000000004 1.5000000000000002 5.5000000000000009 4.5000000000000009 1.0000000180025095e-35 27.500000000000004 0.50317418575286876 32.000000000000007 2.5000000000000004 3.5000000000000004 20.500000000000004 19.500000000000004 1.0000000180025095e-35 0.55053287744522106 32.000000000000007 1.0000000180025095e-35 24.500000000000004 3.5000000000000004 21.500000000000004 1.5000000000000002 32.000000000000007 40.500000000000007 19.500000000000004 47.500000000000007 1.5000000000000002 1.0000000180025095e-35 1.5000000000000002 1.0000000180025095e-35 1.0000000180025095e-35 4.5000000000000009 1.0000000180025095e-35 1.0000000180025095e-35 1.0000000180025095e-35 40.500000000000007
decision_type=2 2 2 2 2 2 2 2 2 2 2 2 2 2 2 2 2 2 2 2 2 2 2 2 2 2 2 2 2 2 2 2 2 2 2 2 2 2 2 2 2 2 2 2 2
left_child=1 4 5 9 7 14 11 8 10 19 16 -4 30 -7 -2 38 21 31 29 37 -5 22 -1 24 25 27 -10 -24 -11 -19 36 -18 -20 -26 -34 -14 -6 42 39 40 43 -40 -3 44 -9
right_child=2 3 6 20 12 13 -8 15 26 28 -12 -13 35 -15 -16 -17 17 18 32 -21 -22 -23 23 -25 33 -27 -28 -29 -30 -31 -32 -33 34 -35 -36 -37 -38 -39 41 -41 -42 -43 -44 -45 -46
leaf_value=0.013830988589845675 0.27759858207946764 0.074975666618836548 0.66049149206676772 0.16499807995084939 0.026799271379138363 0.4480821860342894 1.3276493452394973 0.021471065596748551 -0.01093629209787967 0.11074173039849594 -0.017530749791956464 0.94267192985989401 0.041950573081344422 0.65197922238952 0.40219036573150047 0.00096952707877420621 0.10203002470011382 0.21635607334443896 0.023189766492107824 0.10040429736392523 0.25135210973452327 0.0079756073746165678 0.30186697017948388 -0.0025000689227608641 0.25593819823456099 0.20751470152865881 0.013893237791717812 0.57905967478097642 0.18417260241043795 0.45344873105368766 0.03660557446042189 0.019803775673798422 0.31078745324522927 -0.005140712563831782 0.10515707303750882 0.083356252811306375 0.0051683454219761263 0.07731696535644926 -0.018039000006067066 -0.020538871168703132 -0.011750092485136967 -0.0064647183167148006 0.038065849208273224 -0.019436492418037701 -0.0085334666902832784
leaf_weight=35034 18440 17379 2571 30605 54812 7259 1341 62839 315629 20105 34638 4647 39728 3266 7134 272559 5258 1803 1899 36754 9722 39190 2007 727 443 3248 79797 669 8477 838 36197 8805 709 920 1910 18639 282513 26991 2098117 253215 654329 200406 56976 20475 31710
leaf_count=35034 18440 17379 2571 30605 54812 7259 1341 62839 315629 20105 34638 4647 39728 3266 7134 272559 5258 1803 1899 36754 9722 39190 2007 727 443 3248 79797 669 8477 838 36197 8805 709 920 1910 18639 282513 26991 2098117 253215 654329 200406 56976 20475 31710
internal_value=0 -0.0447512 4.80124 0.993962 -0.0919256 3.72332 9.29938 -0.11968 0.0317968 0.783679 0.292412 8.4741 0.173275 5.14146 3.13075 -0.142169 0.449022 0.944105 1.79104 0.670561 1.86104 0.320755 0.539784 2.28301 2.51201 2.88227 -0.0592431 3.80552 1.32807 2.98651 0.113972 0.508069 1.06697 0.856978 1.65641 0.552349 0.0868691 0.549176 -0.154632 -0.119406 -0.0910937 -0.170301 0.467387 0.0591043 0.114078
internal_weight=0 4.76607e+06 44658 207009 4.55906e+06 36099 8559 4.12717e+06 533524 166682 138098 7218 431889 10525 25574 3.59365e+06 103460 21222 7159 138100 40327 82238 43048 8014 7287 5924 395426 2676 28582 2641 373522 14063 4518 1363 2619 58367 337325 101346 3.32109e+06 1.02257e+06 769353 2.29852e+06 74355 115024 94549
internal_count=4810730 4766072 44658 207009 4559063 36099 8559 4127174 533524 166682 138098 7218 431889 10525 25574 3593650 103460 21222 7159 138100 40327 82238 43048 8014 7287 5924 395426 2676 28582 2641 373522 14063 4518 1363 2619 58367 337325 101346 3321091 1022568 769353 2298523 74355 115024 94549
shrinkage=0.1


Tree=4
num_leaves=46
num_cat=0
split_feature=3 3 3 4 3 3 3 21 15 15 15 15 3 21 7 20 4 21 21 21 0 16 21 0 3 15 15 25 32 32 25 26 36 2 2 15 7 2 7 7 4 3 18 7 16
split_gain=845552 219626 146268 35099.2 29282 28715.3 17773.1 10785.1 10492 9686.98 7035.06 6348.66 6209.47 5422.29 16238.6 13108 12859.8 7789.2 32217.5 12184.7 6984.43 6328.77 6199.16 7737.08 5705.38 5210.12 4809.73 4061.21 5383.97 8672.58 8456.01 3801.37 3133.6 2899.83 2862.44 2756.33 2717.68 2417.77 2085.92 1954.69 1910.16 1909.75 1789.7 1633.42 2410.57
threshold=4.5000000000000009 13.500000000000002 1.5000000000000002 19.500000000000004 7.5000000000000009 19.500000000000004 2.5000000000000004 69.500000000000014 1.5000000000000002 6.5000000000000009 2.5000000000000004 3.5000000000000004 1.0000000180025095e-35 30.500000000000004 1.0000000180025095e-35 1.0000000180025095e-35 1.0000000180025095e-35 19.500000000000004 20.500000000000004 27.500000000000004 14.500000000000002 1.0000000180025095e-35 29.500000000000004 23.500000000000004 1.0000000180025095e-35 2.5000000000000004 3.5000000000000004 35.500000000000007 0.69250172376632702 0.97148165106773388 51.500000000000007 12.500000000000002 1.0000000180025095e-35 32.000000000000007 21.500000000000004 1.0000000180025095e-35 1.0000000180025095e-35 32.000000000000007 1.0000000180025095e-35 1.0000000180025095e-35 19.500000000000004 10.500000000000002 1.5000000000000002 1.0000000180025095e-35 1.0000000180025095e-35
decision_type=2 2 2 2 2 2 2 2 2 2 2 2 2 2 2 2 2 2 2 2 2 2 2 2 2 2 2 2 2 2 2 2 2 2 2 2 2 2 2 2 2 2 2 2 2
left_child=2 4 3 13 11 26 25 -7 12 41 36 38 -5 14 15 16 17 -1 27 -20 -21 22 23 37 35 39 -3 -19 30 -30 -29 -31 -26 34 -24 43 -8 -22 -2 -4 -41 -6 -10 44 -15
right_child=1 5 6 8 9 7 10 -9 42 -11 -12 -13 -14 24 -16 -17 -18 18 19 20 21 -23 33 -25 32 -27 -28 28 29 31 -32 -33 -34 -35 -36 -37 -38 -39 -40 40 -42 -43 -44 -45 -46
leaf_value=0.026258715116940862 0.26368113519876996 0.51126069937966201 0.091300830545370748 0.0028844947391887159 0.31690512152539957 0.84940821640168684 0.15820164084524635 1.2516064679598473 0.043587015513342042 0.53542640894998927 0.17594421639564253 0.30188421149545669 0.027234232373254997 -0.0077673970159171006 -0.012531232305602933 -0.016713154689261146 -0.0071274269595479854 0.56262859646991203 0.019022949175189052 0.028455481102580334 0.55732116606667981 -0.024554099118222997 0.15385168762854007 0.031452364015371298 0.0018493435485689516 0.10956222765282281 0.75537665631082651 0.19311720869233107 -0.034909439883858841 0.5762101850339344 0.59501350018792531 0.17926367096395315 0.14732579877162832 0.087463617280588948 0.40015192227811591 -0.0036861785465703194 0.093434726497671275 0.31439322297299088 0.18340546401600263 0.023442929470277738 0.054048997980568558 0.41063050009112279 0.083016239820054155 -0.01622554603815534 -0.018849181037097665
leaf_weight=17719 4297 3423 9665 353073 9338 4647 7597 1121 50036 3706 17055 8343 148859 635493 332330 38932 23803 734 19109 3717 943 1175 1530 638 214657 16197 1566 1078 1009 454 1119 596 1441 2938 723 244237 48602 1253 19264 30510 62265 4071 15060 2162304 284103
leaf_count=17719 4297 3423 9665 353073 9338 4647 7597 1121 50036 3706 17055 8343 148859 635493 332330 38932 23803 734 19109 3717 943 1175 1530 638 214657 16197 1566 1078 1009 454 1119 596 1441 2938 723 244237 48602 1253 19264 30510 62265 4071 15060 2162304 284103
internal_value=0 3.73635 -0.0467017 -0.0827031 2.83297 7.82076 0.808436 9.37676 0.150099 3.89081 1.19574 2.26026 0.101081 -0.115772 -0.0123436 0.307161 0.542241 0.808885 1.06966 0.698538 1.4468 1.91219 2.22781 3.4151 -0.128905 0.568876 5.94641 3.42074 2.97922 1.75081 4.06545 3.69377 0.0285374 1.55303 2.39906 -0.139134 1.02325 4.2884 1.98578 0.485088 0.44003 3.46788 0.527672 -0.147238 -0.11192
internal_weight=0 59776 4.75095e+06 4.55906e+06 49019 10757 191891 5768 567028 17115 73254 31904 501932 3.99204e+06 449800 117470 78538 54735 37016 32026 12917 9200 8025 2834 3.54224e+06 118637 4989 4990 4256 2059 2197 1050 216098 5191 2253 3.32614e+06 56199 2196 23561 102440 92775 13409 65096 3.0819e+06 919596
internal_count=4810730 59776 4750954 4559063 49019 10757 191891 5768 567028 17115 73254 31904 501932 3992035 449800 117470 78538 54735 37016 32026 12917 9200 8025 2834 3542235 118637 4989 4990 4256 2059 2197 1050 216098 5191 2253 3326137 56199 2196 23561 102440 92775 13409 65096 3081900 919596
shrinkage=0.1


Tree=5
num_leaves=46
num_cat=0
split_feature=3 3 3 3 9 9 9 3 9 3 3 9 3 7 14 9 20 5 2 2 31 31 2 2 6 7 2 2 6 6 26 31 7 7 7 26 7 9 6 2 2 2 2 2 26
split_gain=688899 152760 142982 25391.1 24499.5 23112 20360.8 12247.9 11139.8 10038.5 7464.53 5350.15 4925.71 4020.42 6447.89 5223.92 4745.74 5210.03 4870.26 10723.9 5346.21 11614.8 4360.91 4380.64 3898.32 3753.22 3420.12 4351.13 2784.56 2743.13 2492.22 2268.65 2204.28 2104.55 2768.11 1956.68 1918.31 1630.47 1624.22 1472.4 2549.36 1480.06 1459.25 1412.86 1405.69
threshold=5.5000000000000009 1.5000000000000002 15.500000000000002 3.5000000000000004 1.5000000000000002 11.500000000000002 5.5000000000000009 1.0000000180025095e-35 2.5000000000000004 10.500000000000002 8.5000000000000018 3.5000000000000004 19.500000000000004 1.0000000180025095e-35 1.0000000180025095e-35 1.0000000180025095e-35 1.0000000180025095e-35 1.0000000180025095e-35 32.000000000000007 24.500000000000004 0.5641658902168275 0.50049886107444774 30.500000000000004 25.500000000000004 1.5000000000000002 1.0000000180025095e-35 53.500000000000007 54.500000000000007 1.0000000180025095e-35 1.5000000000000002 4.5000000000000009 0.62382909655570995 2.5000000000000004 1.0000000180025095e-35 19.500000000000004 4.5000000000000009 1.0000000180025095e-35 2.5000000000000004 3.5000000000000004 40.500000000000007 43.500000000000007 41.500000000000007 28.500000000000004 21.500000000000004 4.5000000000000009
decision_type=2 2 2 2 2 2 2 2 2 2 2 2 2 2 2 2 2 2 2 2 2 2 2 2 2 2 2 2 2 2 2 2 2 2 2 2 2 2 2 2 2 2 2 2 2
left_child=1 4 6 8 7 12 10 13 25 -8 -2 36 -4 14 16 28 17 18 19 -1 21 22 23 44 -6 -3 39 30 -15 -27 -28 -22 43 -9 -35 -24 -5 -34 -10 -20 41 -41 -25 -12 -21
right_child=2 3 5 11 24 -7 9 33 38 -11 32 -13 -14 15 -16 -17 -18 -19 26 20 31 -23 35 42 -26 29 27 -29 -30 -31 -32 -33 37 34 -36 -37 -38 -39 -40 40 -42 -43 -44 -45 -46
leaf_value=0.0079283529768814677 0.20903529761133843 0.098420318511674931 0.48362744765331728 0.18674378079095305 0.021722677092785182 1.0028709946620391 0.35485055296265472 0.033136198613594389 0.098528846106535242 0.57793881619958909 0.23903871934732332 0.20901291307778025 0.7091881040315462 -0.014653580732857783 -0.017112859920762599 0.00081919438167278938 -0.016025670785743792 -0.0087404987908774705 -0.016041928715008751 0.25836495698976675 -0.021011218045555308 0.56192554622240032 0.29407972831559798 0.061003032476359936 0.05690253740708795 0.0341282338598482 0.25584129666288696 0.011808586122987335 -0.0032790092117036505 0.06682122209037597 0.074775641318030078 0.15049873250322712 0.24773311886901095 -0.0005874683898368315 0.018114415030810661 0.1274118441188323 0.11590104426944173 0.37245014725452735 0.14610092945467029 -0.0029042074673142314 -0.0055482348539811427 0.054363600880297486 0.013433305499856683 0.44804270457896272 0.11638227099236467
leaf_weight=130083 15929 14438 2082 4736 104518 2763 8298 31797 21373 2921 618 11646 3714 2441973 319316 275097 151677 216527 76223 837 8372 444 839 16570 45124 81895 838 34945 236085 37532 6068 799 4401 216353 124731 4684 23945 1815 11444 6907 80047 12926 10604 2117 4679
leaf_count=130083 15929 14438 2082 4736 104518 2763 8298 31797 21373 2921 618 11646 3714 2441973 319316 275097 151677 216527 76223 837 8372 444 839 16570 45124 81895 838 34945 236085 37532 6068 799 4401 216353 124731 4684 23945 1815 11444 6907 80047 12926 10604 2117 4679
internal_value=0 -0.0362372 3.90754 0.803829 -0.0743899 7.57551 3.02857 -0.0878958 0.63121 4.1525 2.51442 1.51562 6.3301 -0.103914 -0.0518041 -0.12303 -0.00192737 0.0372958 0.105509 0.228251 0.632888 0.795548 0.732205 0.591579 0.323472 0.502858 0.00528249 0.262072 -0.13651 0.444271 0.984423 -0.0532296 3.25316 0.0854982 0.0625298 1.5516 1.27907 2.86846 1.15318 -0.055795 0.0240789 0.344575 0.425025 4.05992 1.40072
internal_weight=0 4.76607e+06 44658 207009 4.55906e+06 8559 36099 4.40942e+06 166682 11219 24880 40327 5796 4.03654e+06 1.08338e+06 2.95316e+06 764069 612392 395865 177911 47828 38657 38213 32690 149642 133865 217954 41851 2.67806e+06 119427 6906 9171 8951 372881 341084 5523 28681 6216 32817 176103 99880 19833 27174 2735 5516
internal_count=4810730 4766072 44658 207009 4559063 8559 36099 4409421 166682 11219 24880 40327 5796 4036540 1083385 2953155 764069 612392 395865 177911 47828 38657 38213 32690 149642 133865 217954 41851 2678058 119427 6906 9171 8951 372881 341084 5523 28681 6216 32817 176103 99880 19833 27174 2735 5516
shrinkage=0.1


Tree=6
num_leaves=46
num_cat=0
split_feature=9 15 9 9 35 10 7 35 19 7 15 23 2 2 19 9 35 2 10 18 7 17 23 7 19 2 2 2 2 2 2 9 2 18 15 33 23 1 2 12 2 2 2 22 2
split_gain=263505 63924.1 56369.1 41835.7 24887.1 24944.1 14712.3 13702.9 16395.6 14415.2 12515.2 11553 11424.9 9143.34 8727.14 7481.66 7355.21 6189.33 6015.39 5660.83 5231.35 5230.79 6988.41 5632.25 6351.37 5596.42 25032.1 9529.83 8727.57 8610.14 6956.56 4452.44 4390.36 4301.09 4058.46 3687.73 3598.49 3238.67 3212.47 3130.45 3062.89 2884.45 3453.98 2846.51 2658.53
threshold=4.5000000000000009 7.5000000000000009 1.5000000000000002 18.500000000000004 0.45506027340888983 1.0000000180025095e-35 19.500000000000004 0.67097818851470958 1.0000000180025095e-35 1.0000000180025095e-35 2.5000000000000004 10.500000000000002 32.000000000000007 24.500000000000004 19.500000000000004 12.500000000000002 0.37960502505302435 40.500000000000007 1.0000000180025095e-35 3.5000000000000004 19.500000000000004 1.0000000180025095e-35 19.000000000000004 1.0000000180025095e-35 1.0000000180025095e-35 32.000000000000007 24.500000000000004 53.500000000000007 54.500000000000007 30.500000000000004 25.500000000000004 1.0000000180025095e-35 47.500000000000007 2.5000000000000004 1.5000000000000002 0.50317418575286876 4.5000000000000009 2708.5000000000005 49.500000000000007 10.500000000000002 55.500000000000007 28.500000000000004 26.500000000000004 14.500000000000002 40.500000000000007
decision_type=2 2 2 2 2 2 2 2 2 2 2 2 2 2 2 2 2 2 2 2 2 2 2 2 2 2 2 2 2 2 2 2 2 2 2 2 2 2 2 2 2 2 2 2 2
left_child=2 11 4 14 6 7 18 8 9 12 36 -2 13 35 -3 19 -5 -14 21 43 -7 22 23 24 25 26 -1 44 -29 30 -28 -20 -19 -12 -8 -6 -4 -17 -34 -16 -30 42 -32 -13 -27
right_child=1 3 10 16 5 20 34 -9 -10 -11 33 15 17 -15 39 37 -18 32 31 -21 -22 -23 -24 -25 -26 27 29 28 40 -31 41 -33 38 -35 -36 -37 -38 -39 -40 -41 -42 -43 -44 -45 -46
leaf_value=0.010492420133779818 0.090507869043041367 0.24265421588516045 0.018910118219775486 0.884778461333662 0.15760375749000546 -0.0064277933711287157 0.0068433265318671339 0.022350931661345195 -0.0080219407576032666 0.05280252792911902 0.081612210389549092 0.13198058223955419 0.035522982094687149 0.42974430932649332 0.35608325310141292 0.146644031638543 0.4189739418991188 0.28555850627145285 -0.012836912976836316 0.26077038252268908 0.024382451639452143 -0.014752400606393858 -0.0081414320066253935 -0.010204112963488542 -0.01518208408626742 -0.016304221574014847 0.2018709997710412 0.1861270977737125 -0.031844319992928825 0.23752633841268642 0.026802594398039278 0.0012361500427649158 0.01554318377531428 0.15747410150782884 0.038523160386839173 0.31968889341165807 0.050813196210345191 0.3376470349029263 0.17806935942186605 0.56526097381885221 0.056097607419141216 0.024909274471875686 0.13191522612939574 0.34369046413223775 0.011705675032517054
leaf_weight=87738 18227 6678 59797 1789 4921 134809 430278 32371 9593 12474 29565 17624 4877 2602 2645 1258 594 2586 2374063 5060 93143 280529 432743 108181 54820 61862 4714 4714 4973 4714 4714 248304 1798 10112 44591 2071 86808 4361 3785 1369 18856 9152 9428 633 74806
leaf_count=87738 18227 6678 59797 1789 4921 134809 430278 32371 9593 12474 29565 17624 4877 2602 2645 1258 594 2586 2374063 5060 93143 280529 432743 108181 54820 61862 4714 4714 4973 4714 4714 248304 1798 10112 44591 2071 86808 4361 3785 1369 18856 9152 9428 633 74806
internal_value=0 2.07795 -0.0259136 4.03174 -0.0479227 0.227982 -0.0676849 0.719563 1.07807 1.3942 0.51321 1.53258 1.86918 2.69742 3.16005 1.92558 7.79707 1.25204 -0.0885046 1.66906 0.0616367 -0.0286066 0.00924649 0.0966902 0.15984 0.219667 0.383544 0.100093 0.625096 1.12928 0.915678 -0.115043 1.78191 1.01123 0.0982207 2.07556 0.378122 2.96573 1.26348 4.33526 0.377121 0.688569 0.971026 1.40245 -0.00973441
internal_weight=0 60238 4.75049e+06 13075 4.56421e+06 305030 4.25918e+06 77078 44707 35114 186282 47163 22640 9594 10692 28936 2383 13046 3.78431e+06 23317 227952 1.16194e+06 881415 448672 340491 285671 120460 165211 28543 32722 28008 2.62237e+06 8169 39677 474869 6992 146605 5619 5583 4014 23829 23294 14142 18257 136668
internal_count=4810730 60238 4750492 13075 4564210 305030 4259180 77078 44707 35114 186282 47163 22640 9594 10692 28936 2383 13046 3784311 23317 227952 1161944 881415 448672 340491 285671 120460 165211 28543 32722 28008 2622367 8169 39677 474869 6992 146605 5619 5583 4014 23829 23294 14142 18257 136668
shrinkage=0.1


Tree=7
num_leaves=46
num_cat=0
split_feature=3 3 3 3 4 3 3 18 22 3 18 18 10 3 4 32 17 32 17 22 10 10 25 25 0 25 25 25 0 34 33 33 0 0 26 18 14 30 32 26 25 3 4 25 0
split_gain=512012 130044 87020.2 27930 20992.1 15943.9 6209.6 5306.53 4367.09 3681.13 3602.45 3267.1 3052.73 2684.54 2751.04 7654.93 8203.3 11161.7 3106.21 3304.32 3112.92 3088.55 3157.44 2711.32 2645.84 3232.45 7794.68 3741.91 3535.32 2602.96 4025.08 22312.9 2963.41 5452.45 5309.9 2219.36 2170.18 2289.15 2140.41 2883.46 2345.65 2085.09 2074.02 2047.31 1952.65
threshold=6.5000000000000009 1.5000000000000002 18.500000000000004 3.5000000000000004 18.500000000000004 11.500000000000002 1.0000000180025095e-35 2.5000000000000004 8.5000000000000018 2.5000000000000004 5.5000000000000009 7.5000000000000009 19.500000000000004 1.0000000180025095e-35 1.0000000180025095e-35 1.0000000180025095e-35 1.0000000180025095e-35 0.69250172376632702 1.0000000180025095e-35 11.500000000000002 1.0000000180025095e-35 1.0000000180025095e-35 72.500000000000014 36.500000000000007 23.500000000000004 51.500000000000007 53.500000000000007 67.500000000000014 19.500000000000004 1.0000000180025095e-35 0.51456919312477123 0.50317418575286876 23.500000000000004 19.500000000000004 10.500000000000002 2.5000000000000004 1.0000000180025095e-35 0.74667552113533031 0.97148165106773388 15.500000000000002 41.500000000000007 4.5000000000000009 6.5000000000000009 42.500000000000007 19.500000000000004
decision_type=2 2 2 2 2 2 2 2 2 2 2 2 2 2 2 2 2 2 2 2 2 2 2 2 2 2 2 2 2 2 2 2 2 2 2 2 2 2 2 2 2 2 2 2 2
left_child=1 4 5 7 13 11 -6 9 -4 -3 41 -2 -7 14 15 18 17 21 19 20 29 22 24 44 25 28 -27 -28 -17 30 31 36 33 34 -33 -8 37 -1 -25 40 -40 -5 -16 -35 -19
right_child=2 3 8 10 6 12 35 -9 -10 -11 -12 -13 -14 -15 42 16 -18 23 -20 -21 -22 -23 -24 38 -26 26 27 -29 -30 -31 -32 32 -34 43 -36 -37 -38 -39 39 -41 -42 -43 -44 -45 -46
leaf_value=0.017792606042994596 0.24505128452488645 0.037039033684200418 0.62116075127212866 0.10771364322957021 0.0042109502239819682 0.3490990605641372 0.023159054901437954 0.10370690845240141 0.83097671250468097 0.072270439427015956 0.2210851770038722 0.38004653349553108 0.49325637914811038 0.0011753107618506125 -0.01315629900026833 0.070649365895573121 -0.017594401470771438 0.040274372869021302 -0.01404702797067036 -0.010733046489821357 -0.015717151481087082 -0.023931116068237265 -0.026729681018997503 -0.017152940868392294 0.077969890971987754 0.64034151846514309 0.099149453376261451 0.41185903184956701 0.31739237483719041 -0.016054153672223067 -0.0084952407877739496 0.38908408213292622 0.038840768092283699 0.21136493949549076 0.043064208175369274 0.066209232819088873 -0.017234284851757889 0.10924607367056272 -0.043385558301504229 -0.0035232053157692685 0.1633062414796923 0.15138708048740096 -0.00717953404208192 0.48645966749325836 0.25007749789650296
leaf_weight=136192 18601 107078 3601 23209 415445 3444 175159 18461 2720 41143 4804 2166 4198 243902 1873615 1507 16248 913 375811 260543 61751 660 543 8368 1092 600 1073 588 938 35018 61525 627 610 504 1331 12828 17990 2746 660 3747 2740 22242 841763 1166 860
leaf_count=136192 18601 107078 3601 23209 415445 3444 175159 18461 2720 41143 4804 2166 4198 243902 1873615 1507 16248 913 375811 260543 61751 660 543 8368 1092 600 1073 588 938 35018 61525 627 610 504 1331 12828 17990 2746 660 3747 2740 22242 841763 1166 860
internal_value=0 -0.0273658 3.82343 0.729 -0.0633643 3.06688 0.110362 0.531684 7.17276 0.468403 1.38224 2.60015 4.30994 -0.0898676 -0.0965455 -0.0515961 0.373757 0.741124 -0.0696554 -0.0237613 0.0443985 1.80175 2.01457 0.307593 2.2289 2.55323 3.42074 2.18709 1.69814 0.0927227 0.13258 0.21563 2.4663 2.80536 1.60847 0.261141 0.154075 0.196395 0.171378 0.571409 1.23107 1.29231 -0.113037 4.12053 1.46163
internal_weight=0 4.776e+06 34730 216937 4.55906e+06 28409 603432 166682 6321 148221 50255 20767 7642 3.95563e+06 3.71173e+06 996351 40537 24289 955814 580003 319460 7001 6341 17288 5798 4706 2261 1661 2445 257709 222691 161166 4238 3628 1958 187987 156928 138938 15515 7147 3400 45451 2.71538e+06 1670 1773
internal_count=4810730 4776000 34730 216937 4559063 28409 603432 166682 6321 148221 50255 20767 7642 3955631 3711729 996351 40537 24289 955814 580003 319460 7001 6341 17288 5798 4706 2261 1661 2445 257709 222691 161166 4238 3628 1958 187987 156928 138938 15515 7147 3400 45451 2715378 1670 1773
shrinkage=0.1


Tree=8
num_leaves=46
num_cat=0
split_feature=4 15 15 22 15 8 20 22 20 15 15 24 24 24 24 8 22 20 1 0 25 0 16 15 25 0 25 24 33 33 0 25 24 20 24 25 1 1 17 25 0 22 27 4 24
split_gain=143481 103654 20821.2 17235.6 16597.7 18360.7 10522.1 9790.38 4780.35 4655.98 4229.71 3150.52 9051.57 5314.85 4899.54 3019.17 4915.62 3642.61 3340.78 4199.98 4001.3 7091.79 2745.98 4528.57 4330.06 4300.02 3355.86 2640.95 2508.38 3572.91 2461.39 2410.87 2396.56 2300.7 2293.21 2168.92 2157.58 3436.28 2093.19 2070.1 1958.3 1829.16 1822.84 1799.15 1762.77
threshold=19.500000000000004 5.5000000000000009 19.500000000000004 11.500000000000002 2.5000000000000004 1.0000000180025095e-35 1.0000000180025095e-35 10.500000000000002 1.0000000180025095e-35 10.500000000000002 1.0000000180025095e-35 11.500000000000002 13.500000000000002 25.500000000000004 26.500000000000004 1.0000000180025095e-35 5.5000000000000009 1.0000000180025095e-35 3939.5000000000005 19.500000000000004 35.500000000000007 21.500000000000004 1.0000000180025095e-35 1.0000000180025095e-35 30.500000000000004 21.500000000000004 29.500000000000004 27.500000000000004 0.55053287744522106 0.4394377619028092 14.500000000000002 26.500000000000004 11.500000000000002 1.0000000180025095e-35 13.500000000000002 26.500000000000004 14932.500000000002 17523.500000000004 1.0000000180025095e-35 11.500000000000002 23.500000000000004 8.5000000000000018 0.58008471131324779 9.5000000000000018 29.500000000000004
decision_type=2 2 2 2 2 2 2 2 2 2 2 2 2 2 2 2 2 2 2 2 2 2 2 2 2 2 2 2 2 2 2 2 2 2 2 2 2 2 2 2 2 2 2 2 2
left_child=10 4 6 8 5 11 31 22 35 -8 15 -2 42 -14 -15 16 17 18 19 -1 21 -21 24 -24 25 -7 -27 -16 29 -22 -26 -3 -9 -6 -34 -4 -20 -38 39 -18 -31 -25 -13 -17 -29
right_child=1 2 3 -5 33 7 9 32 -10 -11 -12 12 13 14 27 43 38 -19 36 20 28 -23 23 41 30 26 -28 44 -30 40 -32 -33 34 -35 -36 -37 37 -39 -40 -41 -42 -43 -44 -45 -46
leaf_value=0.014957690161384355 0.039280229246255662 0.042303333763247297 0.045953745149243018 0.73597248610239285 0.064034133196756604 0.071032282811551162 0.21415592017483848 -0.00018904351720730605 0.55286883008942889 0.36626601705186701 0.0023386863499978805 0.16712845792066924 0.042464662114698695 0.29845793712941288 -0.025126728595925026 -0.011656116248441914 0.025602711871586865 -0.01336557584704106 0.0086030115178504056 0.49236645781039839 0.075497394656441522 0.031273558816933417 0.015765049536105673 0.046864042851580044 0.07989157477649203 0.424915357218832 0.078390090092933795 0.15820684021591347 0.024968403024433105 0.30637274932437419 0.037628691466202381 0.14401573142071497 0.03122639466095985 0.10750523068555906 0.011213066051945227 0.27339750426096393 0.32311895698035409 0.027829820901925276 -0.013019437803868905 -0.0040286438029094708 0.054843583129232334 0.1415443628790935 0.075162570746512086 -0.0049167106469479808 0.028542226839640934
leaf_weight=10130 19095 2909 525 1159 22887 1966 9183 110305 573 2752 394380 12819 31832 1418 1420 2109620 24429 24584 35917 631 4703 669 88559 68411 18840 805 456 4265 4622 1255 51900 12901 82245 26880 188606 2636 522 1305 298421 639637 440 2069 2741 487887 1421
leaf_count=10130 19095 2909 525 1159 22887 1966 9183 110305 573 2752 394380 12819 31832 1418 1420 2109620 24429 24584 35917 631 4703 669 88559 68411 18840 805 456 4265 4622 1255 51900 12901 82245 26880 188606 2636 522 1305 298421 639637 440 2069 2741 487887 1421
internal_value=0 0.39562 2.13828 4.03661 0.318508 0.278188 1.7968 0.221104 2.92126 2.5062 -0.0749843 0.745098 0.864929 0.613747 1.31321 -0.0856289 -0.0402975 0.190473 0.32287 0.627928 1.01897 2.65102 0.382571 0.308344 0.541839 1.66728 3.07451 0.961028 0.81525 1.21856 0.489343 1.255 0.122357 0.876 0.172952 2.36957 0.140805 1.18611 -0.0606342 -0.029366 2.44579 0.497433 1.51227 -0.103904 1.26351
internal_weight=0 771578 32638 4893 738940 689173 27745 614162 3734 11935 4.03915e+06 75011 55916 40356 8524 3.64477e+06 1.04726e+06 84778 60194 22450 12320 1300 233006 159039 73967 3227 1261 7106 11020 6398 70740 15810 381156 49767 270851 3161 37744 1827 962487 664066 1695 70480 15560 2.59751e+06 5686
internal_count=4810730 771578 32638 4893 738940 689173 27745 614162 3734 11935 4039152 75011 55916 40356 8524 3644772 1047265 84778 60194 22450 12320 1300 233006 159039 73967 3227 1261 7106 11020 6398 70740 15810 381156 49767 270851 3161 37744 1827 962487 664066 1695 70480 15560 2597507 5686
shrinkage=0.1


Tree=9
num_leaves=46
num_cat=0
split_feature=3 3 3 3 6 3 12 4 6 15 15 3 15 3 21 4 20 31 14 23 21 14 31 1 0 1 1 0 1 21 0 25 15 25 3 15 25 1 6 12 31 12 0 3 23
split_gain=385787 91961.2 67150.8 20705.4 11852.1 9171.44 7061.06 6488.23 4202.72 3485.38 3319.15 2849.35 2665.22 2353.23 2272.68 8729 8697.18 8646.41 5124.97 5114.19 22533.9 7630.98 5075.66 7047.71 4754.93 4653.61 9317.3 5011.97 4410.83 4129.21 2674.3 2396.7 2052.83 1955.21 1943.7 1776.33 1764.96 1895.7 1750.57 1661.43 1552.81 1375.55 1219.79 1197.8 1157.62
threshold=6.5000000000000009 1.5000000000000002 16.500000000000004 3.5000000000000004 1.5000000000000002 10.500000000000002 12.500000000000002 14.500000000000002 2.5000000000000004 3.5000000000000004 2.5000000000000004 1.0000000180025095e-35 2.5000000000000004 19.500000000000004 30.500000000000004 1.0000000180025095e-35 1.0000000180025095e-35 0.5516725778579713 1.0000000180025095e-35 12.500000000000002 19.500000000000004 1.0000000180025095e-35 0.59347611665725719 10133.500000000002 14.500000000000002 7813.0000000000009 4026.5000000000005 20.500000000000004 2320.5000000000005 28.500000000000004 20.500000000000004 45.500000000000007 1.5000000000000002 40.500000000000007 2.5000000000000004 1.5000000000000002 47.500000000000007 7813.0000000000009 3.5000000000000004 1.0000000180025095e-35 0.31067354977130895 1.0000000180025095e-35 21.500000000000004 4.5000000000000009 4.5000000000000009
decision_type=2 2 2 2 2 2 2 2 2 2 2 2 2 2 2 2 2 2 2 2 2 2 2 2 2 2 2 2 2 2 2 2 2 2 2 2 2 2 2 2 2 2 2 2 2
left_child=1 4 5 8 7 12 13 14 34 -7 43 41 -2 -4 15 16 17 19 22 20 -1 25 23 24 -19 26 28 -28 -22 42 -31 -30 -10 -24 44 -6 -35 -38 -12 -16 -41 -9 -26 -5 -3
right_child=2 3 6 10 35 9 -8 11 32 -11 38 -13 -14 -15 39 -17 -18 18 -20 -21 21 -23 33 -25 29 -27 27 -29 31 30 -32 -33 -34 36 -36 -37 37 -39 -40 40 -42 -43 -44 -45 -46
leaf_value=0.010307993613066668 0.18621619729750105 0.015954199423521623 0.39036451548231138 0.08247886303201557 0.017388227616191108 0.29347865127159967 0.76014518805122 -0.0037606534377752931 0.054650018882228563 0.44071599696237213 0.1193387888102258 0.013308851873198801 0.2684526805532696 0.56869401022185151 -0.0094360195748627081 -0.0097968401559016694 -0.012722265843068454 0.0576360895113186 -0.018431837464883246 0.0061379544093884842 0.21423467185344769 -0.028305562693220595 -0.043444453177979819 -0.11382627130402784 0.34248773283537548 0.55658604067672035 0.25181307962331323 -0.061167688645850884 0.69919816466455142 0.38425788918702009 0.11738431990770865 0.35883852614656742 0.10361306906529225 0.24107081680792933 0.056911027318441068 0.044450771696745474 0.033418231787050889 0.24794652683136853 0.19066827633525879 -0.0013536433340172929 0.11609570784222543 0.0092142239193394124 0.63625314311227865 0.11996642056143531 0.038037298265092979
leaf_weight=17342 11944 41016 1585 18450 103984 5667 2098 419493 21472 2756 6918 181678 6634 4046 3078133 294041 41277 674 1836 34297 1012 888 853 442 520 557 909 1063 472 707 878 755 14510 894 32930 31654 2049 473 7795 239146 1081 101420 535 17092 56754
leaf_count=17342 11944 41016 1585 18450 103984 5667 2098 419493 21472 2756 6918 181678 6634 4046 3078133 294041 41277 674 1836 34297 1012 888 853 442 520 557 909 1063 472 707 878 755 14510 894 32930 31654 2049 473 7795 239146 1081 101420 535 17092 56754
internal_value=0 -0.0236585 3.31894 0.612388 -0.0539305 2.56648 5.91414 -0.06286 0.442504 3.43983 1.17483 0.0252733 2.16229 5.22393 -0.0795023 -0.0085337 0.233913 0.455827 1.3185 0.306316 0.670621 2.39444 1.66146 2.50465 3.00051 2.89108 2.47588 0.857117 3.8513 3.59681 2.44597 5.12096 0.745139 0.898961 0.358927 0.237186 1.23367 0.777297 1.57654 -0.0881093 -0.00800667 -0.0123365 5.13598 1.00652 0.28787
internal_weight=0 4.776e+06 34730 216937 4.55906e+06 27001 7729 4.42342e+06 166682 8423 50255 702591 18578 5631 3.72083e+06 402474 108433 67156 9861 57295 22998 5656 8025 3756 3314 4768 4211 1972 2239 2640 1585 1227 35982 4269 130700 135638 3416 2522 14713 3.31836e+06 240227 520913 1055 35542 97770
internal_count=4810730 4776000 34730 216937 4559063 27001 7729 4423425 166682 8423 50255 702591 18578 5631 3720834 402474 108433 67156 9861 57295 22998 5656 8025 3756 3314 4768 4211 1972 2239 2640 1585 1227 35982 4269 130700 135638 3416 2522 14713 3318360 240227 520913 1055 35542 97770
shrinkage=0.1


Tree=10
num_leaves=46
num_cat=0
split_feature=6 6 6 10 18 18 6 8 32 23 23 5 1 1 23 20 36 31 31 1 25 25 6 23 25 0 23 0 1 5 0 1 6 18 18 1 10 25 23 6 23 31 36 1 32
split_gain=171160 41788 32617.6 13233.5 10689.1 7946.73 6574.83 6401.07 6865.68 8008.79 9403.32 6623.68 5972.05 8455.57 5701.98 4603.87 4906.3 22440 7004.01 4315.13 4301.14 4159.56 4111.15 4074.15 3893.37 3376 3101.35 6338.9 5723.34 4201.5 3096.05 2955.78 3193.94 2875.39 2796.57 2729.05 2342.03 2235.24 2222.67 1968.12 1921.94 2063.92 1890.29 1795.79 1734.96
threshold=5.5000000000000009 1.5000000000000002 19.500000000000004 15.500000000000002 4.5000000000000009 2.5000000000000004 1.0000000180025095e-35 1.0000000180025095e-35 1.0000000180025095e-35 10.500000000000002 13.500000000000002 1.0000000180025095e-35 4026.5000000000005 6953.5000000000009 10.500000000000002 1.0000000180025095e-35 1.0000000180025095e-35 0.5516725778579713 0.70693215727806102 2320.5000000000005 35.500000000000007 11.500000000000002 3.5000000000000004 5.5000000000000009 58.500000000000007 24.500000000000004 35.500000000000007 14.500000000000002 10133.500000000002 1.0000000180025095e-35 24.500000000000004 3301.5000000000005 10.500000000000002 1.5000000000000002 1.0000000180025095e-35 6466.5000000000009 1.0000000180025095e-35 45.500000000000007 4.5000000000000009 8.5000000000000018 19.000000000000004 0.44243226945400244 1.0000000180025095e-35 3301.5000000000005 0.69250172376632702
decision_type=2 2 2 2 2 2 2 2 2 2 2 2 2 2 2 2 2 2 2 2 2 2 2 2 2 2 2 2 2 2 2 2 2 2 2 2 2 2 2 2 2 2 2 2 2
left_child=1 6 4 -4 14 22 7 8 15 44 11 12 19 -14 -2 16 17 21 20 -11 35 -1 38 -5 -15 31 27 -22 29 -29 43 -16 -33 42 -9 -19 40 -21 -3 -6 -23 -42 -8 -25 -10
right_child=2 5 3 23 39 -7 33 34 9 10 -12 -13 13 24 25 -17 -18 18 -20 37 26 36 -24 30 -26 -27 -28 28 -30 -31 -32 32 -34 -35 -36 -37 -38 -39 -40 -41 41 -43 -44 -45 -46
leaf_value=0.042422582901425053 0.083074938239341867 0.012656394376862133 0.18755607667392465 0.20967923306309469 0.21922660675460712 0.093090750025549104 0.0049913582539982508 -0.0084671310095692492 0.044456404286344869 0.18171805834754065 -0.0072462620473131862 0.068281169367515715 0.017176583077616478 0.44911809109786227 0.10699498845384303 -0.010023049714173513 -0.012934328821470852 0.14894936745354728 0.015917433505278841 0.64993623473135065 -0.030295582704697684 0.011058349982332518 0.066764669331456333 0.37511440597663986 0.081530683113658062 0.082957658917969357 0.098350928633354887 0.49827385385734407 -0.019471802452425999 0.19910537422328167 0.33066232865642298 0.17825140053433464 0.29242641843954759 0.03331002597022259 0.0015455964745186746 0.42299784798604656 -0.012024409679347505 0.32518348441962502 0.037763262911896273 0.34012132425636477 -0.003340681872469576 0.061416018701650657 0.13133631063835313 0.64455222182882421 -0.0073073473574984853
leaf_weight=27894 12782 59760 1968 493 3412 26777 382981 2683105 8891 1058 6584 6257 2323 872 3664 336679 138765 702 4336 463 780 278107 32630 572 458 3852 6665 1079 473 993 772 9251 3605 40739 311277 943 88667 755 86265 2967 198264 4997 1138 2284 23431
leaf_count=27894 12782 59760 1968 493 3412 26777 382981 2683105 8891 1058 6584 6257 2323 872 3664 336679 138765 702 4336 463 780 278107 32630 572 458 3852 6665 1079 473 993 772 9251 3605 40739 311277 943 88667 755 86265 2967 198264 4997 1138 2284 23431
internal_value=0 -0.0179289 1.9272 4.076 1.59148 0.423202 -0.0378083 -0.0499808 0.0137733 0.371862 0.890476 1.409 2.16307 1.34071 1.35954 -0.00303698 0.0404417 0.0788286 1.24679 3.42534 1.6496 0.0475285 0.346861 5.0915 3.30148 1.68843 1.38976 2.17715 2.92884 3.63015 5.46414 1.88552 2.11284 0.080647 -0.0742623 3.13951 0.029058 4.69472 0.274969 2.77681 0.0565708 -0.0173349 0.0538298 5.98006 0.0697519
internal_weight=0 4.76511e+06 45622 6089 39533 205432 4.55968e+06 4.13482e+06 1.14044e+06 51092 18770 12186 5929 3653 33154 1.08934e+06 752665 613900 15971 2276 11635 597929 178655 4121 1330 20372 9990 3325 2545 2072 3628 16520 12856 424858 2.99438e+06 1645 570035 1218 146025 6379 481368 203261 384119 2856 32322
internal_count=4810730 4765108 45622 6089 39533 205432 4559676 4134818 1140436 51092 18770 12186 5929 3653 33154 1089344 752665 613900 15971 2276 11635 597929 178655 4121 1330 20372 9990 3325 2545 2072 3628 16520 12856 424858 2994382 1645 570035 1218 146025 6379 481368 203261 384119 2856 32322
shrinkage=0.1


Tree=11
num_leaves=46
num_cat=0
split_feature=3 3 3 3 3 15 3 35 8 16 35 2 19 2 2 15 21 23 0 15 0 15 23 15 19 23 21 21 8 2 2 25 0 0 8 0 15 8 3 23 8 25 2 35 21
split_gain=283149 65856 50951.4 17559 10865.5 5396.18 5010.35 3056.27 5630.66 5670.8 4767.95 5154.88 6625.78 4656.11 3047.6 2675.09 2653.86 2582.8 2336.75 2238.22 2192.38 2063.85 2033.03 2010.76 1968.05 1910.73 1636.58 1571.34 1647.88 1552.99 1729.3 1477.93 1457.1 1391.11 1360.17 1238.42 1196.39 1155.28 1069.59 1054.4 982.626 973.093 904.2 889.502 1037.58
threshold=6.5000000000000009 2.5000000000000004 19.500000000000004 1.0000000180025095e-35 11.500000000000002 1.5000000000000002 4.5000000000000009 0.45506027340888983 1.0000000180025095e-35 1.0000000180025095e-35 0.67097818851470958 32.000000000000007 1.0000000180025095e-35 24.500000000000004 34.500000000000007 3.5000000000000004 69.500000000000014 4.5000000000000009 15.500000000000002 1.0000000180025095e-35 23.500000000000004 3.5000000000000004 7.5000000000000009 3.5000000000000004 1.0000000180025095e-35 60.500000000000007 29.500000000000004 70.500000000000014 11.000000000000002 47.500000000000007 41.500000000000007 35.500000000000007 23.500000000000004 19.500000000000004 1.0000000180025095e-35 13.500000000000002 5.5000000000000009 1.0000000180025095e-35 1.5000000000000002 4.5000000000000009 1.0000000180025095e-35 26.500000000000004 24.500000000000004 0.64058494567871105 21.500000000000004
decision_type=2 2 2 2 2 2 2 2 2 2 2 2 2 2 2 2 2 2 2 2 2 2 2 2 2 2 2 2 2 2 2 2 2 2 2 2 2 2 2 2 2 2 2 2 2
left_child=1 3 4 7 21 17 23 19 9 10 11 12 13 32 -13 26 -4 37 -16 -1 24 27 -7 34 29 38 -6 28 -2 30 -20 33 35 -12 -3 -9 40 -5 -19 -36 42 -30 -8 44 -37
right_child=2 6 16 5 15 22 36 8 -10 -11 31 14 -14 -15 18 -17 -18 25 20 -21 -22 -23 -24 -25 -26 -27 -28 -29 41 -31 -32 -33 -34 -35 39 43 -38 -39 -40 -41 -42 -43 -44 -45 -46
leaf_value=-0.0073798996247286062 0.221819032850925 0.097777817272068857 0.50815601282451628 0.023994554629013544 0.20956889041029056 0.015806259750889104 0.074982189272620792 0.018346745422759065 -0.0029875036561815378 -0.016685481765214557 -0 -0.081119615615035279 -0.0010578577706204636 0.34946567608742485 0.0019693697871391116 0.41555438472112166 0.71964657470825699 0.012192606757110112 0.13204207992561609 0.001165840203518505 -0.0023346516171844221 0.23838204788950815 0.049002616339471596 0.10272684185321096 -0.017753343114444098 0.12911633743212034 0.33108634771040224 0.34082127184514982 0.077318943661536646 0.099882797121174871 0.33172906630074178 0.00783311955002685 0.018367149838608716 0.23743890783935126 0.031057648136932126 0.20224497525549168 0.16872403628085222 -0.00018133921302250809 0.02869279744602192 0.061750625854141067 0.097755133177259187 0.15507329919610491 0.19425205766898346 0.27443976844279544 0.062782323495643083
leaf_weight=3545248 3400 7611 4647 21611 2332 28941 1011 478 194356 15484 439 1613 2220 1541 3717 2633 1121 170339 1070 335447 1539 6480 51207 12252 714 1455 3230 496 2210 2213 845 15531 752 512 16292 1563 3987 225865 51108 37099 17806 8181 2242 1000 892
leaf_count=3545248 3400 7611 4647 21611 2332 28941 1011 478 194356 15484 439 1613 2220 1541 3717 2633 1121 170339 1070 335447 1539 6480 51207 12252 714 1455 3230 496 2210 2213 845 15531 752 512 16292 1563 3987 225865 51108 37099 17806 8181 2242 1000 892
internal_value=0 -0.0201496 2.84349 -0.0371763 2.29558 0.130569 0.789677 -0.0595535 0.0484142 0.340107 0.554317 0.879944 1.47356 1.99879 0.447294 3.27506 5.55107 0.0896769 0.651424 -0.0664118 1.01624 1.90207 0.370342 0.656804 1.34374 0.167743 2.82476 1.67595 1.60149 1.60608 2.26404 0.154567 1.47485 1.33249 0.581602 1.71607 1.17618 0.0193385 0.160068 0.524245 1.07561 1.38995 1.58911 1.92218 1.53877
internal_weight=0 4.776e+06 34730 4.6777e+06 28962 550526 98300 4.12717e+06 246479 52123 36639 20157 8446 6226 11711 8195 5768 470378 10098 3.8807e+06 6381 20767 80148 73254 4842 222902 5562 14287 13791 4128 1915 16482 4685 951 61002 3933 25046 247476 221447 53391 21059 10391 3253 3455 2455
internal_count=4810730 4776000 34730 4677700 28962 550526 98300 4127174 246479 52123 36639 20157 8446 6226 11711 8195 5768 470378 10098 3880695 6381 20767 80148 73254 4842 222902 5562 14287 13791 4128 1915 16482 4685 951 61002 3933 25046 247476 221447 53391 21059 10391 3253 3455 2455
shrinkage=0.1


Tree=12
num_leaves=46
num_cat=0
split_feature=3 3 3 3 3 3 4 12 4 12 12 12 4 35 16 35 25 21 21 1 0 1 0 25 0 25 25 21 12 0 0 32 21 1 1 8 12 8 8 14 25 6 25 21 0
split_gain=231037 63311.2 33318.6 14223.6 6096.49 5597.76 4997.61 3097.32 2572.82 2434.47 2137.41 1859.26 1794.62 7015.13 7991.37 5294.08 3899.61 4933.02 5391.01 4379.95 7390.96 7836.64 6324.18 5999.26 2790.89 2284.75 1874.86 1775.48 1732.21 1440.97 7203.31 1425.01 5824.9 6651.42 2358.22 1379.97 1359.34 1317.32 1105.82 1066.79 1596.03 1010.79 999.433 995.046 991.233
threshold=7.5000000000000009 2.5000000000000004 19.500000000000004 1.0000000180025095e-35 4.5000000000000009 12.500000000000002 19.500000000000004 1.5000000000000002 13.500000000000002 14.500000000000002 3.5000000000000004 2.5000000000000004 1.0000000180025095e-35 0.45506027340888983 1.0000000180025095e-35 0.67097818851470958 33.500000000000007 29.500000000000004 19.500000000000004 3939.5000000000005 21.500000000000004 2708.5000000000005 20.500000000000004 53.500000000000007 21.500000000000004 48.500000000000007 35.500000000000007 69.500000000000014 1.0000000180025095e-35 23.500000000000004 22.500000000000004 0.97148165106773388 19.500000000000004 4304.5000000000009 4476.0000000000009 11.000000000000002 5.5000000000000009 1.0000000180025095e-35 1.0000000180025095e-35 1.0000000180025095e-35 11.500000000000002 1.0000000180025095e-35 66.500000000000014 36.000000000000007 15.500000000000002
decision_type=2 2 2 2 2 2 2 2 2 2 2 2 2 2 2 2 2 2 2 2 2 2 2 2 2 2 2 2 2 2 2 2 2 2 2 2 2 2 2 2 2 2 2 2 2
left_child=1 3 5 8 11 10 41 38 12 -4 35 37 13 31 15 16 24 18 -18 20 21 -20 23 25 -15 -21 -17 36 -10 30 -6 39 -33 -34 -35 -2 -7 -3 -8 40 -1 -5 -22 -40 -19
right_child=2 4 9 6 29 27 7 -9 28 -11 -12 -13 -14 14 -16 26 17 44 19 22 42 -23 -24 -25 -26 -27 -28 -29 -30 -31 -32 32 33 34 -36 -37 -38 -39 43 -41 -42 -43 -44 -45 -46
leaf_value=0.0240468417815385 0.22786955232745992 0.088237250875280532 0.44639635047208626 -0.0011755784132959817 0.10671146013750935 0.25086675272449649 0.037466257080740244 0.042548206230842427 -0.0021720644361536297 0.6220995527426525 0.24638572381933949 0.086217023732695672 -0.0078345235005631338 0.35557297503486901 -0.014859899067990526 0.18094919344190347 0.034617465870517977 -0.045980943119848745 -0.058603905081994589 0.22609054994870151 0.3383442261964083 0.4338525578605128 -0.026873213665447499 0.017281901028823772 0.057502756356089202 0.54097390215857766 0.0086962715331067204 0.50399477785113744 0.010727723920741634 0.071981083422252817 0.30359547585523655 0.00011682959737532774 0.46024067276264313 -0.047847609401762081 0.20454554008348455 0.14131263429015889 0.36816528827565209 0.043282456498759087 0.022585499565927397 -0.0094387609953323261 -0.0035449614492302842 0.011809199005237789 0.59782546712947626 0.0075828256457640244 0.043607737118507871
leaf_weight=21741 2779 7612 4149 203046 22525 4126 21573 56162 489113 1619 5743 18884 2509524 957 19489 619 3612 1884 860 634 650 458 1657 753 490 488 11562 485 132186 7380 1999 11694 560 818 604 7145 1826 46758 73392 360532 552417 85006 501 111347 3371
leaf_count=21741 2779 7612 4149 203046 22525 4126 21573 56162 489113 1619 5743 18884 2509524 957 19489 619 3612 1884 860 634 650 458 1657 753 490 488 11562 485 132186 7380 1999 11694 560 818 604 7145 1826 46758 73392 360532 552417 85006 501 111347 3371
internal_value=0 -0.0161841 2.86872 -0.0334385 0.750976 2.30077 0.117536 0.217336 -0.0535785 5.00654 1.96532 0.591328 -0.0640891 -0.0281787 0.344651 0.681699 1.05331 0.894509 1.31861 1.89606 2.91151 1.22052 1.15521 2.3884 2.59996 3.80367 0.181617 3.09563 0.00572943 1.11601 1.23349 -0.0470612 0.272811 1.83557 0.625958 1.66582 2.89636 0.496534 0.16058 -0.0517568 -0.02498 0.0265735 4.71559 0.13548 0.113393
internal_weight=0 4.78286e+06 27872 4.6777e+06 105158 22104 550526 262474 4.12717e+06 5768 15667 73254 3.50588e+06 996351 47985 28496 16315 14868 9613 6001 2469 1318 3532 1875 1447 1122 12181 6437 621299 31904 24524 948366 13676 1982 1422 9924 5952 54370 206312 934690 574158 288052 1151 184739 5255
internal_count=4810730 4782858 27872 4677700 105158 22104 550526 262474 4127174 5768 15667 73254 3505875 996351 47985 28496 16315 14868 9613 6001 2469 1318 3532 1875 1447 1122 12181 6437 621299 31904 24524 948366 13676 1982 1422 9924 5952 54370 206312 934690 574158 288052 1151 184739 5255
shrinkage=0.1


Tree=13
num_leaves=46
num_cat=0
split_feature=12 15 12 15 19 19 16 12 32 25 19 25 25 19 32 5 1 25 1 0 0 12 11 25 33 33 25 5 0 31 1 31 10 25 1 25 25 25 33 32 1 5 0 25 12
split_gain=62932.4 16192.9 11959.4 9681.33 5922.19 4847.34 4380.34 5358.05 4262.32 4436.44 4246.61 3069.4 2852.88 2438.65 2426.25 2825.72 2323.39 2343.9 2201.54 2179.94 1940.32 1896.75 1836.21 2440.63 2003.12 11462.4 5251.61 4307.29 4864.7 3207.84 2418.8 2080.34 1906.03 1795.9 3524.07 1765.92 1547.79 1514.6 1484.57 1400.58 1909.34 4072.09 1663.1 1357.16 1335.69
threshold=3.5000000000000004 8.5000000000000018 16.500000000000004 1.5000000000000002 17.500000000000004 19.500000000000004 1.0000000180025095e-35 1.0000000180025095e-35 1.0000000180025095e-35 30.500000000000004 19.500000000000004 27.500000000000004 29.500000000000004 1.0000000180025095e-35 0.69250172376632702 1.0000000180025095e-35 7723.5000000000009 55.500000000000007 5152.5000000000009 21.500000000000004 24.500000000000004 1.5000000000000002 1.0000000180025095e-35 11.500000000000002 0.51456919312477123 0.50317418575286876 31.500000000000004 1.0000000180025095e-35 14.500000000000002 0.44243226945400244 7813.0000000000009 0.6581309735774995 19.500000000000004 60.500000000000007 6386.5000000000009 68.500000000000014 25.500000000000004 25.500000000000004 0.28987123072147375 0.97148165106773388 3734.5000000000005 1.0000000180025095e-35 21.500000000000004 73.500000000000014 19.500000000000004
decision_type=2 2 2 2 2 2 2 2 2 2 2 2 2 2 2 2 2 2 2 2 2 2 2 2 2 2 2 2 2 2 2 2 2 2 2 2 2 2 2 2 2 2 2 2 2
left_child=3 10 5 6 -4 -3 8 -8 13 11 37 -10 -13 22 15 16 18 -18 35 -12 38 -5 23 -1 25 29 -27 28 -28 -25 33 -31 -24 34 -30 -11 -34 -2 -21 -16 41 42 -41 -29 -39
right_child=1 2 4 21 -6 -7 7 -9 9 14 19 12 -14 -15 39 -17 17 -19 -20 20 -22 -23 32 24 -26 26 27 43 30 31 -32 -33 36 -35 -36 -37 -38 44 -40 40 -42 -43 -44 -45 -46
leaf_value=0.032100883824320664 0.012710465896477645 0.086104737622385352 0.23011400771300061 0.014342939440652415 0.49488126071677369 0.22139657318712175 -0.0063389215375664072 0.0060979977483375022 0.015237225310131573 0.079349601463068853 0.078417708844777154 0.35734224452601482 0.08727454396787955 -0.0082933534477360356 -0.0076246423477003208 0.025148877125404603 0.31179271848131784 0.029649492262097277 -0.037036941653111048 0.23515316824924937 0.06992416432549857 0.036446814658289431 -0.0069281780468499468 0.0036048475175342412 -0.0063648798150720762 0.27623244073138498 -0.092132203098125504 0.040677668222696063 0.069772516404966775 0.068379250878473019 0.023735784665935084 0.0020067076740842129 -0.0070658718247760578 0.4326956296393708 0.39459824767648055 0.27129872131989596 0.015372676993747812 0.051105254255710122 0.11619520439490415 0.10759160822247166 0.013184583887140569 0.014688531918917728 0.34125151446883512 -0.12826478195550003 0.12990324937487724
leaf_weight=32424 10245 8898 2581 125315 1367 3804 2533762 401211 1057 3423 14472 838 777 254602 28495 18704 853 455 1385 2588 2302 56301 317051 614315 147895 1629 528 4497 831 12803 453 7475 47927 570 542 528 85540 29752 2054 678 23785 2605 630 482 2301
leaf_count=32424 10245 8898 2581 125315 1367 3804 2533762 401211 1057 3423 14472 838 777 254602 28495 18704 853 455 1385 2588 2302 56301 317051 614315 147895 1629 528 4497 831 12803 453 7475 47927 570 542 528 85540 29752 2054 678 23785 2605 630 482 2301
internal_value=0 0.877801 1.75491 -0.0143357 3.26858 1.27339 -0.0233765 -0.0463868 0.018472 0.23743 0.647379 1.49362 2.33992 0.00640886 0.195364 0.451889 1.00981 2.18425 0.704129 1.01013 1.47193 0.212038 0.0242533 0.0523062 0.0412851 0.0653832 1.15096 0.803413 1.75598 0.0489861 2.35316 0.439826 -0.027081 2.82761 2.07429 1.08096 0.0731478 0.462713 1.84337 0.0793316 0.239271 0.882099 2.28629 0.231904 0.569586
internal_weight=0 80364 16650 4.73037e+06 3948 12702 4.54875e+06 2.93497e+06 1.61378e+06 84213 63714 2672 1615 1.52956e+06 81541 25348 6644 1308 5336 21416 6944 181616 1.27496e+06 824444 792020 644125 9532 7903 2924 634593 2396 20278 450518 1943 1373 3951 133467 42298 4642 56193 27698 3913 1308 4979 32053
internal_count=4810730 80364 16650 4730366 3948 12702 4548750 2934973 1613777 84213 63714 2672 1615 1529564 81541 25348 6644 1308 5336 21416 6944 181616 1274962 824444 792020 644125 9532 7903 2924 634593 2396 20278 450518 1943 1373 3951 133467 42298 4642 56193 27698 3913 1308 4979 32053
shrinkage=0.1


Tree=14
num_leaves=46
num_cat=0
split_feature=6 6 9 9 9 21 11 21 6 20 21 35 18 6 1 1 21 5 0 21 5 1 0 0 20 0 21 9 18 1 21 21 5 1 1 0 1 11 9 14 30 9 6 1 0
split_gain=88628.2 26841.9 15777.4 13962.8 7178.53 4309.41 5330.08 4205.95 3477.3 3453.88 3599.7 3192.02 2838.98 2688.46 2326.35 4314.64 3822.46 4242.73 2438.88 3589.25 3444.07 2238.5 2076.88 2750.18 1992.04 1752.06 1556.42 1502.05 1483.12 1480.12 1372.25 5869.22 9736.48 3902.93 5078.74 3573.21 3427.15 1272.48 1392.51 1291.86 1261.47 1259.87 1235.36 1217.54 1178.56
threshold=3.5000000000000004 12.500000000000002 9.5000000000000018 1.5000000000000002 3.5000000000000004 30.500000000000004 1.0000000180025095e-35 69.500000000000014 6.5000000000000009 1.0000000180025095e-35 27.500000000000004 0.64058494567871105 1.5000000000000002 1.0000000180025095e-35 6466.5000000000009 7893.5000000000009 29.500000000000004 1.0000000180025095e-35 19.500000000000004 28.500000000000004 11.000000000000002 6953.5000000000009 24.500000000000004 21.500000000000004 1.0000000180025095e-35 22.500000000000004 31.500000000000004 4.5000000000000009 1.0000000180025095e-35 6953.5000000000009 20.500000000000004 19.500000000000004 1.0000000180025095e-35 7813.0000000000009 4026.5000000000005 20.500000000000004 2320.5000000000005 1.0000000180025095e-35 1.0000000180025095e-35 1.0000000180025095e-35 0.74667552113533031 1.0000000180025095e-35 1.0000000180025095e-35 9295.5000000000018 16.500000000000004
decision_type=2 2 2 2 2 2 2 2 2 2 2 2 2 2 2 2 2 2 2 2 2 2 2 2 2 2 2 2 2 2 2 2 2 2 2 2 2 2 2 2 2 2 2 2 2
left_child=3 4 27 5 -2 6 9 22 28 10 30 40 42 37 18 16 17 -16 44 20 -20 -18 23 29 -10 -21 -15 -3 -6 -4 31 -1 33 34 36 -36 -33 39 -39 43 -12 -8 -5 -7 -13
right_child=1 2 7 12 8 13 41 -9 24 -11 11 14 -14 26 15 -17 21 -19 19 25 -22 -23 -24 -25 -26 -27 -28 -29 -30 -31 -32 32 -34 -35 35 -37 -38 38 -40 -41 -42 -43 -44 -45 -46
leaf_value=0.012397946091355165 0.049898929323314266 0.098636710416593068 0.3450706949857798 0.0083789011071481716 0.064457987975683181 -0.0054127151192122566 -0.0034172584660736626 0.51699038478224224 0.12127562332429712 -0.0072929957176868856 0.017692624856935363 0.039982915237577479 0.050659944186248723 0.11871393266499031 0.3237419748114439 -0.006376900466120633 0.20740533228018287 0.020806874052424561 0.44989615048564124 0.15461875968444683 0.079410058198513336 0.54704588452056047 0.15378986355099264 0.53293724672611698 0.20441366567982802 -0.032412174562468282 0.0037664848571764202 0.21034843760118768 0.12449120710071265 0.18989143574712128 0.0064199613578783416 0.12406270617118194 0.017503537058119009 0.44230052280980836 0.1920681900465554 -0.073219222387307006 0.37672493525821871 -0.0069545186007860353 0.0014255091834903411 -0.0084302288830450777 0.074813051750502582 0.0094613892152370996 0.026429120934855357 0.0025857557706652524 -0.097340717071347171
leaf_weight=43239 41608 5054 1968 64722 12294 293113 365935 1282 8044 36061 13087 2016 34503 1132 719 1067 482 1180 501 809 510 450 916 620 4859 1167 355561 1641 6363 1242 47381 1058 7212 557 860 1105 1218 2246747 217450 248673 5470 95803 91790 542415 846
leaf_count=43239 41608 5054 1968 64722 12294 293113 365935 1282 8044 36061 13087 2016 34503 1132 719 1067 482 1180 501 809 510 450 916 620 4859 1167 355561 1641 6363 1242 47381 1058 7212 557 860 1105 1218 2246747 217450 248673 5470 95803 91790 542415 846
internal_value=0 1.00697 2.34533 -0.0177392 0.772787 -0.0288987 0.0479329 3.51489 1.13236 0.201006 0.276458 0.591947 0.247069 -0.0412695 1.05421 1.65018 2.2864 1.40918 0.646248 1.27045 2.75648 3.91001 3.01839 3.34784 1.5326 0.460375 0.0414815 1.27389 0.852158 2.88893 0.189195 0.296216 0.913142 2.00916 1.64405 0.447215 2.64509 -0.0495886 -0.0621498 -0.0210368 0.34691 -0.007442 0.189706 -0.00220238 -0.0154965
internal_weight=0 85891 12723 4.72484e+06 73168 4.53382e+06 628733 6028 31560 166995 130934 28304 191015 3.90509e+06 9747 3898 2831 1899 5849 2987 1011 932 4746 3830 12903 1976 356693 6695 18657 3210 102630 55249 12010 4798 4241 1965 2276 3.5484e+06 2.4642e+06 1.0842e+06 18557 461738 156512 835528 2862
internal_count=4810730 85891 12723 4724839 73168 4533824 628733 6028 31560 166995 130934 28304 191015 3905091 9747 3898 2831 1899 5849 2987 1011 932 4746 3830 12903 1976 356693 6695 18657 3210 102630 55249 12010 4798 4241 1965 2276 3548398 2464197 1084201 18557 461738 156512 835528 2862
shrinkage=0.1


Tree=15
num_leaves=46
num_cat=0
split_feature=3 3 3 3 3 3 9 9 9 9 9 21 4 9 9 1 21 10 21 5 19 31 2 2 2 2 2 14 21 21 2 18 31 4 2 2 31 21 2 2 2 2 2 2 21
split_gain=160357 41436.2 23733.6 9050.82 4157.5 4106.14 3905.21 2122.4 1937.43 1848.03 1647.54 1441.01 1423.97 1394.59 1367.81 1205.76 1035.24 1162.97 997.133 2955.09 3368.97 3387.57 2566.7 2228.98 1758.84 2301.82 1757.91 1630.46 1039.36 5427.17 1029.53 984.515 866.907 858.68 735.145 870.785 991.92 922.473 749.394 709.605 1573.37 2171.08 690.466 1143.38 647.616
threshold=7.5000000000000009 2.5000000000000004 19.500000000000004 1.0000000180025095e-35 12.500000000000002 4.5000000000000009 1.5000000000000002 1.0000000180025095e-35 5.5000000000000009 3.5000000000000004 14.500000000000002 29.500000000000004 17.500000000000004 2.5000000000000004 4.5000000000000009 2784.5000000000005 48.000000000000007 1.0000000180025095e-35 30.500000000000004 1.0000000180025095e-35 1.0000000180025095e-35 0.5516725778579713 32.000000000000007 21.500000000000004 32.000000000000007 24.500000000000004 34.500000000000007 11.000000000000002 20.500000000000004 19.500000000000004 34.500000000000007 1.5000000000000002 1.0000000180025095e-35 16.500000000000004 24.500000000000004 32.000000000000007 0.5641658902168275 30.500000000000004 30.500000000000004 38.500000000000007 40.500000000000007 43.500000000000007 24.500000000000004 28.500000000000004 20.500000000000004
decision_type=2 2 2 2 2 2 2 2 2 2 2 2 2 2 2 2 2 2 2 2 2 2 2 2 2 2 2 2 2 2 2 2 2 2 2 2 2 2 2 2 2 2 2 2 2
left_child=1 3 4 7 9 13 12 18 11 16 15 -6 34 -3 -7 -4 -2 -18 19 20 21 24 23 -23 25 44 -24 28 29 -27 -26 -8 -20 -9 -5 38 -37 -38 -36 -28 -41 -42 -14 -44 -1
right_child=2 5 10 6 8 14 31 33 -10 -11 -12 -13 42 -15 -16 -17 17 -19 32 -21 -22 22 26 -25 30 27 39 -29 -30 -31 -32 -33 -34 -35 35 36 37 -39 -40 40 41 -43 43 -45 -46
leaf_value=0.038966468788020778 0.11219377431568441 0.038457234035200377 0.20785667824260601 -0.0089939223801417303 0.13044045841370588 0.077148215569162723 0.022770390721652004 -0.0004127232528157451 0.3306729840604552 0.20154497845513367 0.50968930959760994 0.26122209198138097 0.003898830341351662 0.068590085925127234 0.12345810676173118 0.39533392013088414 0.2982949323049322 0.11874727363646392 -0.005134404852316493 -0.0051679354800916177 -0.0089911128362531508 0.086589754142181591 -0.11009970252843658 0.24280563127313753 -0.04877579067922088 0.071233866794408116 0.16878673598248187 -0.011306646939637639 0.067803167777216608 0.40095478430096254 0.0089726222480557283 0.048374009761828755 -0.010703075956217986 0.0098835720844935374 0.0065097241095651822 -0.0031908294915510942 -0.0088774746844407035 0.10984290744086456 0.031276658204595714 -0.073290049565035889 0.26757266644812278 0.041290058692700221 0.03921803171576782 0.012137082353891666 0.0015029113954814974
leaf_weight=8962 7122 51071 590 63527 1605 22701 73874 257385 2526 6921 1877 2306 78263 22183 9203 3301 703 921 3001937 336290 39578 2752 664 1399 3428 1966 476 1313 2768 634 27417 18905 308320 118127 48197 110777 1138 1464 16341 864 451 2967 17892 120148 9476
leaf_count=8962 7122 51071 590 63527 1605 22701 73874 257385 2526 6921 1877 2306 78263 22183 9203 3301 703 921 3001937 336290 39578 2752 664 1399 3428 1966 476 1313 2768 634 27417 18905 308320 118127 48197 110777 1138 1464 16341 864 451 2967 17892 120148 9476
internal_value=0 -0.0133803 2.39006 -0.0273392 1.91084 0.607253 0.0930932 -0.0434049 2.59493 1.62235 4.19416 2.09901 0.0551572 0.476241 0.906821 3.6993 1.30147 2.03118 -0.0505794 -0.0059307 0.140377 0.279426 0.827662 1.41526 0.184973 0.381144 0.368804 0.881918 1.12427 1.57721 0.0248289 0.280118 -0.0565326 0.0282686 0.00235821 0.0353355 -0.0174448 0.586937 0.128016 0.583446 0.44238 0.746038 0.114074 0.156608 0.19774
internal_weight=0 4.78286e+06 27872 4.6777e+06 22104 105158 550526 4.12717e+06 6437 15667 5768 3911 457747 73254 31904 3891 8746 1624 3.75166e+06 441405 105115 65537 9573 4151 55964 25119 5422 6681 5368 2600 30845 92779 3.31026e+06 375512 241444 177917 113379 2602 64538 4758 4282 3418 216303 138040 18438
internal_count=4810730 4782858 27872 4677700 22104 105158 550526 4127174 6437 15667 5768 3911 457747 73254 31904 3891 8746 1624 3751662 441405 105115 65537 9573 4151 55964 25119 5422 6681 5368 2600 30845 92779 3310257 375512 241444 177917 113379 2602 64538 4758 4282 3418 216303 138040 18438
shrinkage=0.1


Tree=16
num_leaves=46
num_cat=0
split_feature=9 9 9 15 15 11 9 18 14 2 2 2 2 2 2 33 33 2 2 22 32 33 33 33 33 2 2 16 22 8 18 9 18 18 18 16 16 33 33 8 22 34 27 8 22
split_gain=52089.3 13631.7 7686.25 7298.58 5306.41 3771.87 3735.97 3338.01 2520.14 2890.16 13481.7 5601.91 5470.44 5247.04 4512.28 2614.9 2411.84 2190.56 2631.88 2085.25 2037.77 1923.42 2076.63 1700.89 1701.72 1629.97 3933.72 1582.16 1700.87 2547.95 1474.17 1341.18 1284.02 1250.03 1237.14 1199.27 1160.32 1178.15 1481.2 1149.88 1394.67 1531.53 1107.55 1082.94 1652.74
threshold=3.5000000000000004 18.500000000000004 1.0000000180025095e-35 3.5000000000000004 12.500000000000002 1.0000000180025095e-35 8.5000000000000018 1.5000000000000002 1.0000000180025095e-35 32.000000000000007 24.500000000000004 30.500000000000004 53.500000000000007 25.500000000000004 54.500000000000007 0.51456919312477123 0.38471034169197088 28.500000000000004 26.500000000000004 14.500000000000002 1.0000000180025095e-35 0.51456919312477123 0.38471034169197088 0.51456919312477123 0.4394377619028092 41.500000000000007 42.500000000000007 1.0000000180025095e-35 11.500000000000002 11.000000000000002 1.0000000180025095e-35 2.5000000000000004 2.5000000000000004 1.0000000180025095e-35 1.5000000000000002 1.0000000180025095e-35 1.0000000180025095e-35 0.51456919312477123 0.38471034169197088 11.000000000000002 11.500000000000002 1.0000000180025095e-35 0.88708612322807323 11.000000000000002 11.500000000000002
decision_type=2 2 2 2 2 2 2 2 2 2 2 2 2 2 2 2 2 2 2 2 2 2 2 2 2 2 2 2 2 2 2 2 2 2 2 2 2 2 2 2 2 2 2 2 2
left_child=2 3 5 19 -3 8 34 31 9 10 32 13 25 21 23 16 27 18 -15 42 36 22 35 24 43 -11 -27 28 29 -13 -7 -4 -1 -8 -5 39 37 38 -20 40 41 -12 -2 44 -14
right_child=1 4 7 6 -6 30 33 -9 -10 12 11 15 14 17 -16 -17 -18 -19 20 -21 -22 -23 -24 -25 -26 26 -28 -29 -30 -31 -32 -33 -34 -35 -36 -37 -38 -39 -40 -41 -42 -43 -44 -45 -46
leaf_value=-0.0010717796394993805 0.045068146677798938 0.15275128686483228 0.0051551588471858258 0.064338384244763513 0.34797474151593133 -0.0056764627632822943 0.12925103461686258 0.02953528933120568 -0.0068041259194337594 -0.012850719562806862 0.1768281424566599 0.18337911859008973 0.12654635790565993 0.00048399697351205563 0.0097652043044725422 0.007091269550390549 0.28498277156616986 -0.00037187875354879277 0.052533937905107665 0.18084990720328209 0.1447117649199133 0.0076481421587156545 0.25846005126979271 -0.0013000796702816054 0.24536810798073283 0.043445415277665718 -0.0042054187639150864 0.0080349302261459588 0.068872261396056692 0.049327034185511938 0.0016203481955179054 0.025129848072139045 0.14980493641400758 0.21776004221660994 0.11667531682184765 0.0067315629202268305 -0.007016331101567793 0.005685126601951699 0.20109014230804323 0.047654432482283827 0.071030166833263339 0.022496472998617689 -0.010036850229468304 0.030664982309082253 0.044797811250192311
leaf_weight=337172 46570 4786 468610 11715 2026 2537653 3893 72467 278914 193583 3895 4684 5416 18689 93445 3323 674 36345 24830 1041 1956 3323 674 3323 540 18689 229467 1812 6102 2094 310735 36172 515 3209 7653 1812 4422 5522 648 3907 4289 789 3936 4733 4677
leaf_count=337172 46570 4786 468610 11715 2026 2537653 3893 72467 278914 193583 3895 4684 5416 18689 93445 3323 674 36345 24830 1041 1956 3323 674 3323 540 18689 229467 1812 6102 2094 310735 36172 515 3209 7653 1812 4422 5522 648 3907 4289 789 3936 4733 4677
internal_value=0 0.776999 -0.013388 0.657613 2.12941 -0.0284318 1.0842 0.0947218 0.0161954 0.0392022 0.0971006 0.370957 -0.00966746 0.285478 0.187532 0.876932 1.05038 0.187508 0.311379 0.437695 0.464411 0.76807 0.916833 0.63542 0.775298 -0.0597438 -0.00608331 0.958375 1.08103 1.42644 -0.0488039 0.0658906 -0.00819241 1.705 0.852709 0.831749 0.408155 0.47642 0.567027 0.938538 1.13583 1.51365 0.407661 0.706058 0.890823
internal_weight=0 84829 4.7259e+06 78017 6812 4.14865e+06 26470 577249 1.30026e+06 1.02135e+06 467477 129790 553873 111101 112134 18689 15366 92412 56067 51547 37378 18689 15366 18689 15366 441739 248156 14692 12880 6778 2.84839e+06 504782 337687 7102 19368 14692 35422 31000 25478 12880 8973 4684 50506 14826 10093
internal_count=4810730 84829 4725901 78017 6812 4148652 26470 577249 1300264 1021350 467477 129790 553873 111101 112134 18689 15366 92412 56067 51547 37378 18689 15366 18689 15366 441739 248156 14692 12880 6778 2848388 504782 337687 7102 19368 14692 35422 31000 25478 12880 8973 4684 50506 14826 10093
shrinkage=0.1


Tree=17
num_leaves=46
num_cat=0
split_feature=3 3 3 3 4 21 21 3 9 36 36 4 9 8 21 8 9 25 9 8 25 8 5 35 14 25 33 19 25 25 25 25 1 25 33 1 1 25 1 1 25 21 1 25 19
split_gain=120541 29955.2 18328.2 7977.89 3454.67 3164.66 2045.22 1831.16 1772.21 1633.55 1530.28 1482.83 1288.39 2049.4 1960.38 1287.03 2160.81 1160.62 935.963 887.789 850.31 828.163 809.781 3429.5 3532.73 3446.09 3025.35 2895.18 1892.86 1663.12 1591.09 2256.45 3276.27 5412.17 1730.07 1051.58 3535.13 2208.21 1283.5 1216.72 2016.01 778.371 742.699 702.146 696.158
threshold=7.5000000000000009 1.5000000000000002 17.500000000000004 3.5000000000000004 12.500000000000002 69.500000000000014 30.500000000000004 10.500000000000002 1.0000000180025095e-35 0.57111561298370372 0.48953905701637274 19.500000000000004 5.5000000000000009 11.000000000000002 39.500000000000007 1.0000000180025095e-35 2.5000000000000004 68.500000000000014 2.5000000000000004 1.0000000180025095e-35 52.500000000000007 1.0000000180025095e-35 1.0000000180025095e-35 0.45506027340888983 1.0000000180025095e-35 35.500000000000007 0.4084122925996781 1.0000000180025095e-35 41.500000000000007 74.500000000000014 67.500000000000014 54.500000000000007 7019.5000000000009 51.500000000000007 0.60328876972198497 3436.5000000000005 5152.5000000000009 49.500000000000007 6466.5000000000009 2430.5000000000005 50.500000000000007 24.500000000000004 10133.500000000002 25.500000000000004 1.0000000180025095e-35
decision_type=2 2 2 2 2 2 2 2 2 2 2 2 2 2 2 2 2 2 2 2 2 2 2 2 2 2 2 2 2 2 2 2 2 2 2 2 2 2 2 2 2 2 2 2 2
left_child=1 4 5 9 22 7 17 -2 21 11 15 -3 13 14 -9 41 -17 -4 19 -13 -14 -6 23 44 25 -25 -27 28 -28 30 31 32 35 -34 -32 39 37 -37 -38 40 -30 -5 -33 -18 -1
right_child=2 3 6 10 8 -7 -8 12 -10 -11 -12 18 20 -15 -16 16 43 -19 -20 -21 -22 -23 -24 24 -26 26 27 -29 29 -31 34 42 33 -35 -36 36 38 -39 -40 -41 -42 -43 -44 -45 -46
leaf_value=-0.0010135688806116531 0.12060836011525081 0.006385328393235243 0.31233070214723091 0.046301258756100007 0.009978234631880311 0.30676734181375831 0.41379322941859131 0.15298023403609173 0.0096644166222758215 0.1393217388874852 0.20646944206866441 0.049337034568890298 0.18238818442270294 0.10431361485412072 0.37843460964081777 0.039605199176876361 0.033205381823867945 0.13107666504501289 0.04420795916542819 0.019800622030612183 0.30165238252086141 -0.0013593348533229507 -0.0052153056344357521 0.15505164532526863 -0.011843633496481577 -0.022850264297952984 -0.031218366485817113 -0.010241220850959343 0.18405188766830058 -0.0063014646627102423 0.24968395840976498 0.048818703180420198 0.092335393584066949 0.51464277209328391 0.047456627986911276 0.097351268310154282 -0.07520837398534197 0.38074774759716495 0.11115750259609164 -0.054687897474649028 -0.064938469475427127 0.12445548765886932 -0.051237101568666135 0.088264759796887582 -0.0065764018227802926
leaf_weight=576253 10997 41963 3361 1795 72115 1365 3085 1236 253599 1161 735 11578 1829 3542 619 26736 2719 511 28093 83887 1327 600887 2639443 2546 17255 6909 1494 5338 819 1703 1251 3626 796 471 670 566 706 588 674 920 486 5231 885 19897 369063
leaf_count=576253 10997 41963 3361 1795 72115 1365 3085 1236 253599 1161 735 11578 1829 3542 619 26736 2719 511 28093 83887 1327 600887 2639443 2546 17255 6909 1494 5338 819 1703 1251 3626 796 471 670 566 706 588 674 920 486 5231 885 19897 369063
internal_value=0 -0.011556 2.07226 0.345597 -0.0290917 1.59777 3.477 1.48752 0.0254095 0.234941 0.668034 0.226393 1.84015 1.51423 2.36223 0.647994 0.589779 2.90412 0.281538 0.234078 2.36489 -0.00143667 -0.0429948 -0.0186497 0.242815 0.447429 0.344145 0.532751 0.749028 0.861762 0.988004 0.827985 1.2262 2.6298 1.82196 0.828847 1.26395 2.51649 0.164479 0.315986 0.922761 1.04971 0.288206 0.817375 -0.0318571
internal_weight=0 4.78286e+06 27872 223795 4.55906e+06 20915 6957 19550 926601 166682 57113 165521 8553 5397 1855 56378 49352 3872 123558 95465 3156 673002 3.63246e+06 993019 47703 30448 27902 20993 15655 14161 12458 10537 6026 1267 1921 4759 2534 1154 1380 2225 1305 7026 4511 22616 945316
internal_count=4810730 4782858 27872 223795 4559063 20915 6957 19550 926601 166682 57113 165521 8553 5397 1855 56378 49352 3872 123558 95465 3156 673002 3632462 993019 47703 30448 27902 20993 15655 14161 12458 10537 6026 1267 1921 4759 2534 1154 1380 2225 1305 7026 4511 22616 945316
shrinkage=0.1


Tree=18
num_leaves=46
num_cat=0
split_feature=3 3 3 3 21 3 3 9 7 21 9 24 7 9 24 6 9 7 35 8 16 24 25 35 19 25 24 24 35 21 21 25 25 25 25 7 9 21 17 21 25 21 24 24 24
split_gain=98088 24545.4 15214 5566.75 2860.56 2555.3 2160.79 2069.16 1397.87 1077.92 959.097 948.336 935.729 1410.79 941.597 916.369 881.524 1974.16 769.05 1902.93 2105.66 2546.85 2370.53 1712.72 2234.61 1294.57 1272.96 3141.99 1077.1 1043.64 2079.42 855.002 2434.19 754.955 752.717 710.895 1099.84 695.019 613.132 588.444 585.589 528.985 525.351 1642.75 780.769
threshold=7.5000000000000009 2.5000000000000004 19.500000000000004 1.0000000180025095e-35 70.500000000000014 4.5000000000000009 12.500000000000002 1.5000000000000002 1.0000000180025095e-35 30.500000000000004 1.0000000180025095e-35 12.500000000000002 5.5000000000000009 2.5000000000000004 12.500000000000002 1.0000000180025095e-35 3.5000000000000004 2.5000000000000004 0.45506027340888983 1.0000000180025095e-35 1.0000000180025095e-35 13.500000000000002 35.500000000000007 0.67097818851470958 1.0000000180025095e-35 41.500000000000007 18.500000000000004 19.500000000000004 0.67097818851470958 29.500000000000004 19.500000000000004 66.500000000000014 53.500000000000007 66.500000000000014 25.500000000000004 3.5000000000000004 1.5000000000000002 22.500000000000004 1.0000000180025095e-35 68.500000000000014 27.500000000000004 24.500000000000004 25.500000000000004 26.500000000000004 13.500000000000002
decision_type=2 2 2 2 2 2 2 2 2 2 2 2 2 2 2 2 2 2 2 2 2 2 2 2 2 2 2 2 2 2 2 2 2 2 2 2 2 2 2 2 2 2 2 2 2
left_child=1 3 4 10 6 35 16 8 38 33 18 -8 14 39 -7 -10 17 37 42 20 21 22 -20 24 25 -24 -23 28 -28 30 -27 32 -32 -4 -9 -3 -37 -2 -5 -14 -38 -16 44 -44 -1
right_child=2 5 9 7 -6 12 11 34 15 -11 -12 -13 13 -15 41 -17 -18 -19 19 -21 -22 26 23 -25 -26 29 27 -29 -30 -31 31 -33 -34 -35 -36 36 40 -39 -40 -41 -42 -43 43 -45 -46
leaf_value=-0.0032273032100562059 0.072359884114023817 0.062034430369128292 0.30296136588249667 0.0278176420530475 0.29942926328244301 0.025367629612148525 0.092641100175660462 0.003536334419057987 -0.00077175393245820865 0.38670905752826701 0.0014461937263042764 0.20806761152471809 0.032266503268343238 0.084871500819671583 0.059345834580779355 0.0089417434977686668 0.1466973176413896 0.060781807380182407 0.18295224355243275 -0.0036211144041532642 -0.012732706459795086 -0.022149061811361101 -0.042663164359144495 0.013287555227208271 -0.0063395755273157692 0.050234866189298039 0.27812618892556856 0.012909045930408132 0.071044434914213847 0.047546028566892579 0.2607655779297175 0.31981520082309844 0.028853173336464463 0.14394562285506687 0.025608774803567394 0.019661779241989839 0.015450445985331913 0.19293787354565167 -0.0036614777827823561 0.11132291142086488 0.052164162429853826 0.15122779729008956 0.016169596019033668 -0.0031928436977838462 -0.0063981238505133936
leaf_weight=1759632 728 9443 2680 33870 1179 1082 969 19619 262104 2593 375512 5062 11978 13821 899 154225 6415 5658 1425 145941 15060 8135 447 6917 2048 1269 567 11615 503 1213 1104 575 769 495 73160 32613 5291 2093 7548 987 25907 3137 49958 353916 1390568
leaf_count=1759632 728 9443 2680 33870 1179 1082 969 19619 262104 2593 375512 5062 11978 13821 899 154225 6415 5658 1425 145941 15060 8135 447 6917 2048 1269 567 11615 503 1213 1104 575 769 495 73160 32613 5291 2093 7548 987 25907 3137 49958 353916 1390568
internal_value=0 -0.0103755 1.86937 -0.0211191 1.48585 0.467298 1.39387 0.0733304 0.0457151 3.31352 -0.0337187 1.90453 0.703603 0.626396 1.09752 0.0282692 1.18135 0.957796 -0.0385416 0.0221728 0.187045 0.316472 0.619001 0.492718 0.824676 1.16058 0.0863849 0.284001 1.88385 1.30753 1.56888 2.10024 1.68827 2.80817 0.209468 0.363957 0.325544 1.63658 0.22081 0.386971 0.459756 1.31763 -0.0419176 -0.00795815 -0.0462708
internal_weight=0 4.78286e+06 27872 4.6777e+06 22104 105158 20925 550526 457747 5768 4.12717e+06 6031 31904 26786 5118 416329 14894 8479 3.75166e+06 197588 51647 36587 15767 14342 7425 5377 20820 12685 1070 4930 3717 2448 1873 3175 92779 73254 63811 2821 41418 12965 31198 4036 3.55407e+06 403874 3.1502e+06
internal_count=4810730 4782858 27872 4677700 22104 105158 20925 550526 457747 5768 4127174 6031 31904 26786 5118 416329 14894 8479 3751662 197588 51647 36587 15767 14342 7425 5377 20820 12685 1070 4930 3717 2448 1873 3175 92779 73254 63811 2821 41418 12965 31198 4036 3554074 403874 3150200
shrinkage=0.1


Tree=19
num_leaves=46
num_cat=0
split_feature=9 4 18 7 15 9 15 18 12 9 12 30 18 36 9 8 32 32 4 20 32 14 4 20 36 33 33 14 30 33 30 34 14 11 4 4 36 33 32 9 10 4 10 4 33
split_gain=28956.8 12964.5 6835.93 6169.64 4492.42 3961.38 2823.64 2329.5 2203.21 1288.17 1255.38 1244.1 988.071 1970.94 915.152 677.08 1136.65 1327.25 2088.57 1342.25 1065.07 657.92 655.921 1061.36 1324.41 1639.7 2259.92 1142.34 1019.41 1045.59 1029.78 859.009 933.571 723.706 680.839 612.586 609.446 654.407 802.174 608.444 610.013 569.538 600.321 504.758 481.244
threshold=4.5000000000000009 19.500000000000004 10.500000000000002 1.0000000180025095e-35 1.0000000180025095e-35 18.500000000000004 2.5000000000000004 4.5000000000000009 11.500000000000002 2.5000000000000004 14.500000000000002 0.60804620385169994 1.0000000180025095e-35 1.0000000180025095e-35 8.5000000000000018 1.0000000180025095e-35 1.0000000180025095e-35 0.69250172376632702 1.0000000180025095e-35 1.0000000180025095e-35 0.97148165106773388 1.0000000180025095e-35 1.0000000180025095e-35 1.0000000180025095e-35 1.0000000180025095e-35 0.38471034169197088 0.66456088423728954 1.0000000180025095e-35 0.6242063343524934 0.60328876972198497 0.52493566274642955 1.0000000180025095e-35 1.0000000180025095e-35 1.0000000180025095e-35 9.5000000000000018 5.5000000000000009 0.45516742765903478 0.4084122925996781 0.80382481217384349 1.5000000000000002 3.5000000000000004 19.500000000000004 18.500000000000004 5.5000000000000009 0.4394377619028092
decision_type=2 2 2 2 2 2 2 2 2 2 2 2 2 2 2 2 2 2 2 2 2 2 2 2 2 2 2 2 2 2 2 2 2 2 2 2 2 2 2 2 2 2 2 2 2
left_child=1 12 5 11 39 6 41 9 -4 -6 -7 36 15 35 -8 16 22 18 19 -18 -19 -22 23 24 25 31 27 28 29 30 -27 32 33 -1 -24 -14 37 -3 -39 40 -5 42 -2 -17 -12
right_child=2 3 8 4 7 10 14 -9 -10 -11 44 -13 13 -15 -16 43 17 20 -20 -21 21 -23 34 -25 -26 26 -28 -29 -30 -31 -32 -33 -34 -35 -36 -37 -38 38 -40 -41 -42 -43 -44 -45 -46
leaf_value=0.0089482720447659585 0.084103616498461542 0.034104913611861992 0.13210266724438832 0.007968986053077309 0.014147697312460529 0.097462259758855752 0.063798199163780628 0.056372023060902943 0.28272536520864688 0.038323228492204875 0.23645386962042678 0.13016129333803753 -0.0020947996704732716 0.12129286008426401 0.11015059805064216 -0.0054636606585124403 0.09522362129389958 -0.012162346354304127 -0.025321405147802751 -0.019757609864907783 0.040521322022791441 -0.012784081677111765 -0.006557520283524818 -0.0066871934992164539 -0.0082547420740892805 0.13650146949446237 -0.019517132064138132 -0.027360615702062187 -0.054140838512702662 0.041662145970126199 0.046682278037055776 -0.012848582665143127 -0.0094064527600919746 -0.011543925321040441 0.0080038678911455302 0.0061757879053549909 -0.016150749233283985 0.067686872388176181 -0.029926457369602356 0.013661257396260741 -0.00087254694048763664 0.036621063457013256 -0.011976792050259921 -0.0026188780621634101 0.12923516508979427
leaf_weight=244007 701 59941 2955 106565 158717 3620 14160 16807 1561 25587 1315 1416 207660 1328 6343 1625756 5898 16305 2835 1204 9009 3080 350060 168068 88355 3600 5416 1394 615 5197 2082 28175 37244 18497 35304 157377 2082 10730 884 45827 291006 23815 4799 1012464 969
leaf_count=244007 701 59941 2955 106565 158717 3620 14160 16807 1561 25587 1315 1416 207660 1328 6343 1625756 5898 16305 2835 1204 9009 3080 350060 168068 88355 3600 5416 1394 615 5197 2082 28175 37244 18497 35304 157377 2082 10730 884 45827 291006 23815 4799 1012464 969
internal_value=0 -0.00821926 0.689207 0.115421 0.0838036 0.592134 0.499321 0.207751 1.86715 0.17514 1.36435 0.38668 -0.0302917 0.0192205 0.783762 -0.0352421 -0.0134468 0.155393 0.468971 0.757151 0.0449843 0.269354 -0.0200057 0.000597228 0.0266969 0.0545862 0.345464 0.572612 0.676069 0.747148 1.04302 0.0382967 0.0539957 0.0750201 -0.052224 0.0147095 0.368202 0.38373 0.60152 0.0275656 0.0149779 0.299352 0.00898442 -0.0437203 1.94752
internal_weight=0 4.75049e+06 60238 719562 644509 55722 49818 201111 4516 184304 5904 75053 4.03093e+06 366365 20503 3.66456e+06 1.02634e+06 38331 9937 7102 28394 12089 988014 602650 434582 346227 18304 12888 11494 10879 5682 327923 299748 262504 385364 365037 73637 71555 11614 443398 397571 29315 5500 2.63822e+06 2284
internal_count=4810730 4750492 60238 719562 644509 55722 49818 201111 4516 184304 5904 75053 4030930 366365 20503 3664565 1026345 38331 9937 7102 28394 12089 988014 602650 434582 346227 18304 12888 11494 10879 5682 327923 299748 262504 385364 365037 73637 71555 11614 443398 397571 29315 5500 2638220 2284
shrinkage=0.1


Tree=20
num_leaves=46
num_cat=0
split_feature=6 6 6 23 11 0 0 0 0 0 23 31 2 2 2 2 2 2 11 20 23 8 11 20 36 8 22 17 6 6 22 17 13 36 20 8 22 36 36 22 20 35 0 23 2
split_gain=30791.3 9437.83 4315.11 3936.7 3680.01 2956.68 4765.1 2720.42 4276.08 4962.67 2194.93 1914.03 1702.41 7279.67 4869.13 3658.75 2275.97 2981.34 2038.59 2455 3367.18 2469.91 2019.04 2073.1 2503.11 1866.05 1914.45 1508.55 1507.7 1494.77 1417.92 1333.39 1306.54 1347.69 1890.18 1917.66 2445.66 1290.46 1123.4 1592.62 1097.52 1075.12 1177.69 1068.98 1056.2
threshold=3.5000000000000004 12.500000000000002 1.5000000000000002 10.500000000000002 1.0000000180025095e-35 24.500000000000004 21.500000000000004 24.500000000000004 22.500000000000004 23.500000000000004 10.500000000000002 0.36953921616077429 24.500000000000004 32.000000000000007 30.500000000000004 25.500000000000004 53.500000000000007 54.500000000000007 11.000000000000002 1.0000000180025095e-35 16.500000000000004 11.000000000000002 11.000000000000002 1.0000000180025095e-35 1.0000000180025095e-35 11.000000000000002 11.500000000000002 11.000000000000002 19.500000000000004 6.5000000000000009 8.5000000000000018 11.000000000000002 1.0000000180025095e-35 1.0000000180025095e-35 1.0000000180025095e-35 11.000000000000002 11.500000000000002 1.0000000180025095e-35 1.0000000180025095e-35 10.500000000000002 1.0000000180025095e-35 0.57654651999473583 16.500000000000004 38.000000000000007 28.500000000000004
decision_type=2 2 2 2 2 2 2 2 2 2 2 2 2 2 2 2 2 2 2 2 2 2 2 2 2 2 2 2 2 2 2 2 2 2 2 2 2 2 2 2 2 2 2 2 2
left_child=2 3 12 -2 43 6 10 8 29 11 -6 -10 -1 14 15 22 -15 32 19 20 21 27 23 24 25 26 31 -16 -12 -5 -7 -14 33 34 35 36 -18 -4 39 -22 -11 42 -31 -3 -17
right_child=1 4 37 7 5 30 -8 -9 9 40 28 -13 13 16 18 44 17 -19 -20 -21 38 -23 -24 -25 -26 -27 -28 -29 -30 41 -32 -33 -34 -35 -36 -37 -38 -39 -40 -41 -42 -43 -44 -45 -46
leaf_value=-0.0041540210180947825 0.015540632823485712 0.023911685333346342 0.014088089914299559 0.045851808254463187 0.059094329032039442 -0.021949486293998996 0.38052208867131793 0.012031449066458661 0.32839617978166452 0.016221021625908289 0.13827337172897616 0.13555152233624182 0.16846048742722217 -0.0045096032834103421 0.18037789740105065 0.0065642383547930162 0.14207572071964156 -0.00027220113473172845 0.022446368512672871 0.0086101097449300876 0.18817366232430144 0.024030375344264117 0.015743792933754504 0.0052435587120003074 -0.011308690485384432 0.025683165121429111 0.061822768408038214 -0.0079270365651623875 0.25969762984888611 0.077962836921422141 0.14720452958638933 -0.0092830831943293331 0.012178309226242696 -0.014803209862573925 0.0015307319975146807 0.020332923183165357 0.039797463838803282 0.11870076526306116 -0.011425748531780158 0.041317665913956712 0.14137743694716032 0.046827212884688302 0.16428249634983522 0.1696480877279431 -0.0033028729879880491
leaf_weight=1664349 27493 2898 164024 21614 1603 1019 1203 8420 1544 1765 2409 926 4752 1735493 4881 268488 5121 463601 55171 7003 829 1666 60080 7024 3022 3422 4312 460 2132 3850 893 456 60215 3823 5868 5336 4370 1139 2990 4986 1131 3545 2880 566 181958
leaf_count=1664349 27493 2898 164024 21614 1603 1019 1203 8420 1544 1765 2409 926 4752 1735493 4881 268488 5121 463601 55171 7003 829 1666 60080 7024 3022 3422 4312 460 2132 3850 893 456 60215 3823 5868 5336 4370 1139 2990 4986 1131 3545 2880 566 181958
internal_value=0 0.593685 -0.0103028 0.454819 1.3873 1.71533 2.00277 0.634654 0.750556 1.57398 1.62182 2.60263 -0.0160553 -0.00140477 0.0954941 0.0613594 -0.0273516 0.0288071 0.328812 0.580061 0.797808 1.31307 0.254135 0.505923 0.704604 0.895315 1.12217 1.64218 1.97511 0.609719 0.58741 1.52938 0.201225 0.395644 0.49624 0.685818 0.954489 0.148458 0.382548 0.636966 0.667033 0.923919 1.15856 0.498278 0.0257827
internal_weight=0 85891 4.72484e+06 73168 12723 9259 7347 45675 37255 5366 6144 2470 4.55968e+06 2.89533e+06 611500 533514 2.28383e+06 548334 77986 22815 15812 7007 83068 22988 15964 12942 9520 5341 4541 31889 1912 5208 84733 24518 20695 14827 9491 165163 8805 5815 2896 10275 6730 3464 450446
internal_count=4810730 85891 4724839 73168 12723 9259 7347 45675 37255 5366 6144 2470 4559676 2895327 611500 533514 2283827 548334 77986 22815 15812 7007 83068 22988 15964 12942 9520 5341 4541 31889 1912 5208 84733 24518 20695 14827 9491 165163 8805 5815 2896 10275 6730 3464 450446
shrinkage=0.1


Tree=21
num_leaves=46
num_cat=0
split_feature=9 4 21 8 15 9 15 9 1 25 25 21 9 26 1 1 25 25 21 9 1 36 4 25 14 21 1 21 26 1 1 20 1 25 21 1 1 4 1 1 25 1 21 21 25
split_gain=20292.7 8691.91 5853.15 5226.36 3258.38 2895.17 2739.48 2057.13 1603.84 1373.26 1368.44 1540.52 1364.29 1327.86 1242.45 2242.8 1201.73 1137.77 1055.85 943.262 936.19 851.71 921.6 845.157 770.743 1431.15 2812.82 1240.26 1009.2 1552.06 707.181 691.193 657.734 639.612 3916.59 799.652 1114.57 633.609 623.225 1467.64 1195.95 1052.7 1530.85 2149.86 963.943
threshold=3.5000000000000004 19.500000000000004 70.500000000000014 1.0000000180025095e-35 4.5000000000000009 8.5000000000000018 1.0000000180025095e-35 9.5000000000000018 3837.5000000000005 25.500000000000004 49.500000000000007 30.500000000000004 19.500000000000004 2.5000000000000004 10513.500000000002 9778.0000000000018 49.500000000000007 53.500000000000007 28.500000000000004 1.5000000000000002 2784.5000000000005 0.48953905701637274 19.500000000000004 26.500000000000004 1.0000000180025095e-35 8.5000000000000018 8451.0000000000018 62.500000000000007 15.500000000000002 17624.500000000004 6000.5000000000009 1.0000000180025095e-35 20693.500000000004 29.500000000000004 30.500000000000004 12439.000000000002 19109.500000000004 10.500000000000002 2784.5000000000005 4739.5000000000009 61.500000000000007 6953.5000000000009 30.500000000000004 27.500000000000004 51.500000000000007
decision_type=2 2 2 2 2 2 2 2 2 2 2 2 2 2 2 2 2 2 2 2 2 2 2 2 2 2 2 2 2 2 2 2 2 2 2 2 2 2 2 2 2 2 2 2 2
left_child=1 37 4 13 9 -4 23 31 -9 -2 18 -12 21 14 15 -3 30 -18 -10 -8 -19 22 -11 -5 25 26 -25 -27 -29 -30 -14 -6 33 34 -15 -36 -37 -1 -35 40 -40 -41 43 44 -43
right_child=2 3 5 6 7 -7 19 8 10 12 11 -13 16 32 -16 -17 17 20 -20 -21 -22 -23 -24 24 -26 27 -28 28 29 -31 -32 -33 -34 38 35 36 -38 -39 39 41 -42 42 -44 -45 -46
leaf_value=-0.0031099940119122278 -2.0886370543365905e-05 -0.0020100125361561193 0.088843834441543437 -0.0053724150085339532 0.036232747971647904 0.25050835771896385 0.012123215509154274 0.048496865851245199 0.18393729836209882 -0.0015916848593453062 0.14073794971032993 0.32769432655454606 0.22193543624078096 0.28348838569960189 0.053288938853953666 0.25505852967481413 -0.065878424445916822 -0.0071089399388429486 0.041152324607946641 0.027896098361502687 0.18239183950346788 0.16094107590476081 0.037881979871143251 0.031534643521060161 0.0013710830347017857 0.00340063692781089 0.25258415113364546 0.022677752434141239 0.038996826083332277 0.21670942625364062 0.073808941720039475 0.078559258634272544 -0.0086053685820885045 -0.0044010208481654427 0.062371052377759972 0.0087555588758242049 0.097241336214885926 0.00055412233201128738 0.094680542945932644 -0.012202852646929479 0.003534751802372128 -0.034736450635600762 0.016826101985402304 0.16815345329902645 0.068669694924450714
leaf_weight=3479008 12331 536 2771 112298 8830 1907 136917 2036 839 7105 1292 766 866 631 4755 868 601 444 1341 52508 566 466 34995 3364 221520 76462 650 19795 1741 653 611 7062 4054 5842 8505 9760 1620 545933 5407 7274 1964 1302 18118 1715 2701
leaf_count=3479008 12331 536 2771 112298 8830 1907 136917 2036 839 7105 1292 766 866 631 4755 868 601 444 1341 52508 566 466 34995 3364 221520 76462 650 19795 1741 653 611 7062 4054 5842 8505 9760 1620 545933 5407 7274 1964 1302 18118 1715 2701
internal_value=0 -0.00823224 0.485095 0.0945292 0.420988 1.5672 0.064612 0.746875 1.23118 0.295857 1.5796 2.16494 0.375758 0.343806 0.787597 1.60155 1.0135 0.395874 0.990418 0.165021 1.02586 0.328335 0.312239 0.0210201 0.046919 0.118521 0.700217 0.0944995 0.302365 0.909534 1.65148 0.552352 0.303574 0.327998 0.474193 0.39231 0.21731 -0.0261298 0.259847 0.306001 0.705957 0.210225 0.311703 0.760641 0.349979
internal_weight=0 4.7259e+06 84829 700960 80151 4678 625908 22166 6274 57985 4238 2058 45654 75052 6159 1404 3088 1611 2180 189425 1010 42566 42100 436483 324185 102665 4014 98651 22189 2394 1477 15892 68893 64839 20516 19885 11380 4.02494e+06 44323 38481 7371 31110 23836 5718 4003
internal_count=4810730 4725901 84829 700960 80151 4678 625908 22166 6274 57985 4238 2058 45654 75052 6159 1404 3088 1611 2180 189425 1010 42566 42100 436483 324185 102665 4014 98651 22189 2394 1477 15892 68893 64839 20516 19885 11380 4024941 44323 38481 7371 31110 23836 5718 4003
shrinkage=0.1


Tree=22
num_leaves=46
num_cat=0
split_feature=12 15 12 12 26 35 36 35 8 16 2 2 2 35 0 21 0 0 0 35 0 2 2 2 2 2 11 36 16 13 36 2 2 26 11 26 2 2 8 26 15 0 35 0 26
split_gain=12715.9 4062.66 2973.13 2096.65 2039.72 2150.03 1746.46 1674 2612.7 2465.61 2441.98 3161.06 2381.19 1614.19 1924.78 1604.7 1353.85 1256.44 1576.32 1320.31 1179.7 1174.42 2496.67 4441.17 1666.19 1883.24 1391.79 1545.22 1411.1 1270.02 1406.25 1372.24 2793.82 1202.47 1043.03 1261.39 996.651 1456.53 1101.26 1439.74 990.547 989.047 1336.02 1277.72 1182.29
threshold=2.5000000000000004 7.5000000000000009 11.500000000000002 1.0000000180025095e-35 3.5000000000000004 0.57654651999473583 1.0000000180025095e-35 0.43607778847217565 1.0000000180025095e-35 1.0000000180025095e-35 32.000000000000007 24.500000000000004 34.500000000000007 0.67097818851470958 23.500000000000004 75.500000000000014 19.500000000000004 15.500000000000002 23.500000000000004 0.67097818851470958 16.500000000000004 18.500000000000004 32.000000000000007 30.500000000000004 53.500000000000007 54.500000000000007 11.000000000000002 1.0000000180025095e-35 1.0000000180025095e-35 1.0000000180025095e-35 1.0000000180025095e-35 24.500000000000004 25.500000000000004 2.5000000000000004 11.000000000000002 4.5000000000000009 28.500000000000004 26.500000000000004 11.000000000000002 4.5000000000000009 1.0000000180025095e-35 23.500000000000004 0.67097818851470958 12.500000000000002 11.500000000000002
decision_type=2 2 2 2 2 2 2 2 2 2 2 2 2 2 2 2 2 2 2 2 2 2 2 2 2 2 2 2 2 2 2 2 2 2 2 2 2 2 2 2 2 2 2 2 2
left_child=3 15 -3 7 -4 -6 -5 21 9 10 11 41 -12 14 16 20 -13 -14 19 -19 -2 -1 23 29 -24 -26 27 28 33 30 31 -23 34 -25 35 -33 37 -34 39 -39 -22 42 43 -9 -45
right_child=1 2 4 6 5 -7 -8 8 -10 -11 12 13 17 -15 -16 -17 -18 18 -20 -21 40 22 24 26 25 -27 -28 -29 -30 -31 -32 32 36 -35 -36 -37 -38 38 -40 -41 -42 -43 -44 44 -46
